{"learner":{"attributes":{"best_iteration":"121","best_msg":"[121]\tvalidation_0-error:0.05794\tvalidation_1-error:0.09736","best_score":"0.097362","scikit_learn":"{\"n_estimators\": 1000, \"objective\": \"binary:logistic\", \"max_depth\": 4, \"learning_rate\": 0.3, \"verbosity\": null, \"booster\": null, \"tree_method\": null, \"gamma\": null, \"min_child_weight\": null, \"max_delta_step\": null, \"subsample\": null, \"colsample_bytree\": null, \"colsample_bylevel\": null, \"colsample_bynode\": null, \"reg_alpha\": null, \"reg_lambda\": 15, \"scale_pos_weight\": null, \"base_score\": null, \"missing\": NaN, \"num_parallel_tree\": null, \"kwargs\": {\"silent\": true, \"eval_metrics\": \"error\", \"seed\": 100, \"sub_sabsample\": 0.8}, \"random_state\": null, \"n_jobs\": null, \"monotone_constraints\": null, \"interaction_constraints\": null, \"importance_type\": \"gain\", \"gpu_id\": null, \"validate_parameters\": null, \"classes_\": [0, 1], \"n_classes_\": 2, \"_le\": {\"classes_\": [0, 1]}, \"_features_count\": 168, \"evals_result_\": {\"validation_0\": {\"error\": [0.243139, 0.20193, 0.184667, 0.17878, 0.16404, 0.155453, 0.151292, 0.146689, 0.143458, 0.137792, 0.132879, 0.132215, 0.128807, 0.126726, 0.125266, 0.124779, 0.123716, 0.122433, 0.120352, 0.119157, 0.117962, 0.115483, 0.113846, 0.11358, 0.110659, 0.109906, 0.109198, 0.107073, 0.106719, 0.105834, 0.104993, 0.103222, 0.102691, 0.10278, 0.102293, 0.100301, 0.09977, 0.098708, 0.097557, 0.097114, 0.096273, 0.095343, 0.093794, 0.092998, 0.092245, 0.091979, 0.09105, 0.090873, 0.089501, 0.089235, 0.087642, 0.087774, 0.087509, 0.087642, 0.087332, 0.086137, 0.085606, 0.085251, 0.085428, 0.084543, 0.084322, 0.083746, 0.082551, 0.082463, 0.081533, 0.081002, 0.07994, 0.07932, 0.078479, 0.078479, 0.078125, 0.077373, 0.077373, 0.077107, 0.075912, 0.075381, 0.075646, 0.075646, 0.074672, 0.074584, 0.074009, 0.073743, 0.072902, 0.072813, 0.071928, 0.071751, 0.071087, 0.070954, 0.070822, 0.070335, 0.069538, 0.069184, 0.068785, 0.06883, 0.068785, 0.068387, 0.067635, 0.067148, 0.067015, 0.066616, 0.066395, 0.066395, 0.06582, 0.064979, 0.064359, 0.063562, 0.062987, 0.062721, 0.062898, 0.062367, 0.062323, 0.062456, 0.061748, 0.061526, 0.061084, 0.060597, 0.059667, 0.059579, 0.059269, 0.059269, 0.058339, 0.057941, 0.05772, 0.057454, 0.05741, 0.057144, 0.056746, 0.056569, 0.056126, 0.055949, 0.055152, 0.054621, 0.054356, 0.054046, 0.053647, 0.053515, 0.052895, 0.052674, 0.052541, 0.052762, 0.052231, 0.051921, 0.050814, 0.051036, 0.050992, 0.05015, 0.049487, 0.049354, 0.049398, 0.048114, 0.047052]}, \"validation_1\": {\"error\": [0.249956, 0.218092, 0.197026, 0.190299, 0.177199, 0.169233, 0.165693, 0.161445, 0.159143, 0.152062, 0.148876, 0.147637, 0.145335, 0.141972, 0.140025, 0.140379, 0.138786, 0.138255, 0.136661, 0.134891, 0.132413, 0.130112, 0.129757, 0.128695, 0.127102, 0.127987, 0.127279, 0.125155, 0.123031, 0.122854, 0.122677, 0.123562, 0.124447, 0.122854, 0.123031, 0.121614, 0.120552, 0.118251, 0.11772, 0.117366, 0.116127, 0.11595, 0.114888, 0.115065, 0.11595, 0.114179, 0.113117, 0.113648, 0.114179, 0.113825, 0.112763, 0.111347, 0.111524, 0.111524, 0.112763, 0.112409, 0.111347, 0.112055, 0.111524, 0.110993, 0.111701, 0.110462, 0.109754, 0.109046, 0.110462, 0.109931, 0.110285, 0.109931, 0.110462, 0.110108, 0.110639, 0.11117, 0.1094, 0.108161, 0.108515, 0.108869, 0.107984, 0.10763, 0.109223, 0.108692, 0.107099, 0.107453, 0.107099, 0.106922, 0.108338, 0.107984, 0.107276, 0.108869, 0.107984, 0.107807, 0.10763, 0.107276, 0.106922, 0.106922, 0.106568, 0.106922, 0.10462, 0.105505, 0.106036, 0.106568, 0.105682, 0.104443, 0.103912, 0.104443, 0.103381, 0.103381, 0.104089, 0.103912, 0.102496, 0.101965, 0.10108, 0.101611, 0.100372, 0.100018, 0.099487, 0.100372, 0.099664, 0.100018, 0.09931, 0.098425, 0.098425, 0.097362, 0.09807, 0.098425, 0.098956, 0.098779, 0.098247, 0.098247, 0.098602, 0.099664, 0.098779, 0.098602, 0.098779, 0.097893, 0.098247, 0.09931, 0.09931, 0.098779, 0.099487, 0.098779, 0.099841, 0.09931, 0.099487, 0.098956, 0.098247, 0.098956, 0.097716, 0.098425, 0.097539, 0.097362, 0.098247]}}, \"best_score\": 0.097362, \"best_iteration\": 121, \"best_ntree_limit\": 122, \"type\": \"XGBClassifier\"}"},"gradient_booster":{"model":{"gbtree_model_param":{"num_trees":"152","size_leaf_vector":"0"},"tree_info":[0,0,0,0,0,0,0,0,0,0,0,0,0,0,0,0,0,0,0,0,0,0,0,0,0,0,0,0,0,0,0,0,0,0,0,0,0,0,0,0,0,0,0,0,0,0,0,0,0,0,0,0,0,0,0,0,0,0,0,0,0,0,0,0,0,0,0,0,0,0,0,0,0,0,0,0,0,0,0,0,0,0,0,0,0,0,0,0,0,0,0,0,0,0,0,0,0,0,0,0,0,0,0,0,0,0,0,0,0,0,0,0,0,0,0,0,0,0,0,0,0,0,0,0,0,0,0,0,0,0,0,0,0,0,0,0,0,0,0,0,0,0,0,0,0,0,0,0,0,0,0,0],"trees":[{"base_weights":[2.91718184947967529e-01,-1.39234852790832520e+00,6.06032073497772217e-01,-7.12589100003242493e-02,-1.53913044929504395e+00,1.74256742000579834e-01,1.26651656627655029e+00,-1.06521737575531006e+00,5.58922529220581055e-01,-1.78732109069824219e+00,-7.01796412467956543e-01,-5.73913037776947021e-01,5.00922143459320068e-01,1.43973946571350098e+00,-1.83934807777404785e-01,-1.14942526817321777e+00,5.71428574621677399e-02,9.23076927661895752e-01,-1.74496650695800781e-01,6.25000000000000000e-02,-1.79188859462738037e+00,-1.46174144744873047e+00,-6.20155036449432373e-02,-1.01926159858703613e+00,4.36010599136352539e-01,-2.75482097640633583e-03,1.06489443778991699e+00,1.52719986438751221e+00,-5.72307705879211426e-01,-1.06478869915008545e+00,3.90070915222167969e-01],"default_left":[true,true,true,true,true,true,true,true,true,true,true,true,true,true,true,false,false,false,false,false,false,false,false,false,false,false,false,false,false,false,false],"id":0,"leaf_child_counts":[0,0,0,0,0,0,0,0,0,0,0,0,0,0,0,0,0,0,0,0,0,0,0,0,0,0,0,0,0,0,0],"left_children":[1,3,5,7,9,11,13,15,17,19,21,23,25,27,29,-1,-1,-1,-1,-1,-1,-1,-1,-1,-1,-1,-1,-1,-1,-1,-1],"loss_changes":[3.01022802734375000e+03,1.71954711914062500e+02,1.36063867187500000e+03,7.48564987182617188e+01,1.48478759765625000e+02,7.15397583007812500e+02,4.78397460937500000e+02,5.33275604248046875e+00,2.22466354370117188e+01,6.84436035156250000e+00,1.00134140014648438e+02,4.07521911621093750e+02,5.77608764648437500e+02,3.10243408203125000e+02,1.14811012268066406e+02,0.00000000000000000e+00,0.00000000000000000e+00,0.00000000000000000e+00,0.00000000000000000e+00,0.00000000000000000e+00,0.00000000000000000e+00,0.00000000000000000e+00,0.00000000000000000e+00,0.00000000000000000e+00,0.00000000000000000e+00,0.00000000000000000e+00,0.00000000000000000e+00,0.00000000000000000e+00,0.00000000000000000e+00,0.00000000000000000e+00,0.00000000000000000e+00],"parents":[2147483647,0,0,1,1,2,2,3,3,4,4,5,5,6,6,7,7,8,8,9,9,10,10,11,11,12,12,13,13,14,14],"right_children":[2,4,6,8,10,12,14,16,18,20,22,24,26,28,30,-1,-1,-1,-1,-1,-1,-1,-1,-1,-1,-1,-1,-1,-1,-1,-1],"split_conditions":[6.48500000000000000e+02,1.00219137966632843e-02,6.65000000000000000e+01,5.03221988677978516e-01,2.45000000000000000e+01,3.50000000000000000e+00,1.10323000000000000e+05,6.75833593750000000e+04,1.55000000000000000e+01,-6.60747241973876953e+00,1.85000000000000000e+01,7.65000000000000000e+01,1.05000000000000000e+01,1.93700000000000000e+03,2.50000000000000000e+00,-3.44827592372894287e-01,1.71428583562374115e-02,2.76923090219497681e-01,-5.23489974439144135e-02,1.87500007450580597e-02,-5.37566602230072021e-01,-4.38522458076477051e-01,-1.86046510934829712e-02,-3.05778503417968750e-01,1.30803182721138000e-01,-8.26446339488029480e-04,3.19468349218368530e-01,4.58159983158111572e-01,-1.71692311763763428e-01,-3.19436609745025635e-01,1.17021277546882629e-01],"split_indices":[42,92,100,89,155,67,18,21,155,78,164,136,71,6,67,0,0,0,0,0,0,0,0,0,0,0,0,0,0,0,0],"sum_hessian":[5.64800000000000000e+03,8.80250000000000000e+02,4.76775000000000000e+03,9.02500000000000000e+01,7.90000000000000000e+02,2.89450000000000000e+03,1.87325000000000000e+03,3.10000000000000000e+01,5.92500000000000000e+01,5.96250000000000000e+02,1.93750000000000000e+02,8.76250000000000000e+02,2.01825000000000000e+03,1.67350000000000000e+03,1.99750000000000000e+02,2.85000000000000000e+01,2.50000000000000000e+00,3.70000000000000000e+01,2.22500000000000000e+01,1.00000000000000000e+00,5.95250000000000000e+02,7.97500000000000000e+01,1.14000000000000000e+02,6.08000000000000000e+02,2.68250000000000000e+02,1.07400000000000000e+03,9.44250000000000000e+02,1.60725000000000000e+03,6.62500000000000000e+01,7.37500000000000000e+01,1.26000000000000000e+02],"tree_param":{"num_deleted":"0","num_feature":"168","num_nodes":"31","size_leaf_vector":"0"}},{"base_weights":[2.09172800183296204e-01,-9.89184260368347168e-01,4.58631336688995361e-01,-5.97153365612030029e-01,-1.35853743553161621e+00,-3.25362801551818848e-01,6.86005413532257080e-01,-1.34353888034820557e+00,-4.03422899544239044e-02,-1.50346124172210693e+00,-6.67522847652435303e-01,-9.62007820606231689e-01,6.09461903572082520e-01,9.75794255733489990e-01,2.12769210338592529e-01,-7.38450735807418823e-02,-1.43056356906890869e+00,-6.06242895126342773e-01,4.17547821998596191e-01,-1.51458692550659180e+00,1.46844565868377686e-01,2.25808024406433105e-01,-1.05735158920288086e+00,-1.26870107650756836e+00,3.15730899572372437e-01,-6.33002579212188721e-01,8.92455041408538818e-01,-3.09092670679092407e-01,1.09230101108551025e+00,-4.06263619661331177e-01,5.51282763481140137e-01],"default_left":[true,true,true,true,true,true,true,true,true,true,true,true,true,true,true,false,false,false,false,false,false,false,false,false,false,false,false,false,false,false,false],"id":1,"leaf_child_counts":[0,0,0,0,0,0,0,0,0,0,0,0,0,0,0,0,0,0,0,0,0,0,0,0,0,0,0,0,0,0,0],"left_children":[1,3,5,7,9,11,13,15,17,19,21,23,25,27,29,-1,-1,-1,-1,-1,-1,-1,-1,-1,-1,-1,-1,-1,-1,-1,-1],"loss_changes":[1.64907714843750000e+03,1.25578308105468750e+02,8.15738647460937500e+02,2.02101715087890625e+02,3.28206787109375000e+01,6.24625976562500000e+02,4.82025878906250000e+02,2.14146728515625000e+01,8.02639617919921875e+01,1.03720703125000000e+01,4.18385887145996094e+01,2.49503479003906250e+02,1.59098495483398438e+02,3.32883056640625000e+02,2.88919281005859375e+02,0.00000000000000000e+00,0.00000000000000000e+00,0.00000000000000000e+00,0.00000000000000000e+00,0.00000000000000000e+00,0.00000000000000000e+00,0.00000000000000000e+00,0.00000000000000000e+00,0.00000000000000000e+00,0.00000000000000000e+00,0.00000000000000000e+00,0.00000000000000000e+00,0.00000000000000000e+00,0.00000000000000000e+00,0.00000000000000000e+00,0.00000000000000000e+00],"parents":[2147483647,0,0,1,1,2,2,3,3,4,4,5,5,6,6,7,7,8,8,9,9,10,10,11,11,12,12,13,13,14,14],"right_children":[2,4,6,8,10,12,14,16,18,20,22,24,26,28,30,-1,-1,-1,-1,-1,-1,-1,-1,-1,-1,-1,-1,-1,-1,-1,-1],"split_conditions":[6.93500000000000000e+02,4.85000000000000000e+01,4.65000000000000000e+01,3.85000000000000000e+01,5.53500000000000000e+02,1.25000000000000000e+01,2.29450000000000000e+03,1.07861319556832314e-02,7.02000000000000000e+02,1.47983658313751221e+00,6.61000000000000000e+02,3.45000000000000000e+01,9.44491699218750000e+02,4.65000000000000000e+01,6.75500000000000000e+02,-2.21535228192806244e-02,-4.29169088602066040e-01,-1.81872874498367310e-01,1.25264346599578857e-01,-4.54376101493835449e-01,4.40533719956874847e-02,6.77424073219299316e-02,-3.17205488681793213e-01,-3.80610346794128418e-01,9.47192758321762085e-02,-1.89900785684585571e-01,2.67736524343490601e-01,-9.27278026938438416e-02,3.27690303325653076e-01,-1.21879093348979950e-01,1.65384829044342041e-01],"split_indices":[42,63,109,154,42,71,2,93,46,95,40,67,84,145,41,0,0,0,0,0,0,0,0,0,0,0,0,0,0,0,0],"sum_hessian":[5.47864355468750000e+03,9.36306030273437500e+02,4.54233740234375000e+03,4.73250244140625000e+02,4.63055786132812500e+02,1.01974719238281250e+03,3.52259008789062500e+03,1.93148193359375000e+02,2.80102050781250000e+02,3.68198944091796875e+02,9.48568420410156250e+01,6.06360473632812500e+02,4.13386718750000000e+02,2.17486791992187500e+03,1.34772216796875000e+03,1.41677989959716797e+01,1.78980392456054688e+02,1.23101989746093750e+02,1.57000061035156250e+02,3.66958618164062500e+02,1.24032092094421387e+00,3.07352504730224609e+01,6.41215896606445313e+01,4.89074829101562500e+02,1.17285659790039063e+02,7.32471694946289063e+01,3.40139556884765625e+02,1.78749130249023438e+02,1.99611889648437500e+03,4.75387878417968750e+02,8.72334228515625000e+02],"tree_param":{"num_deleted":"0","num_feature":"168","num_nodes":"31","size_leaf_vector":"0"}},{"base_weights":[1.52114659547805786e-01,-8.53143513202667236e-01,3.33307206630706787e-01,-3.25920522212982178e-01,-1.38219809532165527e+00,-3.85466188192367554e-01,5.19476652145385742e-01,2.10481777787208557e-01,-9.71576750278472900e-01,-1.39218986034393311e+00,6.53393566608428955e-02,8.86658579111099243e-02,-9.13686513900756836e-01,-5.56276738643646240e-01,6.17273390293121338e-01,-7.67035126686096191e-01,5.35217642784118652e-01,9.38128232955932617e-02,-1.09868443012237549e+00,-1.40158319473266602e+00,6.44801333546638489e-02,3.98492574691772461e-01,-5.71339011192321777e-01,-1.11436223983764648e+00,2.17625312507152557e-02,-1.00294554233551025e+00,-2.78727225959300995e-02,7.59406924247741699e-01,2.80021093785762787e-02],"default_left":[true,true,true,true,true,true,true,true,true,true,false,true,true,true,true,false,false,false,false,false,false,false,false,false,false,false,false,false,false],"id":2,"leaf_child_counts":[0,0,0,0,0,0,0,0,0,0,0,0,0,0,0,0,0,0,0,0,0,0,0,0,0,0,0,0,0],"left_children":[1,3,5,7,9,11,13,15,17,19,-1,21,23,25,27,-1,-1,-1,-1,-1,-1,-1,-1,-1,-1,-1,-1,-1,-1],"loss_changes":[9.53455322265625000e+02,2.16401550292968750e+02,5.95278198242187500e+02,1.48647567749023438e+02,7.07324218750000000e+00,2.31418731689453125e+02,3.75677185058593750e+02,8.29547424316406250e+01,2.77388153076171875e+01,6.72857666015625000e+00,0.00000000000000000e+00,1.05261955261230469e+02,8.22318725585937500e+01,7.07146759033203125e+01,2.70675537109375000e+02,0.00000000000000000e+00,0.00000000000000000e+00,0.00000000000000000e+00,0.00000000000000000e+00,0.00000000000000000e+00,0.00000000000000000e+00,0.00000000000000000e+00,0.00000000000000000e+00,0.00000000000000000e+00,0.00000000000000000e+00,0.00000000000000000e+00,0.00000000000000000e+00,0.00000000000000000e+00,0.00000000000000000e+00],"parents":[2147483647,0,0,1,1,2,2,3,3,4,4,5,5,6,6,7,7,8,8,9,9,11,11,12,12,13,13,14,14],"right_children":[2,4,6,8,10,12,14,16,18,20,-1,22,24,26,28,-1,-1,-1,-1,-1,-1,-1,-1,-1,-1,-1,-1,-1,-1],"split_conditions":[5.62500000000000000e+02,4.85000000000000000e+01,1.75000000000000000e+01,3.97305000000000000e+04,1.42405319213867188e+00,5.15000000000000000e+01,7.03500000000000000e+02,5.55000000000000000e+01,4.87199066162109375e+02,5.80000000000000000e+01,1.96018069982528687e-02,5.05000000000000000e+01,7.38226855468750000e+03,2.35000000000000000e+01,6.50000000000000000e+00,-2.30110540986061096e-01,1.60565301775932312e-01,2.81438473612070084e-02,-3.29605340957641602e-01,-4.20474976301193237e-01,1.93440411239862442e-02,1.19547776877880096e-01,-1.71401709318161011e-01,-3.34308683872222900e-01,6.52875984087586403e-03,-3.00883680582046509e-01,-8.36181733757257462e-03,2.27822080254554749e-01,8.40063299983739853e-03],"split_indices":[43,63,54,22,95,61,42,118,5,99,0,62,82,51,115,0,0,0,0,0,0,0,0,0,0,0,0,0,0],"sum_hessian":[5.19616943359375000e+03,7.85054016113281250e+02,4.41111523437500000e+03,4.05348968505859375e+02,3.79705017089843750e+02,9.04173645019531250e+02,3.50694165039062500e+03,2.26929290771484375e+02,1.78419677734375000e+02,3.77671661376953125e+02,2.03337287902832031e+00,4.83059875488281250e+02,4.21113800048828125e+02,2.86387664794921875e+02,3.22055395507812500e+03,5.14935340881347656e+01,1.75435760498046875e+02,1.94364795684814453e+01,1.58983200073242188e+02,3.75815429687500000e+02,1.85621881484985352e+00,3.32784118652343750e+02,1.50275756835937500e+02,3.44369567871093750e+02,7.67442092895507813e+01,1.47896926879882813e+02,1.38490737915039063e+02,2.59121606445312500e+03,6.29337829589843750e+02],"tree_param":{"num_deleted":"0","num_feature":"168","num_nodes":"29","size_leaf_vector":"0"}},{"base_weights":[1.08216293156147003e-01,-9.00619029998779297e-01,2.27851703763008118e-01,-1.80291812866926193e-02,-1.02922785282135010e+00,-3.68880257010459900e-02,6.20870113372802734e-01,-7.55373954772949219e-01,4.30806517601013184e-01,-1.19471645355224609e+00,-4.83233064413070679e-01,-5.90302944183349609e-01,3.62730145454406738e-01,7.86688804626464844e-01,-5.98406553268432617e-01,-8.05202484130859375e-01,5.46838082373142242e-02,6.67169690132141113e-01,-3.10945510864257813e-01,-1.20343959331512451e+00,-2.75587849318981171e-02,-8.73980462551116943e-01,4.49700474739074707e-01,-7.60371565818786621e-01,3.68595629930496216e-01,-5.55862247943878174e-01,5.32560765743255615e-01,-6.45822882652282715e-01,9.08834457397460938e-01,-1.07349216938018799e+00,-2.25776478648185730e-01],"default_left":[true,true,true,true,true,true,true,true,true,true,true,true,true,true,true,false,false,false,false,false,false,false,false,false,false,false,false,false,false,false,false],"id":3,"leaf_child_counts":[0,0,0,0,0,0,0,0,0,0,0,0,0,0,0,0,0,0,0,0,0,0,0,0,0,0,0,0,0,0,0],"left_children":[1,3,5,7,9,11,13,15,17,19,21,23,25,27,29,-1,-1,-1,-1,-1,-1,-1,-1,-1,-1,-1,-1,-1,-1,-1,-1],"loss_changes":[6.00472351074218750e+02,5.96289367675781250e+01,4.61997283935546875e+02,3.21487960815429688e+01,3.29385375976562500e+01,5.92652893066406250e+02,3.68286132812500000e+02,2.13876533508300781e+00,1.37658834457397461e+01,2.99581909179687500e+00,5.41139106750488281e+01,1.87389648437500000e+02,2.47339202880859375e+02,2.85133178710937500e+02,3.57383346557617188e+01,0.00000000000000000e+00,0.00000000000000000e+00,0.00000000000000000e+00,0.00000000000000000e+00,0.00000000000000000e+00,0.00000000000000000e+00,0.00000000000000000e+00,0.00000000000000000e+00,0.00000000000000000e+00,0.00000000000000000e+00,0.00000000000000000e+00,0.00000000000000000e+00,0.00000000000000000e+00,0.00000000000000000e+00,0.00000000000000000e+00,0.00000000000000000e+00],"parents":[2147483647,0,0,1,1,2,2,3,3,4,4,5,5,6,6,7,7,8,8,9,9,10,10,11,11,12,12,13,13,14,14],"right_children":[2,4,6,8,10,12,14,16,18,20,22,24,26,28,30,-1,-1,-1,-1,-1,-1,-1,-1,-1,-1,-1,-1,-1,-1,-1,-1],"split_conditions":[5.53500000000000000e+02,3.77815626561641693e-02,9.35000000000000000e+01,7.72376000881195068e-01,1.45150000000000000e+03,3.50000000000000000e+00,1.19750000000000000e+03,5.36043203125000000e+04,2.15000000000000000e+01,2.00149655342102051e+00,3.35000000000000000e+01,9.15000000000000000e+01,5.00000000000000000e-01,3.85000000000000000e+01,3.25000000000000000e+01,-2.41560757160186768e-01,1.64051428437232971e-02,2.00150921940803528e-01,-9.32836532592773438e-02,-3.61031889915466309e-01,-8.26763547956943512e-03,-2.62194156646728516e-01,1.34910151362419128e-01,-2.28111475706100464e-01,1.10578693449497223e-01,-1.66758686304092407e-01,1.59768238663673401e-01,-1.93746879696846008e-01,2.72650361061096191e-01,-3.22047650814056396e-01,-6.77329450845718384e-02],"split_indices":[42,93,109,88,47,71,45,21,55,75,50,100,67,136,145,0,0,0,0,0,0,0,0,0,0,0,0,0,0,0,0],"sum_hessian":[4.93472460937500000e+03,5.12776306152343750e+02,4.42194824218750000e+03,6.73924255371093750e+01,4.45383880615234375e+02,2.65028881835937500e+03,1.77165954589843750e+03,2.16240711212158203e+01,4.57683525085449219e+01,3.28112274169921875e+02,1.17271598815917969e+02,1.10829663085937500e+03,1.54199230957031250e+03,1.56424743652343750e+03,2.07412017822265625e+02,2.04556999206542969e+01,1.16837024688720703e+00,3.58521194458007813e+01,9.91623401641845703e+00,3.25215393066406250e+02,2.89688682556152344e+00,8.33213653564453125e+01,3.39502372741699219e+01,9.43979553222656250e+02,1.64317047119140625e+02,2.35282608032226563e+02,1.30670971679687500e+03,1.17846466064453125e+02,1.44640100097656250e+03,7.87705459594726563e+01,1.28641479492187500e+02],"tree_param":{"num_deleted":"0","num_feature":"168","num_nodes":"31","size_leaf_vector":"0"}},{"base_weights":[7.88047313690185547e-02,2.27807685732841492e-01,-6.06667876243591309e-01,-9.07808095216751099e-02,4.64897155761718750e-01,-9.35621201992034912e-01,-1.27264901995658875e-01,-6.67278289794921875e-01,3.81486147642135620e-01,-8.43514949083328247e-02,6.32619917392730713e-01,-1.18393802642822266e+00,-3.07224869728088379e-01,-7.79104053974151611e-01,1.35036274790763855e-01,-8.92617106437683105e-01,7.01432943344116211e-01,-2.56756126880645752e-01,6.08492434024810791e-01,6.54022634029388428e-01,-2.84716516733169556e-01,-8.15458476543426514e-01,7.10009932518005371e-01,-8.90777483582496643e-02,-1.23347985744476318e+00,2.71728724241256714e-01,-9.99857962131500244e-01,-8.78789186477661133e-01,3.11557501554489136e-01,-6.42941951751708984e-01,4.69052284955978394e-01],"default_left":[true,true,true,true,true,true,true,true,true,true,true,true,true,true,true,false,false,false,false,false,false,false,false,false,false,false,false,false,false,false,false],"id":4,"leaf_child_counts":[0,0,0,0,0,0,0,0,0,0,0,0,0,0,0,0,0,0,0,0,0,0,0,0,0,0,0,0,0,0,0],"left_children":[1,3,5,7,9,11,13,15,17,19,21,23,25,27,29,-1,-1,-1,-1,-1,-1,-1,-1,-1,-1,-1,-1,-1,-1,-1,-1],"loss_changes":[4.77807739257812500e+02,2.90457336425781250e+02,1.30018096923828125e+02,4.52959533691406250e+02,2.03682617187500000e+02,7.15203857421875000e+01,6.26987648010253906e+01,2.40190490722656250e+02,1.35109741210937500e+02,8.09716644287109375e+01,1.97954284667968750e+02,1.72456970214843750e+01,6.82273178100585938e+01,1.54998664855957031e+01,7.40840377807617188e+01,0.00000000000000000e+00,0.00000000000000000e+00,0.00000000000000000e+00,0.00000000000000000e+00,0.00000000000000000e+00,0.00000000000000000e+00,0.00000000000000000e+00,0.00000000000000000e+00,0.00000000000000000e+00,0.00000000000000000e+00,0.00000000000000000e+00,0.00000000000000000e+00,0.00000000000000000e+00,0.00000000000000000e+00,0.00000000000000000e+00,0.00000000000000000e+00],"parents":[2147483647,0,0,1,1,2,2,3,3,4,4,5,5,6,6,7,7,8,8,9,9,10,10,11,11,12,12,13,13,14,14],"right_children":[2,4,6,8,10,12,14,16,18,20,22,24,26,28,30,-1,-1,-1,-1,-1,-1,-1,-1,-1,-1,-1,-1,-1,-1,-1,-1],"split_conditions":[6.15000000000000000e+01,5.25000000000000000e+01,5.12500000000000000e+02,9.50000000000000000e+00,5.15000000000000000e+01,2.05000000000000000e+01,8.46500000000000000e+02,7.28720996093750000e+03,9.29908752441406250e-01,7.72308334708213806e-02,2.41940917968750000e+01,1.22070917859673500e-03,8.31000000000000000e+02,1.36093711853027344e+00,1.85000000000000000e+01,-2.67785131931304932e-01,2.10429891943931580e-01,-7.70268440246582031e-02,1.82547733187675476e-01,1.96206793189048767e-01,-8.54149609804153442e-02,-2.44637548923492432e-01,2.13002994656562805e-01,-2.67233252525329590e-02,-3.70043963193893433e-01,8.15186202526092529e-02,-2.99957394599914551e-01,-2.63636767864227295e-01,9.34672504663467407e-02,-1.92882597446441650e-01,1.40715688467025757e-01],"split_indices":[62,154,46,67,56,128,43,82,93,93,83,92,7,72,55,0,0,0,0,0,0,0,0,0,0,0,0,0,0,0,0],"sum_hessian":[4.64278906250000000e+03,3.82200512695312500e+03,8.20784179687500000e+02,1.63467309570312500e+03,2.18733203125000000e+03,4.78307800292968750e+02,3.42476348876953125e+02,7.33317138671875000e+02,9.01355957031250000e+02,5.13431884765625000e+02,1.67390014648437500e+03,3.33328796386718750e+02,1.44979003906250000e+02,8.97891693115234375e+01,2.52687179565429688e+02,6.34133666992187500e+02,9.91834640502929688e+01,2.35963653564453125e+02,6.65392272949218750e+02,1.02338256835937500e+02,4.11093627929687500e+02,7.76627426147460938e+01,1.59623742675781250e+03,1.62469482421875000e+01,3.17081848144531250e+02,8.39351501464843750e+01,6.10438575744628906e+01,8.49396896362304688e+01,4.84947538375854492e+00,7.17338943481445313e+01,1.80953292846679688e+02],"tree_param":{"num_deleted":"0","num_feature":"168","num_nodes":"31","size_leaf_vector":"0"}},{"base_weights":[5.67509680986404419e-02,-4.27464038133621216e-01,1.99838459491729736e-01,-7.02739357948303223e-02,-1.18470764160156250e+00,-7.49831140041351318e-01,2.76214063167572021e-01,-8.78455936908721924e-01,3.50513577461242676e-01,-1.20619964599609375e+00,1.63194209337234497e-01,-1.22709882259368896e+00,-2.26823300123214722e-01,-1.83818414807319641e-02,4.99560296535491943e-01,-1.12271273136138916e+00,3.55905205011367798e-01,-3.27396780252456665e-01,5.94722747802734375e-01,-1.23644065856933594e+00,-2.06569731235504150e-02,-3.52661907672882080e-02,2.06372648477554321e-01,1.53937131166458130e-01,-1.27535200119018555e+00,7.15873539447784424e-01,-7.26563990116119385e-01,-6.99788570404052734e-01,2.81008005142211914e-01,-1.00893631577491760e-01,6.48986458778381348e-01],"default_left":[true,true,true,true,true,true,true,true,true,true,true,true,true,true,true,false,false,false,false,false,false,false,false,false,false,false,false,false,false,false,false],"id":5,"leaf_child_counts":[0,0,0,0,0,0,0,0,0,0,0,0,0,0,0,0,0,0,0,0,0,0,0,0,0,0,0,0,0,0,0],"left_children":[1,3,5,7,9,11,13,15,17,19,21,23,25,27,29,-1,-1,-1,-1,-1,-1,-1,-1,-1,-1,-1,-1,-1,-1,-1,-1],"loss_changes":[3.06683593750000000e+02,2.71995452880859375e+02,2.50634170532226563e+02,2.43478286743164063e+02,1.23051147460937500e+01,6.02424774169921875e+01,2.08688659667968750e+02,7.97907867431640625e+01,8.11625137329101563e+01,1.10738830566406250e+01,2.65808612108230591e-01,1.17101287841796875e+01,7.44795532226562500e+01,2.84736419677734375e+02,1.62785339355468750e+02,0.00000000000000000e+00,0.00000000000000000e+00,0.00000000000000000e+00,0.00000000000000000e+00,0.00000000000000000e+00,0.00000000000000000e+00,0.00000000000000000e+00,0.00000000000000000e+00,0.00000000000000000e+00,0.00000000000000000e+00,0.00000000000000000e+00,0.00000000000000000e+00,0.00000000000000000e+00,0.00000000000000000e+00,0.00000000000000000e+00,0.00000000000000000e+00],"parents":[2147483647,0,0,1,1,2,2,3,3,4,4,5,5,6,6,7,7,8,8,9,9,10,10,11,11,12,12,13,13,14,14],"right_children":[2,4,6,8,10,12,14,16,18,20,22,24,26,28,30,-1,-1,-1,-1,-1,-1,-1,-1,-1,-1,-1,-1,-1,-1,-1,-1],"split_conditions":[5.26500000000000000e+02,1.18400000000000000e+03,5.12115600585937500e+02,7.78500000000000000e+02,7.57900000000000000e+03,1.33550000000000000e+03,4.85000000000000000e+01,1.50000000000000000e+00,7.05000000000000000e+01,2.73397200000000000e+06,1.59436166286468506e-02,4.37268157958984375e+02,1.50000000000000000e+00,1.12250000000000000e+03,5.65000000000000000e+01,-3.36813837289810181e-01,1.06771565973758698e-01,-9.82190370559692383e-02,1.78416833281517029e-01,-3.70932221412658691e-01,-6.19709212332963943e-03,-1.05798579752445221e-02,6.19117952883243561e-02,4.61811423301696777e-02,-3.82605612277984619e-01,2.14762076735496521e-01,-2.17969208955764771e-01,-2.09936574101448059e-01,8.43024030327796936e-02,-3.02680898457765579e-02,1.94695949554443359e-01],"split_indices":[46,7,47,43,42,43,154,71,136,20,74,6,107,42,145,0,0,0,0,0,0,0,0,0,0,0,0,0,0,0,0],"sum_hessian":[4.39290527343750000e+03,9.95220214843750000e+02,3.39768481445312500e+03,6.87377746582031250e+02,3.07842498779296875e+02,2.43067672729492188e+02,3.15461718750000000e+03,2.29765609741210938e+02,4.57612121582031250e+02,3.04563232421875000e+02,3.27927088737487793e+00,1.16532829284667969e+02,1.26534851074218750e+02,1.36626513671875000e+03,1.78835205078125000e+03,1.92942642211914063e+02,3.68229598999023438e+01,1.19838340759277344e+02,3.37773773193359375e+02,2.96359649658203125e+02,8.20359325408935547e+00,1.07713484764099121e+00,2.20213603973388672e+00,2.82505345344543457e+00,1.13707771301269531e+02,4.15911407470703125e+01,8.49437103271484375e+01,4.10931182861328125e+02,9.55333923339843750e+02,3.57329956054687500e+02,1.43102209472656250e+03],"tree_param":{"num_deleted":"0","num_feature":"168","num_nodes":"31","size_leaf_vector":"0"}},{"base_weights":[3.91068682074546814e-02,-7.55699455738067627e-01,1.06007002294063568e-01,-1.10494828224182129e+00,6.82851910591125488e-01,-7.37008750438690186e-01,1.76244646310806274e-01,1.36538624763488770e-01,-1.19053590297698975e+00,-2.03692346811294556e-01,8.09769153594970703e-01,-9.43989813327789307e-01,5.43115613982081413e-03,3.79592850804328918e-02,5.24014592170715332e-01,-3.22191268205642700e-01,4.62709605693817139e-01,-1.26802229881286621e+00,-7.20290839672088623e-02,-3.58958780765533447e-01,1.28748729825019836e-01,-1.72662720084190369e-01,8.90131950378417969e-01,7.50812739133834839e-02,-1.04100942611694336e+00,5.33794045448303223e-01,-4.45938706398010254e-01,-4.32469397783279419e-01,1.46334350109100342e-01,6.15474283695220947e-01,-3.40529561042785645e-01],"default_left":[true,true,true,true,true,true,true,true,true,true,true,true,true,true,true,false,false,false,false,false,false,false,false,false,false,false,false,false,false,false,false],"id":6,"leaf_child_counts":[0,0,0,0,0,0,0,0,0,0,0,0,0,0,0,0,0,0,0,0,0,0,0,0,0,0,0,0,0,0,0],"left_children":[1,3,5,7,9,11,13,15,17,19,21,23,25,27,29,-1,-1,-1,-1,-1,-1,-1,-1,-1,-1,-1,-1,-1,-1,-1,-1],"loss_changes":[2.23197937011718750e+02,1.75093963623046875e+02,2.30743194580078125e+02,3.09179077148437500e+01,1.06824607849121094e+01,4.61896514892578125e+01,1.71818908691406250e+02,6.83608388900756836e+00,2.04953002929687500e+01,1.78343272209167480e+00,7.58170318603515625e+00,2.43812713623046875e+01,2.27289085388183594e+01,1.32326416015625000e+02,8.35637817382812500e+01,0.00000000000000000e+00,0.00000000000000000e+00,0.00000000000000000e+00,0.00000000000000000e+00,0.00000000000000000e+00,0.00000000000000000e+00,0.00000000000000000e+00,0.00000000000000000e+00,0.00000000000000000e+00,0.00000000000000000e+00,0.00000000000000000e+00,0.00000000000000000e+00,0.00000000000000000e+00,0.00000000000000000e+00,0.00000000000000000e+00,0.00000000000000000e+00],"parents":[2147483647,0,0,1,1,2,2,3,3,4,4,5,5,6,6,7,7,8,8,9,9,10,10,11,11,12,12,13,13,14,14],"right_children":[2,4,6,8,10,12,14,16,18,20,22,24,26,28,30,-1,-1,-1,-1,-1,-1,-1,-1,-1,-1,-1,-1,-1,-1,-1,-1],"split_conditions":[8.50000000000000000e+00,1.80789843750000000e+04,4.70500000000000000e+02,9.63504798710346222e-03,7.50000000000000000e+00,1.29166424274444580e+00,5.95000000000000000e+01,1.50000000000000000e+00,5.08900000000000000e+03,3.50000000000000000e+00,5.12500000000000000e+02,2.19125952571630478e-02,6.36500000000000000e+02,8.93500000000000000e+02,6.71250000000000000e+04,-9.66573879122734070e-02,1.38812884688377380e-01,-3.80406707525253296e-01,-2.16087251901626587e-02,-1.07687637209892273e-01,3.86246219277381897e-02,-5.17988167703151703e-02,2.67039597034454346e-01,2.25243829190731049e-02,-3.12302827835083008e-01,1.60138219594955444e-01,-1.33781611919403076e-01,-1.29740819334983826e-01,4.39003072679042816e-02,1.84642285108566284e-01,-1.02158874273300171e-01],"split_indices":[55,82,43,92,54,95,56,155,42,65,45,95,45,42,22,0,0,0,0,0,0,0,0,0,0,0,0,0,0,0,0],"sum_hessian":[4.16000927734375000e+03,3.10979644775390625e+02,3.84902954101562500e+03,2.53028411865234375e+02,5.79512367248535156e+01,2.85074462890625000e+02,3.56395507812500000e+03,1.57427740097045898e+01,2.37285629272460938e+02,6.12098407745361328e+00,5.18302536010742188e+01,2.19741729736328125e+02,6.53327331542968750e+01,2.56189428710937500e+03,1.00206066894531250e+03,6.61807394027709961e+00,9.12469959259033203e+00,2.20037109375000000e+02,1.72485256195068359e+01,3.35672736167907715e+00,2.76425671577453613e+00,2.61642742156982422e+00,4.92138252258300781e+01,1.93965644836425781e+01,2.00345169067382813e+02,2.88373165130615234e+01,3.64954147338867188e+01,4.71289367675781250e+02,2.09060498046875000e+03,9.10102783203125000e+02,9.19579238891601563e+01],"tree_param":{"num_deleted":"0","num_feature":"168","num_nodes":"31","size_leaf_vector":"0"}},{"base_weights":[2.59246397763490677e-02,1.64001345634460449e-01,-3.06473731994628906e-01,-5.90415954589843750e-01,2.18879446387290955e-01,-8.08937430381774902e-01,-1.24123357236385345e-01,-7.68861830234527588e-01,2.55779147148132324e-01,2.56655335426330566e-01,-6.39492392539978027e-01,2.43824407458305359e-01,-9.03308391571044922e-01,-6.69109165668487549e-01,1.56556114554405212e-01,6.11006766557693481e-02,-9.23080980777740479e-01,-4.90724474191665649e-01,6.14066541194915771e-01,-1.81673616170883179e-01,3.27908277511596680e-01,-7.97666907310485840e-01,2.25722640752792358e-01,-3.02794009447097778e-01,5.38068115711212158e-01,-1.14644718170166016e+00,-5.54594635963439941e-01,-8.29074978828430176e-01,-6.61874748766422272e-03,-6.13750338554382324e-01,3.59672009944915771e-01],"default_left":[true,true,true,true,true,true,true,true,true,true,true,true,true,true,true,false,false,false,false,false,false,false,false,false,false,false,false,false,false,false,false],"id":7,"leaf_child_counts":[0,0,0,0,0,0,0,0,0,0,0,0,0,0,0,0,0,0,0,0,0,0,0,0,0,0,0,0,0,0,0],"left_children":[1,3,5,7,9,11,13,15,17,19,21,23,25,27,29,-1,-1,-1,-1,-1,-1,-1,-1,-1,-1,-1,-1,-1,-1,-1,-1],"loss_changes":[1.84692291259765625e+02,1.19569534301757813e+02,1.06740539550781250e+02,3.26549224853515625e+01,8.86995162963867188e+01,3.42876281738281250e+01,1.36877868652343750e+02,2.21197891235351563e+01,1.66937980651855469e+01,8.07898559570312500e+01,1.86314125061035156e+01,8.47016048431396484e+00,1.49996185302734375e+01,3.20857543945312500e+01,9.65637969970703125e+01,0.00000000000000000e+00,0.00000000000000000e+00,0.00000000000000000e+00,0.00000000000000000e+00,0.00000000000000000e+00,0.00000000000000000e+00,0.00000000000000000e+00,0.00000000000000000e+00,0.00000000000000000e+00,0.00000000000000000e+00,0.00000000000000000e+00,0.00000000000000000e+00,0.00000000000000000e+00,0.00000000000000000e+00,0.00000000000000000e+00,0.00000000000000000e+00],"parents":[2147483647,0,0,1,1,2,2,3,3,4,4,5,5,6,6,7,7,8,8,9,9,10,10,11,11,12,12,13,13,14,14],"right_children":[2,4,6,8,10,12,14,16,18,20,22,24,26,28,30,-1,-1,-1,-1,-1,-1,-1,-1,-1,-1,-1,-1,-1,-1,-1,-1],"split_conditions":[5.75000000000000000e+01,6.50000000000000000e+00,7.97500000000000000e+02,4.99550000000000000e+03,3.55000000000000000e+01,1.06023706030100584e-03,2.05000000000000000e+01,3.26987355947494507e-02,1.46131500000000000e+05,2.95000000000000000e+01,7.63493457031250000e+03,1.38699960937500000e+04,1.25000000000000000e+01,6.22025927734375000e+03,2.65000000000000000e+01,1.83302033692598343e-02,-2.76924312114715576e-01,-1.47217348217964172e-01,1.84219971299171448e-01,-5.45020885765552521e-02,9.83724892139434814e-02,-2.39300087094306946e-01,6.77167922258377075e-02,-9.08382087945938110e-02,1.61420434713363647e-01,-3.43934178352355957e-01,-1.66378393769264221e-01,-2.48722508549690247e-01,-1.98562443256378174e-03,-1.84125110507011414e-01,1.07901610434055328e-01],"split_indices":[62,54,43,42,146,92,55,95,20,145,82,20,155,82,118,0,0,0,0,0,0,0,0,0,0,0,0,0,0,0,0],"sum_hessian":[3.99267968750000000e+03,2.82626269531250000e+03,1.16641699218750000e+03,1.81722091674804688e+02,2.64454052734375000e+03,2.96865631103515625e+02,8.69551330566406250e+02,1.51206481933593750e+02,3.05156211853027344e+01,2.54313525390625000e+03,1.01405242919921875e+02,2.24679241180419922e+01,2.74397705078125000e+02,2.88541564941406250e+02,5.81009765625000000e+02,2.51129570007324219e+01,1.26093521118164063e+02,8.09818744659423828e+00,2.24174346923828125e+01,3.52346862792968750e+02,2.19078857421875000e+03,8.67221755981445313e+01,1.46830720901489258e+01,7.70969486236572266e+00,1.47582292556762695e+01,1.41454559326171875e+02,1.32943161010742188e+02,2.29382736206054688e+02,5.91588325500488281e+01,1.14906761169433594e+02,4.66102996826171875e+02],"tree_param":{"num_deleted":"0","num_feature":"168","num_nodes":"31","size_leaf_vector":"0"}},{"base_weights":[1.36812822893261909e-02,-4.38351869583129883e-01,9.65158864855766296e-02,-1.53595909476280212e-01,-1.00617563724517822e+00,-8.08706998825073242e-01,1.38967558741569519e-01,8.81444588303565979e-02,-8.57972681522369385e-01,-1.03838741779327393e+00,1.08164638280868530e-01,-9.75645542144775391e-01,3.85097920894622803e-01,-4.68122065067291260e-01,1.98324948549270630e-01,-6.92190527915954590e-01,2.36698850989341736e-01,1.09044574201107025e-01,-9.02589499950408936e-01,-1.06721484661102295e+00,-4.86800912767648697e-03,-1.46856829524040222e-01,2.51010477542877197e-01,-1.03157591819763184e+00,1.24746389687061310e-01,-1.41707077622413635e-01,4.87712323665618896e-01,1.23892493546009064e-01,-8.65359663963317871e-01,-2.27329358458518982e-01,2.75553345680236816e-01],"default_left":[true,true,true,true,true,true,true,true,true,true,true,true,true,true,true,false,false,false,false,false,false,false,false,false,false,false,false,false,false,false,false],"id":8,"leaf_child_counts":[0,0,0,0,0,0,0,0,0,0,0,0,0,0,0,0,0,0,0,0,0,0,0,0,0,0,0,0,0,0,0],"left_children":[1,3,5,7,9,11,13,15,17,19,21,23,25,27,29,-1,-1,-1,-1,-1,-1,-1,-1,-1,-1,-1,-1,-1,-1,-1,-1],"loss_changes":[1.45948028564453125e+02,9.52991256713867188e+01,1.28195083618164063e+02,7.26143951416015625e+01,8.82563781738281250e+00,3.54640274047851563e+01,1.15171173095703125e+02,4.02635040283203125e+01,6.16435241699218750e+00,5.72483825683593750e+00,1.25142371654510498e+00,1.02729949951171875e+01,2.61067628860473633e+00,6.87919006347656250e+01,9.58343048095703125e+01,0.00000000000000000e+00,0.00000000000000000e+00,0.00000000000000000e+00,0.00000000000000000e+00,0.00000000000000000e+00,0.00000000000000000e+00,0.00000000000000000e+00,0.00000000000000000e+00,0.00000000000000000e+00,0.00000000000000000e+00,0.00000000000000000e+00,0.00000000000000000e+00,0.00000000000000000e+00,0.00000000000000000e+00,0.00000000000000000e+00,0.00000000000000000e+00],"parents":[2147483647,0,0,1,1,2,2,3,3,4,4,5,5,6,6,7,7,8,8,9,9,10,10,11,11,12,12,13,13,14,14],"right_children":[2,4,6,8,10,12,14,16,18,20,22,24,26,28,30,-1,-1,-1,-1,-1,-1,-1,-1,-1,-1,-1,-1,-1,-1,-1,-1],"split_conditions":[4.77599487304687500e+02,1.01000000000000000e+03,7.50000000000000000e+00,3.75000000000000000e+01,1.91782593727111816e+00,5.55000000000000000e+01,5.12115600585937500e+02,5.00000000000000000e-01,4.95000000000000000e+01,2.60246950000000000e+06,5.50000000000000000e+00,3.76750000000000000e+03,6.18500000000000000e+02,6.34000000000000000e+02,4.55000000000000000e+01,-2.07657173275947571e-01,7.10096582770347595e-02,3.27133722603321075e-02,-2.70776867866516113e-01,-3.20164471864700317e-01,-1.46040273830294609e-03,-4.40570488572120667e-02,7.53031447529792786e-02,-3.09472799301147461e-01,3.74239198863506317e-02,-4.25121262669563293e-02,1.46313697099685669e-01,3.71677502989768982e-02,-2.59607911109924316e-01,-6.81988075375556946e-02,8.26660096645355225e-02],"split_indices":[46,7,51,53,77,66,47,146,62,20,129,47,41,41,56,0,0,0,0,0,0,0,0,0,0,0,0,0,0,0,0],"sum_hessian":[3.86582080078125000e+03,5.88726745605468750e+02,3.27709399414062500e+03,4.04788330078125000e+02,1.83938430786132813e+02,1.34671005249023438e+02,3.14242309570312500e+03,3.11131652832031250e+02,9.36566848754882813e+01,1.79764434814453125e+02,4.17399120330810547e+00,1.20554168701171875e+02,1.41168355941772461e+01,2.70681060791015625e+02,2.87174194335937500e+03,4.09795112609863281e+01,2.70152130126953125e+02,3.17530012130737305e+00,9.04813842773437500e+01,1.74410644531250000e+02,5.35379743576049805e+00,1.34736466407775879e+00,2.82662630081176758e+00,1.15615760803222656e+02,4.93841218948364258e+00,1.36983513832092285e+00,1.27470006942749023e+01,1.12837631225585938e+02,1.57843429565429688e+02,4.36540100097656250e+02,2.43520190429687500e+03],"tree_param":{"num_deleted":"0","num_feature":"168","num_nodes":"31","size_leaf_vector":"0"}},{"base_weights":[4.33112448081374168e-03,-6.65668696165084839e-02,4.25590366125106812e-01,-3.52417260408401489e-01,1.02997884154319763e-01,-5.77811062335968018e-01,6.56915366649627686e-01,-5.11824071407318115e-01,3.72744560241699219e-01,-4.80125308036804199e-01,2.22305327653884888e-01,-1.03250229358673096e+00,5.68802431225776672e-02,-5.85105158388614655e-02,8.26204836368560791e-01,-6.40105485916137695e-01,2.53678590059280396e-01,-3.26681971549987793e-01,6.80262625217437744e-01,-7.05478191375732422e-01,6.41874790191650391e-01,-1.09535634517669678e+00,2.77688145637512207e-01,-1.21892035007476807e+00,1.59923851490020752e-01,-3.82929801940917969e-01,3.69136393070220947e-01,3.15544456243515015e-01,-5.71773290634155273e-01,5.86732663214206696e-02,9.32769656181335449e-01],"default_left":[true,true,true,true,true,true,true,true,true,true,true,true,true,true,true,false,false,false,false,false,false,false,false,false,false,false,false,false,false,false,false],"id":9,"leaf_child_counts":[0,0,0,0,0,0,0,0,0,0,0,0,0,0,0,0,0,0,0,0,0,0,0,0,0,0,0,0,0,0,0],"left_children":[1,3,5,7,9,11,13,15,17,19,21,23,25,27,29,-1,-1,-1,-1,-1,-1,-1,-1,-1,-1,-1,-1,-1,-1,-1,-1],"loss_changes":[1.12915817260742188e+02,1.57435333251953125e+02,1.32103759765625000e+02,1.42567367553710938e+02,1.43754196166992188e+02,3.26292991638183594e+01,5.51775970458984375e+01,1.00350402832031250e+02,5.20449028015136719e+01,9.57430953979492188e+01,1.29094787597656250e+02,1.73457946777343750e+01,1.03787498474121094e+01,2.19124145507812500e+01,2.89969787597656250e+01,0.00000000000000000e+00,0.00000000000000000e+00,0.00000000000000000e+00,0.00000000000000000e+00,0.00000000000000000e+00,0.00000000000000000e+00,0.00000000000000000e+00,0.00000000000000000e+00,0.00000000000000000e+00,0.00000000000000000e+00,0.00000000000000000e+00,0.00000000000000000e+00,0.00000000000000000e+00,0.00000000000000000e+00,0.00000000000000000e+00,0.00000000000000000e+00],"parents":[2147483647,0,0,1,1,2,2,3,3,4,4,5,5,6,6,7,7,8,8,9,9,10,10,11,11,12,12,13,13,14,14],"right_children":[2,4,6,8,10,12,14,16,18,20,22,24,26,28,30,-1,-1,-1,-1,-1,-1,-1,-1,-1,-1,-1,-1,-1,-1,-1,-1],"split_conditions":[3.23750000000000000e+03,6.35000000000000000e+01,8.00500000000000000e+02,7.28438037109375000e+03,3.55000000000000000e+01,2.85000000000000000e+01,6.62000000000000000e+02,2.69750000000000000e+03,1.50000000000000000e+00,1.17035000000000000e+04,1.20358066558837891e+01,1.85000000000000000e+01,6.40500000000000000e+02,5.25000000000000000e+01,5.00000000000000000e-01,-1.92031651735305786e-01,7.61035829782485962e-02,-9.80045944452285767e-02,2.04078793525695801e-01,-2.11643472313880920e-01,1.92562445998191833e-01,-3.28606903553009033e-01,8.33064466714859009e-02,-3.65676105022430420e-01,4.79771569371223450e-02,-1.14878945052623749e-01,1.10740922391414642e-01,9.46633443236351013e-02,-1.71531990170478821e-01,1.76019798964262009e-02,2.79830902814865112e-01],"split_indices":[43,145,41,82,136,54,46,47,70,2,80,127,41,61,122,0,0,0,0,0,0,0,0,0,0,0,0,0,0,0,0],"sum_hessian":[3.75146411132812500e+03,3.22185522460937500e+03,5.29609008789062500e+02,1.19357092285156250e+03,2.02828430175781250e+03,9.50125503540039063e+01,4.34596435546875000e+02,9.82096984863281250e+02,2.11474014282226563e+02,3.36797882080078125e+02,1.69148645019531250e+03,4.98782310485839844e+01,4.51343193054199219e+01,8.50378417968750000e+01,3.49558593750000000e+02,8.43244812011718750e+02,1.38852142333984375e+02,6.42980957031250000e+01,1.47175903320312500e+02,2.85103515625000000e+02,5.16943588256835938e+01,5.68661117553710938e+01,1.63462023925781250e+03,4.28465309143066406e+01,7.03170299530029297e+00,1.73300762176513672e+01,2.78042411804199219e+01,5.25319557189941406e+01,3.25058898925781250e+01,4.54517517089843750e+01,3.04106842041015625e+02],"tree_param":{"num_deleted":"0","num_feature":"168","num_nodes":"31","size_leaf_vector":"0"}},{"base_weights":[2.67206621356308460e-03,1.68301448225975037e-01,-1.68333932757377625e-01,-2.32684314250946045e-01,3.19042861461639404e-01,-2.62981832027435303e-01,4.84652578830718994e-01,-5.85926532745361328e-01,8.39431956410408020e-02,1.18773309513926506e-02,4.93715167045593262e-01,-3.80268514156341553e-01,2.28362247347831726e-01,-3.08520555496215820e-01,7.05445945262908936e-01,-1.00168704986572266e+00,-3.48735839128494263e-01,-3.85218381881713867e-01,4.00417178869247437e-01,-5.23266196250915527e-01,2.83286750316619873e-01,-5.53119599819183350e-01,5.53859233856201172e-01,-5.54754376411437988e-01,-9.82759147882461548e-02,-2.69729048013687134e-01,5.44822454452514648e-01,-5.20284771919250488e-01,2.28237926959991455e-01,-1.93659752607345581e-01,8.36521863937377930e-01],"default_left":[true,true,true,true,true,true,true,true,true,true,true,true,true,true,true,false,false,false,false,false,false,false,false,false,false,false,false,false,false,false,false],"id":10,"leaf_child_counts":[0,0,0,0,0,0,0,0,0,0,0,0,0,0,0,0,0,0,0,0,0,0,0,0,0,0,0,0,0,0,0],"left_children":[1,3,5,7,9,11,13,15,17,19,21,23,25,27,29,-1,-1,-1,-1,-1,-1,-1,-1,-1,-1,-1,-1,-1,-1,-1,-1],"loss_changes":[1.03138801574707031e+02,1.12917732238769531e+02,1.12649276733398438e+02,5.82310180664062500e+01,7.23784179687500000e+01,9.20467834472656250e+01,4.39128837585449219e+01,1.89059371948242188e+01,4.45092315673828125e+01,7.55703964233398438e+01,5.87823486328125000e+01,6.20072479248046875e+01,5.15123367309570313e+01,8.71232891082763672e+00,2.43655090332031250e+01,0.00000000000000000e+00,0.00000000000000000e+00,0.00000000000000000e+00,0.00000000000000000e+00,0.00000000000000000e+00,0.00000000000000000e+00,0.00000000000000000e+00,0.00000000000000000e+00,0.00000000000000000e+00,0.00000000000000000e+00,0.00000000000000000e+00,0.00000000000000000e+00,0.00000000000000000e+00,0.00000000000000000e+00,0.00000000000000000e+00,0.00000000000000000e+00],"parents":[2147483647,0,0,1,1,2,2,3,3,4,4,5,5,6,6,7,7,8,8,9,9,10,10,11,11,12,12,13,13,14,14],"right_children":[2,4,6,8,10,12,14,16,18,20,22,24,26,28,30,-1,-1,-1,-1,-1,-1,-1,-1,-1,-1,-1,-1,-1,-1,-1,-1],"split_conditions":[-6.70783519744873047e-02,2.35000000000000000e+01,1.59338650000000000e+06,8.17500000000000000e+02,8.35000000000000000e+01,2.74550000000000000e+03,7.04000000000000000e+02,2.25000000000000000e+01,7.50000000000000000e+00,5.00000000000000000e-01,4.50000000000000000e+00,5.65000000000000000e+01,1.03250000000000000e+03,6.50000000000000000e+00,5.00000000000000000e-01,-3.00506114959716797e-01,-1.04620754718780518e-01,-1.15565516054630280e-01,1.20125159621238708e-01,-1.56979858875274658e-01,8.49860310554504395e-02,-1.65935888886451721e-01,1.66157782077789307e-01,-1.66426315903663635e-01,-2.94827762991189957e-02,-8.09187144041061401e-02,1.63446739315986633e-01,-1.56085431575775146e-01,6.84713795781135559e-02,-5.80979287624359131e-02,2.50956565141677856e-01],"split_indices":[78,50,18,41,109,43,41,127,71,71,128,56,46,70,132,0,0,0,0,0,0,0,0,0,0,0,0,0,0,0,0],"sum_hessian":[3.61143774414062500e+03,1.83467968750000000e+03,1.77675805664062500e+03,4.99038391113281250e+02,1.33564123535156250e+03,1.55965148925781250e+03,2.17106582641601563e+02,2.29850357055664063e+02,2.69188049316406250e+02,4.89994323730468750e+02,8.45646972656250000e+02,1.26183508300781250e+03,2.97816375732421875e+02,4.59776382446289063e+01,1.71128936767578125e+02,6.59328384399414063e+01,1.63917526245117188e+02,1.07123268127441406e+02,1.62064773559570313e+02,1.60201782226562500e+02,3.29792541503906250e+02,3.92654266357421875e+01,8.06381530761718750e+02,7.70544006347656250e+02,4.91291046142578125e+02,1.16564765930175781e+02,1.81251617431640625e+02,3.33002510070800781e+01,1.26773862838745117e+01,2.08624610900878906e+01,1.50266479492187500e+02],"tree_param":{"num_deleted":"0","num_feature":"168","num_nodes":"31","size_leaf_vector":"0"}},{"base_weights":[1.72307831235229969e-03,-8.78841876983642578e-01,2.96714790165424347e-02,-4.04320983216166496e-03,-1.01097834110260010e+00,-6.69082224369049072e-01,6.34710267186164856e-02,-2.89250820875167847e-01,2.89748638868331909e-01,4.50632125139236450e-02,-1.03276264667510986e+00,-8.11251342296600342e-01,-1.52370613068342209e-02,8.84169042110443115e-02,-9.26870763301849365e-01,-3.90879034996032715e-01,8.72608423233032227e-02,3.95508944988250732e-01,-1.15139015018939972e-01,-1.06199312210083008e+00,-8.82244855165481567e-02,-8.66509290062822402e-05,-9.29723262786865234e-01,4.35050815343856812e-01,-4.44444388151168823e-01,2.91922424366930500e-05,3.11271965503692627e-01,-9.99487936496734619e-01,2.45892573148012161e-02],"default_left":[true,true,true,true,true,true,true,true,true,false,true,true,true,true,true,false,false,false,false,false,false,false,false,false,false,false,false,false,false],"id":11,"leaf_child_counts":[0,0,0,0,0,0,0,0,0,0,0,0,0,0,0,0,0,0,0,0,0,0,0,0,0,0,0,0,0],"left_children":[1,3,5,7,9,11,13,15,17,-1,19,21,23,25,27,-1,-1,-1,-1,-1,-1,-1,-1,-1,-1,-1,-1,-1,-1],"loss_changes":[8.65002746582031250e+01,1.24372329711914063e+01,8.10729598999023438e+01,3.70798730850219727e+00,2.85773468017578125e+00,1.45425949096679688e+01,8.18249282836914063e+01,1.36674940586090088e+00,1.62091493606567383e+00,0.00000000000000000e+00,1.15139770507812500e+00,1.24778976440429688e+01,1.13238077163696289e+01,6.29509239196777344e+01,5.99709320068359375e+00,0.00000000000000000e+00,0.00000000000000000e+00,0.00000000000000000e+00,0.00000000000000000e+00,0.00000000000000000e+00,0.00000000000000000e+00,0.00000000000000000e+00,0.00000000000000000e+00,0.00000000000000000e+00,0.00000000000000000e+00,0.00000000000000000e+00,0.00000000000000000e+00,0.00000000000000000e+00,0.00000000000000000e+00],"parents":[2147483647,0,0,1,1,2,2,3,3,4,4,5,5,6,6,7,7,8,8,10,10,11,11,12,12,13,13,14,14],"right_children":[2,4,6,8,10,12,14,16,18,-1,20,22,24,26,28,-1,-1,-1,-1,-1,-1,-1,-1,-1,-1,-1,-1,-1,-1],"split_conditions":[4.50000000000000000e+00,3.55000000000000000e+01,4.71500000000000000e+02,2.15000000000000000e+01,1.05000000000000000e+01,1.69450000000000000e+03,4.25000000000000000e+01,4.91459250450134277e-01,4.50000000000000000e+00,1.35189639404416084e-02,4.65000000000000000e+01,4.15959917008876801e-02,6.68500000000000000e+02,6.27668499946594238e-01,1.95000000000000000e+01,-1.17263711988925934e-01,2.61782538145780563e-02,1.18652686476707458e-01,-3.45417074859142303e-02,-3.18597942590713501e-01,-2.64673475176095963e-02,-2.59952794294804335e-05,-2.78916984796524048e-01,1.30515247583389282e-01,-1.33333325386047363e-01,8.75767273100791499e-06,9.33815911412239075e-02,-2.99846380949020386e-01,7.37677747383713722e-03],"split_indices":[55,58,42,153,60,47,146,77,148,0,164,94,45,77,144,0,0,0,0,0,0,0,0,0,0,0,0,0,0],"sum_hessian":[3.48389453125000000e+03,9.31256332397460938e+01,3.39076879882812500e+03,1.42491703033447266e+01,7.88764572143554688e+01,1.43439712524414063e+02,3.24732910156250000e+03,7.34785747528076172e+00,6.90131282806396484e+00,1.27022743225097656e+00,7.76062316894531250e+01,1.14855056762695313e+02,2.85846557617187500e+01,3.18086669921875000e+03,6.64625396728515625e+01,5.33535051345825195e+00,2.01250696182250977e+00,5.74747610092163086e+00,1.15383672714233398e+00,7.34673690795898438e+01,4.13886165618896484e+00,1.65499916076660156e+01,9.83050689697265625e+01,1.38500938415527344e+01,1.47345609664916992e+01,2.28829565429687500e+03,8.92570983886718750e+02,6.10462112426757813e+01,5.41632986068725586e+00],"tree_param":{"num_deleted":"0","num_feature":"168","num_nodes":"29","size_leaf_vector":"0"}},{"base_weights":[-3.64969694055616856e-03,-3.33005517721176147e-01,6.00632019340991974e-02,3.13581436872482300e-01,-5.89025199413299561e-01,2.35346168279647827e-01,-8.00018608570098877e-02,4.39130127429962158e-01,-4.49688047170639038e-01,-7.43192434310913086e-01,1.24205760657787323e-01,4.06498253345489502e-01,-1.94985583424568176e-01,-2.80954688787460327e-01,1.65455222129821777e-01,-2.93455988168716431e-01,5.36116123199462891e-01,-7.46387183666229248e-01,1.94967776536941528e-01,-2.83382833003997803e-01,-8.87792766094207764e-01,-4.26539778709411621e-01,4.44925934076309204e-01,-5.76907157897949219e-01,4.84289467334747314e-01,-8.43226850032806396e-01,1.49224266409873962e-01,-5.80880224704742432e-01,-3.84817384183406830e-02,-4.40740436315536499e-01,3.54663342237472534e-01],"default_left":[true,true,true,true,true,true,true,true,true,true,true,true,true,true,true,false,false,false,false,false,false,false,false,false,false,false,false,false,false,false,false],"id":12,"leaf_child_counts":[0,0,0,0,0,0,0,0,0,0,0,0,0,0,0,0,0,0,0,0,0,0,0,0,0,0,0,0,0,0,0],"left_children":[1,3,5,7,9,11,13,15,17,19,21,23,25,27,29,-1,-1,-1,-1,-1,-1,-1,-1,-1,-1,-1,-1,-1,-1,-1,-1],"loss_changes":[7.23919525146484375e+01,9.53335113525390625e+01,7.12685165405273438e+01,1.90986347198486328e+01,4.60017242431640625e+01,9.60556869506835938e+01,8.05220336914062500e+01,1.31734390258789063e+01,8.14980506896972656e+00,1.85529327392578125e+01,1.78556480407714844e+01,7.50599060058593750e+01,8.59293441772460938e+01,6.47812728881835938e+01,8.69841232299804688e+01,0.00000000000000000e+00,0.00000000000000000e+00,0.00000000000000000e+00,0.00000000000000000e+00,0.00000000000000000e+00,0.00000000000000000e+00,0.00000000000000000e+00,0.00000000000000000e+00,0.00000000000000000e+00,0.00000000000000000e+00,0.00000000000000000e+00,0.00000000000000000e+00,0.00000000000000000e+00,0.00000000000000000e+00,0.00000000000000000e+00,0.00000000000000000e+00],"parents":[2147483647,0,0,1,1,2,2,3,3,4,4,5,5,6,6,7,7,8,8,9,9,10,10,11,11,12,12,13,13,14,14],"right_children":[2,4,6,8,10,12,14,16,18,20,22,24,26,28,30,-1,-1,-1,-1,-1,-1,-1,-1,-1,-1,-1,-1,-1,-1,-1,-1],"split_conditions":[7.50000000000000000e+00,8.52546282112598419e-03,4.50000000000000000e+00,1.13500000000000000e+02,2.94250000000000000e+03,2.50000000000000000e+00,1.09341967773437500e+03,1.38834243774414063e+02,2.55000000000000000e+01,5.11500000000000000e+02,1.09600000000000000e+03,1.55000000000000000e+01,1.50000000000000000e+00,1.22200000000000000e+03,6.39500000000000000e+02,-8.80367979407310486e-02,1.60834848880767822e-01,-2.23916158080101013e-01,5.84903359413146973e-02,-8.50148499011993408e-02,-2.66337841749191284e-01,-1.27961933612823486e-01,1.33477792143821716e-01,-1.73072159290313721e-01,1.45286843180656433e-01,-2.52968072891235352e-01,4.47672829031944275e-02,-1.74264073371887207e-01,-1.15445218980312347e-02,-1.32222130894660950e-01,1.06399007141590118e-01],"split_indices":[153,92,98,109,43,70,87,47,50,44,45,55,64,43,41,0,0,0,0,0,0,0,0,0,0,0,0,0,0,0,0],"sum_hessian":[3.42053149414062500e+03,5.44160827636718750e+02,2.87637060546875000e+03,1.53391799926757813e+02,3.90769012451171875e+02,1.27303735351562500e+03,1.60333325195312500e+03,1.37194946289062500e+02,1.61968421936035156e+01,3.20797454833984375e+02,6.99715652465820313e+01,9.11389221191406250e+02,3.61648132324218750e+02,8.80395019531250000e+02,7.22938232421875000e+02,1.24870910644531250e+01,1.24707862854003906e+02,9.47083568572998047e+00,6.72600746154785156e+00,8.73697967529296875e+01,2.33427658081054688e+02,2.39297962188720703e+01,4.60417671203613281e+01,5.97545547485351563e+01,8.51634704589843750e+02,1.17887504577636719e+02,2.43760620117187500e+02,3.84211700439453125e+02,4.96183288574218750e+02,1.67226760864257813e+02,5.55711486816406250e+02],"tree_param":{"num_deleted":"0","num_feature":"168","num_nodes":"31","size_leaf_vector":"0"}},{"base_weights":[-5.76969096437096596e-03,-4.44982796907424927e-01,4.17546592652797699e-02,1.03819474577903748e-01,-7.63990104198455811e-01,-2.24279612302780151e-01,1.26361399888992310e-01,2.72723615169525146e-01,-6.58136188983917236e-01,-8.41074824333190918e-01,6.06804452836513519e-02,-3.83859962224960327e-01,2.93605268001556396e-01,-1.04872286319732666e+00,1.47975474596023560e-01,-9.27311182022094727e-02,5.46902060508728027e-01,1.90646588802337646e-01,-9.45925116539001465e-01,-8.82271766662597656e-01,1.98309227824211121e-01,-2.82603770494461060e-01,3.13186258077621460e-01,-5.20908415317535400e-01,-1.28527870401740074e-02,-2.87273854017257690e-01,5.92046499252319336e-01,-1.12592065334320068e+00,4.17108163237571716e-02,-1.74591153860092163e-01,2.23143100738525391e-01],"default_left":[true,true,true,true,true,true,true,true,true,true,true,true,true,true,true,false,false,false,false,false,false,false,false,false,false,false,false,false,false,false,false],"id":13,"leaf_child_counts":[0,0,0,0,0,0,0,0,0,0,0,0,0,0,0,0,0,0,0,0,0,0,0,0,0,0,0,0,0,0,0],"left_children":[1,3,5,7,9,11,13,15,17,19,21,23,25,27,29,-1,-1,-1,-1,-1,-1,-1,-1,-1,-1,-1,-1,-1,-1,-1,-1],"loss_changes":[6.95701675415039063e+01,5.81598510742187500e+01,6.81572570800781250e+01,1.97867450714111328e+01,1.39615173339843750e+01,6.21450195312500000e+01,6.05587882995605469e+01,1.27175941467285156e+01,9.66578006744384766e+00,1.07964324951171875e+01,4.07848548889160156e+00,2.86628341674804688e+01,3.38958091735839844e+01,4.34639739990234375e+00,5.54893341064453125e+01,0.00000000000000000e+00,0.00000000000000000e+00,0.00000000000000000e+00,0.00000000000000000e+00,0.00000000000000000e+00,0.00000000000000000e+00,0.00000000000000000e+00,0.00000000000000000e+00,0.00000000000000000e+00,0.00000000000000000e+00,0.00000000000000000e+00,0.00000000000000000e+00,0.00000000000000000e+00,0.00000000000000000e+00,0.00000000000000000e+00,0.00000000000000000e+00],"parents":[2147483647,0,0,1,1,2,2,3,3,4,4,5,5,6,6,7,7,8,8,9,9,10,10,11,11,12,12,13,13,14,14],"right_children":[2,4,6,8,10,12,14,16,18,20,22,24,26,28,30,-1,-1,-1,-1,-1,-1,-1,-1,-1,-1,-1,-1,-1,-1,-1,-1],"split_conditions":[3.50000000000000000e+00,1.87930855900049210e-02,2.55000000000000000e+01,1.17530151367187500e+03,3.91600000000000000e+03,8.81015234375000000e+03,1.12608251571655273e+01,7.50000000000000000e+00,1.20500000000000000e+02,4.54600000000000000e+03,4.50000000000000000e+00,2.95000000000000000e+01,2.50000000000000000e+00,3.05000000000000000e+01,2.35000000000000000e+01,-2.78193373233079910e-02,1.64070621132850647e-01,5.71939796209335327e-02,-2.83777534961700439e-01,-2.64681547880172729e-01,5.94927705824375153e-02,-8.47811326384544373e-02,9.39558818936347961e-02,-1.56272530555725098e-01,-3.85583634488284588e-03,-8.61821621656417847e-02,1.77613958716392517e-01,-3.37776213884353638e-01,1.25132454559206963e-02,-5.23773469030857086e-02,6.69429302215576172e-02],"split_indices":[155,95,49,47,43,82,80,68,145,47,107,50,65,164,136,0,0,0,0,0,0,0,0,0,0,0,0,0,0,0,0],"sum_hessian":[3.30461889648437500e+03,3.10409637451171875e+02,2.99420922851562500e+03,1.17826263427734375e+02,1.92583358764648438e+02,7.16502563476562500e+02,2.27770678710937500e+03,1.04330284118652344e+02,1.34959793090820313e+01,1.75847885131835938e+02,1.67354736328125000e+01,5.50694274902343750e+02,1.65808288574218750e+02,2.82643527984619141e+01,2.24944238281250000e+03,4.89762344360351563e+01,5.53540496826171875e+01,4.69933271408081055e+00,8.79664611816406250e+00,1.71324661254882813e+02,4.52322387695312500e+00,6.33500814437866211e+00,1.04004659652709961e+01,3.97718261718750000e+02,1.52975967407226563e+02,5.64658164978027344e+01,1.09342468261718750e+02,2.59397754669189453e+01,2.32457804679870605e+00,4.21371520996093750e+02,1.82807080078125000e+03],"tree_param":{"num_deleted":"0","num_feature":"168","num_nodes":"31","size_leaf_vector":"0"}},{"base_weights":[-7.38293118774890900e-03,-8.33156466484069824e-01,1.42766069620847702e-02,-1.19271352887153625e-02,-9.13586914539337158e-01,2.78767466545104980e-01,-5.31882420182228088e-02,2.06388458609580994e-01,-2.06361472606658936e-01,-9.71456170082092285e-01,5.31773529946804047e-02,3.87277036905288696e-01,-8.92949849367141724e-02,-1.45084783434867859e-01,1.67380675673484802e-01,-3.02193820476531982e-01,9.30147692561149597e-02,5.06434701383113861e-02,-1.01790380477905273e+00,-1.14042930305004120e-01,1.69560521841049194e-01,-2.26415097713470459e-01,4.59411859512329102e-01,3.84064733982086182e-01,-2.79718875885009766e-01,-7.42532372474670410e-01,-1.04764722287654877e-01,-2.98172444105148315e-01,2.30282440781593323e-01],"default_left":[true,true,true,true,true,true,true,false,true,true,true,true,true,true,true,false,false,false,false,false,false,false,false,false,false,false,false,false,false],"id":14,"leaf_child_counts":[0,0,0,0,0,0,0,0,0,0,0,0,0,0,0,0,0,0,0,0,0,0,0,0,0,0,0,0,0],"left_children":[1,3,5,7,9,11,13,-1,15,17,19,21,23,25,27,-1,-1,-1,-1,-1,-1,-1,-1,-1,-1,-1,-1,-1,-1],"loss_changes":[5.82632713317871094e+01,5.33577728271484375e+00,5.69527854919433594e+01,1.59925043582916260e+00,5.00614166259765625e+00,2.64203414916992188e+01,5.19649848937988281e+01,0.00000000000000000e+00,9.80150520801544189e-01,4.19795227050781250e+00,6.49961829185485840e-01,2.38577499389648438e+01,1.60205478668212891e+01,4.23154869079589844e+01,2.31590061187744141e+01,0.00000000000000000e+00,0.00000000000000000e+00,0.00000000000000000e+00,0.00000000000000000e+00,0.00000000000000000e+00,0.00000000000000000e+00,0.00000000000000000e+00,0.00000000000000000e+00,0.00000000000000000e+00,0.00000000000000000e+00,0.00000000000000000e+00,0.00000000000000000e+00,0.00000000000000000e+00,0.00000000000000000e+00],"parents":[2147483647,0,0,1,1,2,2,3,3,4,4,5,5,6,6,8,8,9,9,10,10,11,11,12,12,13,13,14,14],"right_children":[2,4,6,8,10,12,14,-1,16,18,20,22,24,26,28,-1,-1,-1,-1,-1,-1,-1,-1,-1,-1,-1,-1,-1,-1],"split_conditions":[5.00000000000000000e-01,1.95000000000000000e+01,-6.50308489799499512e-01,9.29842703044414520e-03,1.31359648704528809e+00,1.20772743225097656e+00,4.37972962856292725e-01,6.19165413081645966e-02,2.35000000000000000e+01,7.17955856323242188e+01,4.25000000000000000e+01,1.95459213256835938e+01,4.25002319335937500e+02,1.57726001739501953e+01,7.50000000000000000e+00,-9.06581506133079529e-02,2.79044322669506073e-02,1.51930414140224457e-02,-3.05371165275573730e-01,-3.42128798365592957e-02,5.08681572973728180e-02,-6.79245293140411377e-02,1.37823566794395447e-01,1.15219421684741974e-01,-8.39156657457351685e-02,-2.22759723663330078e-01,-3.14294174313545227e-02,-8.94517377018928528e-02,6.90847337245941162e-02],"split_indices":[164,48,76,93,92,88,72,0,119,46,55,85,45,85,128,0,0,0,0,0,0,0,0,0,0,0,0,0,0],"sum_hessian":[3.23252636718750000e+03,6.82562179565429688e+01,3.16427026367187500e+03,7.62509298324584961e+00,6.06311264038085938e+01,6.33540771484375000e+02,2.53072949218750000e+03,3.15752410888671875e+00,4.46756887435913086e+00,5.71381111145019531e+01,3.49301457405090332e+00,4.88686584472656250e+02,1.44854187011718750e+02,1.79006188964843750e+03,7.40667541503906250e+02,3.27730751037597656e+00,1.19026148319244385e+00,2.42477822303771973e+00,5.47133331298828125e+01,1.55721592903137207e+00,1.93579864501953125e+00,4.80254058837890625e+01,4.40661193847656250e+02,3.71794128417968750e+01,1.07674766540527344e+02,9.66531066894531250e+01,1.69340881347656250e+03,8.14832611083984375e+01,6.59184265136718750e+02],"tree_param":{"num_deleted":"0","num_feature":"168","num_nodes":"29","size_leaf_vector":"0"}},{"base_weights":[-6.88429921865463257e-03,-5.92082321643829346e-01,2.14603804051876068e-02,-9.06833112239837646e-01,8.56338739395141602e-02,-5.80877326428890228e-02,3.11899751424789429e-01,-9.77937459945678711e-01,6.54291808605194092e-02,-4.06127154827117920e-01,3.94215196371078491e-01,-2.62162536382675171e-01,6.00194074213504791e-02,-1.08722560107707977e-01,4.35553073883056641e-01,3.29048931598663330e-02,-1.02101528644561768e+00,-1.47400796413421631e-01,2.01686426997184753e-01,-5.35946667194366455e-01,1.75116792321205139e-01,5.34087777137756348e-01,-2.92940616607666016e-01,-3.38026762008666992e-01,3.73827278614044189e-01,2.64392167329788208e-01,-1.83102414011955261e-01,-4.93930816650390625e-01,1.82584270834922791e-01,-2.61804461479187012e-01,5.01108348369598389e-01],"default_left":[true,true,true,true,true,true,true,true,true,true,true,true,true,true,true,false,false,false,false,false,false,false,false,false,false,false,false,false,false,false,false],"id":15,"leaf_child_counts":[0,0,0,0,0,0,0,0,0,0,0,0,0,0,0,0,0,0,0,0,0,0,0,0,0,0,0,0,0,0,0],"left_children":[1,3,5,7,9,11,13,15,17,19,21,23,25,27,29,-1,-1,-1,-1,-1,-1,-1,-1,-1,-1,-1,-1,-1,-1,-1,-1],"loss_changes":[5.35485572814941406e+01,3.29772720336914063e+01,7.14934692382812500e+01,8.08959960937500000e+00,1.16585721969604492e+01,5.88666419982910156e+01,3.53049240112304688e+01,4.72977447509765625e+00,1.05746889114379883e+00,3.74006891250610352e+00,6.68101739883422852e+00,4.50553054809570313e+01,7.78912429809570313e+01,1.96565208435058594e+01,2.56037368774414063e+01,0.00000000000000000e+00,0.00000000000000000e+00,0.00000000000000000e+00,0.00000000000000000e+00,0.00000000000000000e+00,0.00000000000000000e+00,0.00000000000000000e+00,0.00000000000000000e+00,0.00000000000000000e+00,0.00000000000000000e+00,0.00000000000000000e+00,0.00000000000000000e+00,0.00000000000000000e+00,0.00000000000000000e+00,0.00000000000000000e+00,0.00000000000000000e+00],"parents":[2147483647,0,0,1,1,2,2,3,3,4,4,5,5,6,6,7,7,8,8,9,9,10,10,11,11,12,12,13,13,14,14],"right_children":[2,4,6,8,10,12,14,16,18,20,22,24,26,28,30,-1,-1,-1,-1,-1,-1,-1,-1,-1,-1,-1,-1,-1,-1,-1,-1],"split_conditions":[1.55000000000000000e+01,2.95074072265625000e+03,1.16344261169433594e+00,1.64635350000000000e+06,8.77500000000000000e+02,2.55000000000000000e+01,1.13450000000000000e+03,7.37355351448059082e-01,5.00000000000000000e-01,1.09823250000000000e+06,5.45000000000000000e+01,1.86652343750000000e+04,1.35000000000000000e+01,4.05000000000000000e+01,6.95500000000000000e+02,9.87146794795989990e-03,-3.06304603815078735e-01,-4.42202389240264893e-02,6.05059303343296051e-02,-1.60784006118774414e-01,5.25350384414196014e-02,1.60226345062255859e-01,-8.78821909427642822e-02,-1.01408034563064575e-01,1.12148188054561615e-01,7.93176516890525818e-02,-5.49307279288768768e-02,-1.48179247975349426e-01,5.47752827405929565e-02,-7.85413384437561035e-02,1.50332510471343994e-01],"split_indices":[145,87,93,16,41,50,42,90,65,22,61,82,110,136,43,0,0,0,0,0,0,0,0,0,0,0,0,0,0,0,0],"sum_hessian":[3.20180590820312500e+03,1.34135894775390625e+02,3.06766992187500000e+03,8.81332244873046875e+01,4.60026741027832031e+01,2.41753417968750000e+03,6.50135742187500000e+02,8.20454483032226563e+01,6.08777666091918945e+00,1.59086656570434570e+01,3.00940074920654297e+01,8.79525451660156250e+02,1.53800866699218750e+03,1.48115051269531250e+02,5.02020690917968750e+02,3.49830555915832520e+00,7.85471420288085938e+01,1.89737761020660400e+00,4.19039869308471680e+00,1.39597587585449219e+01,1.94890725612640381e+00,2.77805385589599609e+01,2.31347060203552246e+00,7.92070617675781250e+02,8.74548492431640625e+01,8.34880310058593750e+02,7.03128356933593750e+02,5.92855491638183594e+01,8.88295059204101563e+01,3.92789077758789063e+01,4.62741790771484375e+02],"tree_param":{"num_deleted":"0","num_feature":"168","num_nodes":"31","size_leaf_vector":"0"}},{"base_weights":[-5.77872153371572495e-03,-4.39676642417907715e-01,2.97125764191150665e-02,-7.82824516296386719e-01,1.36765455827116966e-02,-2.85043954849243164e-01,8.46902802586555481e-02,1.44817546010017395e-01,-9.01606500148773193e-01,-4.08596038818359375e-01,3.26892614364624023e-01,-3.26942689716815948e-02,-8.56536626815795898e-01,-6.77306875586509705e-02,2.06240609288215637e-01,-2.35103756189346313e-01,3.27106565237045288e-01,-9.72959995269775391e-01,-1.41646146774291992e-01,2.13310375809669495e-01,-5.88056623935699463e-01,5.33705234527587891e-01,-2.42238119244575500e-01,-2.96359181404113770e-01,3.79538357257843018e-01,-9.13025498390197754e-01,2.90215779095888138e-02,-1.76305085420608521e-01,4.03183192014694214e-01,-3.68149369955062866e-01,2.54979431629180908e-01],"default_left":[true,true,true,true,true,true,true,true,true,true,true,true,true,true,true,false,false,false,false,false,false,false,false,false,false,false,false,false,false,false,false],"id":16,"leaf_child_counts":[0,0,0,0,0,0,0,0,0,0,0,0,0,0,0,0,0,0,0,0,0,0,0,0,0,0,0,0,0,0,0],"left_children":[1,3,5,7,9,11,13,15,17,19,21,23,25,27,29,-1,-1,-1,-1,-1,-1,-1,-1,-1,-1,-1,-1,-1,-1,-1,-1],"loss_changes":[4.87299652099609375e+01,3.73800888061523438e+01,5.10194053649902344e+01,1.69918289184570313e+01,1.75861549377441406e+01,6.28510627746582031e+01,4.65944938659667969e+01,3.12118196487426758e+00,4.60379028320312500e+00,8.22537326812744141e+00,1.08818788528442383e+01,3.64613456726074219e+01,7.09019470214843750e+00,5.84367828369140625e+01,4.05058670043945313e+01,0.00000000000000000e+00,0.00000000000000000e+00,0.00000000000000000e+00,0.00000000000000000e+00,0.00000000000000000e+00,0.00000000000000000e+00,0.00000000000000000e+00,0.00000000000000000e+00,0.00000000000000000e+00,0.00000000000000000e+00,0.00000000000000000e+00,0.00000000000000000e+00,0.00000000000000000e+00,0.00000000000000000e+00,0.00000000000000000e+00,0.00000000000000000e+00],"parents":[2147483647,0,0,1,1,2,2,3,3,4,4,5,5,6,6,7,7,8,8,9,9,10,10,11,11,12,12,13,13,14,14],"right_children":[2,4,6,8,10,12,14,16,18,20,22,24,26,28,30,-1,-1,-1,-1,-1,-1,-1,-1,-1,-1,-1,-1,-1,-1,-1,-1],"split_conditions":[9.50000000000000000e+00,4.36396386718750000e+03,8.78372669219970703e-01,9.63504798710346222e-03,8.53000000000000000e+02,5.05000000000000000e+01,5.25000000000000000e+01,1.43935119628906250e+02,3.25000000000000000e+01,2.99550000000000000e+03,4.45000000000000000e+01,2.45000000000000000e+01,1.11827886104583740e+00,1.24329169921875000e+04,1.55000000000000000e+01,-7.05311298370361328e-02,9.81319770216941833e-02,-2.91887998580932617e-01,-4.24938462674617767e-02,6.39931187033653259e-02,-1.76416993141174316e-01,1.60111576318740845e-01,-7.26714357733726501e-02,-8.89077559113502502e-02,1.13861508667469025e-01,-2.73907661437988281e-01,8.70647374540567398e-03,-5.28915263712406158e-02,1.20954960584640503e-01,-1.10444813966751099e-01,7.64938294887542725e-02],"split_indices":[55,82,91,92,46,63,56,6,70,3,136,155,72,84,136,0,0,0,0,0,0,0,0,0,0,0,0,0,0,0,0],"sum_hessian":[3.13664062500000000e+03,2.24250289916992188e+02,2.91239038085937500e+03,1.21434257507324219e+02,1.02816032409667969e+02,4.23724761962890625e+02,2.48866552734375000e+03,1.34110717773437500e+01,1.08023185729980469e+02,4.18401222229003906e+01,6.09759101867675781e+01,3.04935058593750000e+02,1.18789726257324219e+02,1.10707006835937500e+03,1.38159558105468750e+03,2.93923807144165039e+00,1.04718341827392578e+01,9.49080123901367188e+01,1.31151733398437500e+01,8.73620414733886719e+00,3.31039161682128906e+01,4.54087905883789063e+01,1.55671215057373047e+01,1.88552658081054688e+02,1.16382392883300781e+02,1.11229263305664063e+02,7.56046247482299805e+00,9.07272521972656250e+02,1.99797531127929688e+02,1.00374389648437500e+02,1.28122119140625000e+03],"tree_param":{"num_deleted":"0","num_feature":"168","num_nodes":"31","size_leaf_vector":"0"}},{"base_weights":[-7.30660092085599899e-03,1.40376714989542961e-02,-6.68054401874542236e-01,-7.65175640583038330e-01,3.19422744214534760e-02,7.80524238944053650e-02,-7.59076535701751709e-01,5.35805635154247284e-02,-1.00235927104949951e+00,5.31876310706138611e-02,-6.67563676834106445e-01,3.92460286617279053e-01,-2.94546723365783691e-01,-8.12443494796752930e-01,1.19403935968875885e-01,-2.68644988536834717e-01,2.78059363365173340e-01,-1.06493246555328369e+00,8.13435614109039307e-02,-3.60280126333236694e-01,9.31345894932746887e-02,7.81843885779380798e-02,-7.51166105270385742e-01,8.33135750144720078e-03,4.07166063785552979e-01,4.44444604218006134e-02,-3.65766376256942749e-01,-4.12248931825160980e-02,-8.84417772293090820e-01,-1.98770407587289810e-02,1.45134776830673218e-01],"default_left":[true,true,true,true,true,true,true,true,true,true,true,true,true,true,true,false,false,false,false,false,false,false,false,false,false,false,false,false,false,false,false],"id":17,"leaf_child_counts":[0,0,0,0,0,0,0,0,0,0,0,0,0,0,0,0,0,0,0,0,0,0,0,0,0,0,0,0,0,0,0],"left_children":[1,3,5,7,9,11,13,15,17,19,21,23,25,27,29,-1,-1,-1,-1,-1,-1,-1,-1,-1,-1,-1,-1,-1,-1,-1,-1],"loss_changes":[4.35178260803222656e+01,4.21394577026367188e+01,7.44595336914062500e+00,1.39826698303222656e+01,4.42438545227050781e+01,4.55722999572753906e+00,5.55517578125000000e+00,3.25287961959838867e+00,4.91873550415039063e+00,4.78814392089843750e+01,6.35535430908203125e+00,5.92796802520751953e-02,7.17001080513000488e-01,4.13619995117187500e+00,1.08091413974761963e-01,0.00000000000000000e+00,0.00000000000000000e+00,0.00000000000000000e+00,0.00000000000000000e+00,0.00000000000000000e+00,0.00000000000000000e+00,0.00000000000000000e+00,0.00000000000000000e+00,0.00000000000000000e+00,0.00000000000000000e+00,0.00000000000000000e+00,0.00000000000000000e+00,0.00000000000000000e+00,0.00000000000000000e+00,0.00000000000000000e+00,0.00000000000000000e+00],"parents":[2147483647,0,0,1,1,2,2,3,3,4,4,5,5,6,6,7,7,8,8,9,9,10,10,11,11,12,12,13,13,14,14],"right_children":[2,4,6,8,10,12,14,16,18,20,22,24,26,28,30,-1,-1,-1,-1,-1,-1,-1,-1,-1,-1,-1,-1,-1,-1,-1,-1],"split_conditions":[3.85000000000000000e+01,3.68500000000000000e+02,1.53080000000000000e+04,6.55000000000000000e+01,4.05000000000000000e+01,6.05000000000000000e+01,4.35029531250000000e+04,2.50000000000000000e+00,4.49500000000000000e+02,1.75000000000000000e+01,7.50000000000000000e+00,5.11500000000000000e+02,1.65000000000000000e+01,4.80500000000000000e+02,2.89450000000000000e+03,-8.05934965610504150e-02,8.34178104996681213e-02,-3.19479763507843018e-01,2.44030691683292389e-02,-1.08084045350551605e-01,2.79403775930404663e-02,2.34553180634975433e-02,-2.25349843502044678e-01,2.49940739013254642e-03,1.22149825096130371e-01,1.33333383128046989e-02,-1.09729915857315063e-01,-1.23674683272838593e-02,-2.65325337648391724e-01,-5.96311269327998161e-03,4.35404330492019653e-02],"split_indices":[146,0,16,163,162,61,82,129,40,49,110,46,135,41,47,0,0,0,0,0,0,0,0,0,0,0,0,0,0,0,0],"sum_hessian":[3.06069995117187500e+03,2.97914550781250000e+03,8.15546188354492188e+01,5.28546066284179688e+01,2.92629077148437500e+03,9.09993457794189453e+00,7.24546890258789063e+01,1.44802722930908203e+01,3.83743324279785156e+01,2.85348437500000000e+03,7.28064117431640625e+01,4.50171661376953125e+00,4.59821796417236328e+00,6.93682022094726563e+01,3.08648538589477539e+00,4.73385906219482422e+00,9.74641323089599609e+00,3.65251731872558594e+01,1.84916198253631592e+00,2.40801666259765625e+02,2.61268261718750000e+03,7.43722438812255859e+00,6.53691864013671875e+01,1.03240323066711426e+00,3.46931338310241699e+00,1.77740657329559326e+00,2.82081127166748047e+00,7.93497371673583984e+00,6.14332275390625000e+01,1.01341116428375244e+00,2.07307434082031250e+00],"tree_param":{"num_deleted":"0","num_feature":"168","num_nodes":"31","size_leaf_vector":"0"}},{"base_weights":[-9.70854703336954117e-03,5.19417785108089447e-02,-2.12365821003913879e-01,-7.10221707820892334e-01,7.54443481564521790e-02,-3.14852327108383179e-01,3.88940930366516113e-01,-8.54492187500000000e-01,6.54834657907485962e-02,-2.82892733812332153e-01,1.23827271163463593e-01,-1.59241661429405212e-01,-7.12990403175354004e-01,-1.88812747597694397e-01,5.06683230400085449e-01,-9.59094405174255371e-01,6.57569766044616699e-02,-2.06765964627265930e-01,2.46460676193237305e-01,-7.33452558517456055e-01,1.06368035078048706e-01,-5.36969974637031555e-02,2.12982147932052612e-01,-3.75249117612838745e-01,6.92967921495437622e-02,-8.82504403591156006e-01,-1.09568782150745392e-01,2.04148635268211365e-01,-4.29886877536773682e-01,-9.71843078732490540e-02,6.50922298431396484e-01],"default_left":[true,true,true,true,true,true,true,true,true,true,true,true,true,true,true,false,false,false,false,false,false,false,false,false,false,false,false,false,false,false,false],"id":18,"leaf_child_counts":[0,0,0,0,0,0,0,0,0,0,0,0,0,0,0,0,0,0,0,0,0,0,0,0,0,0,0,0,0,0,0],"left_children":[1,3,5,7,9,11,13,15,17,19,21,23,25,27,29,-1,-1,-1,-1,-1,-1,-1,-1,-1,-1,-1,-1,-1,-1,-1,-1],"loss_changes":[3.81476440429687500e+01,4.27736511230468750e+01,4.57174835205078125e+01,8.84431838989257813e+00,4.01671066284179688e+01,3.65011825561523438e+01,8.94504165649414063e+00,6.85446929931640625e+00,2.00353908538818359e+00,4.96754989624023438e+01,3.22202568054199219e+01,2.32305526733398438e+01,1.58335571289062500e+01,4.12216854095458984e+00,9.29159545898437500e+00,0.00000000000000000e+00,0.00000000000000000e+00,0.00000000000000000e+00,0.00000000000000000e+00,0.00000000000000000e+00,0.00000000000000000e+00,0.00000000000000000e+00,0.00000000000000000e+00,0.00000000000000000e+00,0.00000000000000000e+00,0.00000000000000000e+00,0.00000000000000000e+00,0.00000000000000000e+00,0.00000000000000000e+00,0.00000000000000000e+00,0.00000000000000000e+00],"parents":[2147483647,0,0,1,1,2,2,3,3,4,4,5,5,6,6,7,7,8,8,9,9,10,10,11,11,12,12,13,13,14,14],"right_children":[2,4,6,8,10,12,14,16,18,20,22,24,26,28,30,-1,-1,-1,-1,-1,-1,-1,-1,-1,-1,-1,-1,-1,-1,-1,-1],"split_conditions":[2.35000000000000000e+01,1.20350000000000000e+03,1.20757850000000000e+06,2.35000000000000000e+01,1.35000000000000000e+01,3.02386134862899780e-01,6.33000000000000000e+02,1.14336240291595459e+00,1.55000000000000000e+01,1.00050000000000000e+03,1.95000000000000000e+01,8.45000000000000000e+01,1.94228198242187500e+03,1.16035306453704834e+00,5.00000000000000000e-01,-2.87728339433670044e-01,1.97270940989255905e-02,-6.20297901332378387e-02,7.39382058382034302e-02,-2.20035776495933533e-01,3.19104120135307312e-02,-1.61090996116399765e-02,6.38946443796157837e-02,-1.12574741244316101e-01,2.07890383899211884e-02,-2.64751344919204712e-01,-3.28706353902816772e-02,6.12445920705795288e-02,-1.28966063261032104e-01,-2.91552934795618057e-02,1.95276692509651184e-01],"split_indices":[135,17,18,128,136,78,41,72,153,45,51,109,83,88,132,0,0,0,0,0,0,0,0,0,0,0,0,0,0,0,0],"sum_hessian":[3.02506176757812500e+03,2.32801293945312500e+03,6.97048889160156250e+02,5.65297317504882813e+01,2.27148315429687500e+03,6.01649719238281250e+02,9.53991546630859375e+01,4.63801460266113281e+01,1.01495885848999023e+01,2.61564056396484375e+02,2.00991906738281250e+03,4.47676605224609375e+02,1.53973098754882813e+02,1.46175670623779297e+01,8.07815856933593750e+01,4.10777702331542969e+01,5.30237483978271484e+00,3.19931054115295410e+00,6.95027875900268555e+00,1.15088569641113281e+02,1.46475494384765625e+02,6.73940856933593750e+02,1.33597814941406250e+03,2.25197570800781250e+02,2.22479034423828125e+02,1.14788940429687500e+02,3.91841583251953125e+01,6.43149995803833008e+00,8.18606662750244141e+00,1.65186119079589844e+01,6.42629699707031250e+01],"tree_param":{"num_deleted":"0","num_feature":"168","num_nodes":"31","size_leaf_vector":"0"}},{"base_weights":[-1.04830432683229446e-02,1.16073183715343475e-01,-1.02354153990745544e-01,-1.50408238172531128e-01,2.17838406562805176e-01,-3.64915430545806885e-01,1.11182145774364471e-02,-6.52368009090423584e-01,8.27928557991981506e-02,-2.47373029589653015e-01,2.68516480922698975e-01,-7.70052790641784668e-01,-1.33646190166473389e-01,-2.48067736625671387e-01,1.44424363970756531e-01,2.42872536182403564e-02,-7.61265754699707031e-01,-4.37294244766235352e-01,3.13004434108734131e-01,4.05157297849655151e-01,-3.98973435163497925e-01,3.45446377992630005e-01,-3.03450860083103180e-02,1.40783041715621948e-01,-8.42639327049255371e-01,1.88511341810226440e-01,-4.30552691221237183e-01,-3.81334841251373291e-01,3.64860773086547852e-01,2.19518661499023438e-01,-4.42437648773193359e-01],"default_left":[true,true,true,true,true,true,true,true,true,true,true,true,true,true,true,false,false,false,false,false,false,false,false,false,false,false,false,false,false,false,false],"id":19,"leaf_child_counts":[0,0,0,0,0,0,0,0,0,0,0,0,0,0,0,0,0,0,0,0,0,0,0,0,0,0,0,0,0,0,0],"left_children":[1,3,5,7,9,11,13,15,17,19,21,23,25,27,29,-1,-1,-1,-1,-1,-1,-1,-1,-1,-1,-1,-1,-1,-1,-1,-1],"loss_changes":[3.49618034362792969e+01,3.48053207397460938e+01,5.19410858154296875e+01,4.27808876037597656e+01,2.27282791137695313e+01,4.77317886352539063e+01,4.30497665405273438e+01,8.78253936767578125e+00,3.29582290649414063e+01,1.21546506881713867e+01,1.94337387084960938e+01,1.42066116333007813e+01,3.49768524169921875e+01,3.66733093261718750e+01,3.76824073791503906e+01,0.00000000000000000e+00,0.00000000000000000e+00,0.00000000000000000e+00,0.00000000000000000e+00,0.00000000000000000e+00,0.00000000000000000e+00,0.00000000000000000e+00,0.00000000000000000e+00,0.00000000000000000e+00,0.00000000000000000e+00,0.00000000000000000e+00,0.00000000000000000e+00,0.00000000000000000e+00,0.00000000000000000e+00,0.00000000000000000e+00,0.00000000000000000e+00],"parents":[2147483647,0,0,1,1,2,2,3,3,4,4,5,5,6,6,7,7,8,8,9,9,10,10,11,11,12,12,13,13,14,14],"right_children":[2,4,6,8,10,12,14,16,18,20,22,24,26,28,30,-1,-1,-1,-1,-1,-1,-1,-1,-1,-1,-1,-1,-1,-1,-1,-1],"split_conditions":[5.05000000000000000e+01,2.45000000000000000e+01,9.12500000000000000e+02,1.10650000000000000e+03,1.50000000000000000e+00,1.45000000000000000e+01,2.05000000000000000e+01,-6.41538381576538086e-01,1.70510000000000000e+05,1.65000000000000000e+01,9.50000000000000000e+00,1.55000000000000000e+01,6.69500000000000000e+02,1.43204748535156250e+03,2.75000000000000000e+01,7.28617655113339424e-03,-2.28379741311073303e-01,-1.31188273429870605e-01,9.39013361930847168e-02,1.21547192335128784e-01,-1.19692035019397736e-01,1.03633917868137360e-01,-9.10352636128664017e-03,4.22349125146865845e-02,-2.52791821956634521e-01,5.65534047782421112e-02,-1.29165813326835632e-01,-1.14400453865528107e-01,1.09458237886428833e-01,6.58555999398231506e-02,-1.32731303572654724e-01],"split_indices":[62,154,43,45,146,155,55,75,20,48,134,52,45,86,153,0,0,0,0,0,0,0,0,0,0,0,0,0,0,0,0],"sum_hessian":[2.97665820312500000e+03,1.25032824707031250e+03,1.72632995605468750e+03,3.43547668457031250e+02,9.06780578613281250e+02,5.10909362792968750e+02,1.21542065429687500e+03,1.00424545288085938e+02,2.43123138427734375e+02,8.33579177856445313e+01,8.23422668457031250e+02,1.72964675903320313e+02,3.37944702148437500e+02,4.08419982910156250e+02,8.07000610351562500e+02,1.55370388031005859e+01,8.48875045776367188e+01,7.04566345214843750e+01,1.72666488647460938e+02,1.09854555130004883e+01,7.23724670410156250e+01,6.52996765136718750e+02,1.70425872802734375e+02,1.17263507843017578e+01,1.61238327026367188e+02,1.64706558227539063e+02,1.73238143920898438e+02,3.40133544921875000e+02,6.82864379882812500e+01,7.23776123046875000e+02,8.32245101928710938e+01],"tree_param":{"num_deleted":"0","num_feature":"168","num_nodes":"31","size_leaf_vector":"0"}},{"base_weights":[-1.01193068549036980e-02,-5.77382259070873260e-02,2.27779164910316467e-01,-4.99201476573944092e-01,-5.02682523801922798e-03,-4.99182701110839844e-01,3.69834214448928833e-01,-7.67261862754821777e-01,-1.69312819838523865e-01,1.58324271440505981e-01,-1.07186466455459595e-01,-7.79265999794006348e-01,9.42892022430896759e-03,-2.39116072654724121e-01,5.63655674457550049e-01,-2.45605334639549255e-01,-9.20960366725921631e-01,-6.56090676784515381e-01,2.28147804737091064e-02,-3.51534068584442139e-01,2.14872628450393677e-01,2.01969042420387268e-01,-1.72357127070426941e-01,-8.27568650245666504e-01,4.93632778525352478e-02,-3.31019073724746704e-01,2.54820168018341064e-01,-5.56119620800018311e-01,9.79727730154991150e-02,6.29158794879913330e-01,-1.13548271358013153e-01],"default_left":[true,true,true,true,true,true,true,true,true,true,true,true,true,true,true,false,false,false,false,false,false,false,false,false,false,false,false,false,false,false,false],"id":20,"leaf_child_counts":[0,0,0,0,0,0,0,0,0,0,0,0,0,0,0,0,0,0,0,0,0,0,0,0,0,0,0,0,0,0,0],"left_children":[1,3,5,7,9,11,13,15,17,19,21,23,25,27,29,-1,-1,-1,-1,-1,-1,-1,-1,-1,-1,-1,-1,-1,-1,-1,-1],"loss_changes":[3.32813491821289063e+01,5.68655319213867188e+01,5.33819046020507813e+01,2.11033248901367188e+01,3.69620666503906250e+01,1.24324073791503906e+01,5.14289398193359375e+01,7.79750823974609375e+00,1.29540109634399414e+01,2.57093296051025391e+01,2.79684524536132813e+01,2.85261535644531250e+00,5.06968927383422852e+00,1.27427444458007813e+01,1.53554840087890625e+01,0.00000000000000000e+00,0.00000000000000000e+00,0.00000000000000000e+00,0.00000000000000000e+00,0.00000000000000000e+00,0.00000000000000000e+00,0.00000000000000000e+00,0.00000000000000000e+00,0.00000000000000000e+00,0.00000000000000000e+00,0.00000000000000000e+00,0.00000000000000000e+00,0.00000000000000000e+00,0.00000000000000000e+00,0.00000000000000000e+00,0.00000000000000000e+00],"parents":[2147483647,0,0,1,1,2,2,3,3,4,4,5,5,6,6,7,7,8,8,9,9,10,10,11,11,12,12,13,13,14,14],"right_children":[2,4,6,8,10,12,14,16,18,20,22,24,26,28,30,-1,-1,-1,-1,-1,-1,-1,-1,-1,-1,-1,-1,-1,-1,-1,-1],"split_conditions":[4.58174414062500000e+03,1.35000000000000000e+01,6.38500000000000000e+02,3.50000000000000000e+00,-2.71651148796081543e-01,7.57426738739013672e-01,1.23009500000000000e+05,1.85000000000000000e+01,5.00000000000000000e-01,2.35000000000000000e+01,-5.41191756725311279e-01,4.05000000000000000e+01,4.15000000000000000e+01,4.50000000000000000e+00,1.09101950000000000e+06,-7.36816003918647766e-02,-2.76288121938705444e-01,-1.96827217936515808e-01,6.84443442150950432e-03,-1.05460226535797119e-01,6.44617900252342224e-02,6.05907142162322998e-02,-5.17071411013603210e-02,-2.48270601034164429e-01,1.48089835420250893e-02,-9.93057265877723694e-02,7.64460563659667969e-02,-1.66835889220237732e-01,2.93918326497077942e-02,1.88747644424438477e-01,-3.40644828975200653e-02],"split_indices":[82,55,41,70,78,77,20,52,69,118,75,99,60,68,21,0,0,0,0,0,0,0,0,0,0,0,0,0,0,0,0],"sum_hessian":[2.90543676757812500e+03,2.43032958984375000e+03,4.75107147216796875e+02,2.45679794311523438e+02,2.18464990234375000e+03,7.14997024536132813e+01,4.03607452392578125e+02,1.24569763183593750e+02,1.21110031127929688e+02,8.37407043457031250e+02,1.34724267578125000e+03,4.09610404968261719e+01,3.05386619567871094e+01,9.66007690429687500e+01,3.07006652832031250e+02,3.72185554504394531e+01,8.73512115478515625e+01,2.40226898193359375e+01,9.70873413085937500e+01,7.57921905517578125e+01,7.61614868164062500e+02,2.29074874877929688e+02,1.11816784667968750e+03,3.87229881286621094e+01,2.23805260658264160e+00,1.05993280410766602e+01,1.99393329620361328e+01,4.47606163024902344e+01,5.18401527404785156e+01,2.80900512695312500e+02,2.61061496734619141e+01],"tree_param":{"num_deleted":"0","num_feature":"168","num_nodes":"31","size_leaf_vector":"0"}},{"base_weights":[-1.12168835476040840e-02,-3.62155623733997345e-02,4.06076699495315552e-01,-2.82329082489013672e-01,1.36714307591319084e-02,-2.98989593982696533e-01,6.65583729743957520e-01,-6.65885984897613525e-01,3.43352071940898895e-02,8.09546858072280884e-02,-2.10636630654335022e-01,-7.58236646652221680e-01,2.33807936310768127e-01,-3.05361181497573853e-01,7.79340922832489014e-01,-7.36420691013336182e-01,3.41271102428436279e-01,-4.15798455476760864e-01,3.01739335060119629e-01,-4.29027289152145386e-01,1.17934398353099823e-01,-3.72730731964111328e-01,2.19134405255317688e-01,-1.49364657700061798e-02,-7.99284577369689941e-01,3.93467038869857788e-01,-1.53337180614471436e-01,1.13930471241474152e-01,-4.21085417270660400e-01,-1.68135493993759155e-01,8.60989928245544434e-01],"default_left":[true,true,true,true,true,true,true,true,true,true,true,true,true,true,true,false,false,false,false,false,false,false,false,false,false,false,false,false,false,false,false],"id":21,"leaf_child_counts":[0,0,0,0,0,0,0,0,0,0,0,0,0,0,0,0,0,0,0,0,0,0,0,0,0,0,0,0,0,0,0],"left_children":[1,3,5,7,9,11,13,15,17,19,21,23,25,27,29,-1,-1,-1,-1,-1,-1,-1,-1,-1,-1,-1,-1,-1,-1,-1,-1],"loss_changes":[3.01903934478759766e+01,3.35067481994628906e+01,3.29203948974609375e+01,5.61947288513183594e+01,3.46581039428710938e+01,1.59621315002441406e+01,1.72923698425292969e+01,1.85951461791992188e+01,3.39177360534667969e+01,3.40325698852539063e+01,3.81567306518554688e+01,8.19675445556640625e-01,3.16932845115661621e+00,1.87478137016296387e+00,1.11014785766601563e+01,0.00000000000000000e+00,0.00000000000000000e+00,0.00000000000000000e+00,0.00000000000000000e+00,0.00000000000000000e+00,0.00000000000000000e+00,0.00000000000000000e+00,0.00000000000000000e+00,0.00000000000000000e+00,0.00000000000000000e+00,0.00000000000000000e+00,0.00000000000000000e+00,0.00000000000000000e+00,0.00000000000000000e+00,0.00000000000000000e+00,0.00000000000000000e+00],"parents":[2147483647,0,0,1,1,2,2,3,3,4,4,5,5,6,6,7,7,8,8,9,9,10,10,11,11,12,12,13,13,14,14],"right_children":[2,4,6,8,10,12,14,16,18,20,22,24,26,28,30,-1,-1,-1,-1,-1,-1,-1,-1,-1,-1,-1,-1,-1,-1,-1,-1],"split_conditions":[9.81450000000000000e+03,3.45000000000000000e+01,2.50000000000000000e+00,1.01650000000000000e+03,2.25000000000000000e+01,3.50000000000000000e+00,6.52000000000000000e+02,4.67500000000000000e+03,1.06716322898864746e+00,1.30790634155273438e+01,3.38700341796875000e+03,-4.45848464965820313e-01,-3.01511064171791077e-02,6.52500000000000000e+02,8.46145749092102051e-01,-2.20926210284233093e-01,1.02381333708763123e-01,-1.24739542603492737e-01,9.05218049883842468e-02,-1.28708198666572571e-01,3.53803224861621857e-02,-1.11819222569465637e-01,6.57403245568275452e-02,-4.48093982413411140e-03,-2.39785388112068176e-01,1.18040114641189575e-01,-4.60011549293994904e-02,3.41791436076164246e-02,-1.26325637102127075e-01,-5.04406504333019257e-02,2.58296996355056763e-01],"split_indices":[40,145,111,41,110,69,46,47,93,85,82,75,75,7,95,0,0,0,0,0,0,0,0,0,0,0,0,0,0,0,0],"sum_hessian":[2.85793017578125000e+03,2.70932202148437500e+03,1.48608322143554688e+02,4.44841430664062500e+02,2.26448046875000000e+03,3.93673171997070313e+01,1.09241004943847656e+02,1.93691757202148438e+02,2.51149673461914063e+02,1.74933728027343750e+03,5.15143310546875000e+02,1.77343082427978516e+01,2.16330089569091797e+01,8.80692481994628906e+00,1.00434074401855469e+02,1.84782958984375000e+02,8.90879726409912109e+00,9.04935531616210938e+01,1.60656127929687500e+02,1.07519927978515625e+02,1.64181726074218750e+03,3.75506622314453125e+02,1.39636688232421875e+02,1.99875855445861816e+00,1.57355489730834961e+01,1.51430530548095703e+01,6.48995637893676758e+00,1.95523405075073242e+00,6.85169124603271484e+00,6.70767784118652344e+00,9.37264022827148438e+01],"tree_param":{"num_deleted":"0","num_feature":"168","num_nodes":"31","size_leaf_vector":"0"}},{"base_weights":[-9.64042730629444122e-03,3.10613010078668594e-02,-2.51205623149871826e-01,4.75547872483730316e-02,-6.36408388614654541e-01,-8.02182853221893311e-01,-2.39410474896430969e-02,7.87196755409240723e-02,-3.17604124546051025e-01,-7.12057828903198242e-01,8.70870724320411682e-02,-8.97773206233978271e-01,1.15552814677357674e-02,-2.59636610746383667e-01,3.84915649890899658e-01,-3.91871243715286255e-01,1.03226989507675171e-01,-6.05359435081481934e-01,8.15935134887695313e-02,3.18105309270322323e-03,-7.80968904495239258e-01,2.20079749822616577e-01,-1.06862731277942657e-01,7.36787989735603333e-02,-9.66483771800994873e-01,2.42052793502807617e-01,-2.54923611879348755e-01,1.19113877415657043e-01,-4.45427656173706055e-01,5.74052035808563232e-01,-1.20705403387546539e-01],"default_left":[true,true,true,true,true,true,true,true,true,true,true,true,true,true,true,false,false,false,false,false,false,false,false,false,false,false,false,false,false,false,false],"id":22,"leaf_child_counts":[0,0,0,0,0,0,0,0,0,0,0,0,0,0,0,0,0,0,0,0,0,0,0,0,0,0,0,0,0,0,0],"left_children":[1,3,5,7,9,11,13,15,17,19,21,23,25,27,29,-1,-1,-1,-1,-1,-1,-1,-1,-1,-1,-1,-1,-1,-1,-1,-1],"loss_changes":[2.79148330688476563e+01,2.72376937866210938e+01,5.09669227600097656e+01,2.75531044006347656e+01,4.19830322265625000e+00,9.41765594482421875e+00,3.09152641296386719e+01,2.61225357055664063e+01,2.26555271148681641e+01,2.78229522705078125e+00,8.43319475650787354e-01,8.19327545166015625e+00,2.60403776168823242e+00,1.50517692565917969e+01,1.22919406890869141e+01,0.00000000000000000e+00,0.00000000000000000e+00,0.00000000000000000e+00,0.00000000000000000e+00,0.00000000000000000e+00,0.00000000000000000e+00,0.00000000000000000e+00,0.00000000000000000e+00,0.00000000000000000e+00,0.00000000000000000e+00,0.00000000000000000e+00,0.00000000000000000e+00,0.00000000000000000e+00,0.00000000000000000e+00,0.00000000000000000e+00,0.00000000000000000e+00],"parents":[2147483647,0,0,1,1,2,2,3,3,4,4,5,5,6,6,7,7,8,8,9,9,10,10,11,11,12,12,13,13,14,14],"right_children":[2,4,6,8,10,12,14,16,18,20,22,24,26,28,30,-1,-1,-1,-1,-1,-1,-1,-1,-1,-1,-1,-1,-1,-1,-1,-1],"split_conditions":[4.05000000000000000e+01,4.25000000000000000e+01,1.08598258972167969e+02,3.55000000000000000e+01,1.95000000000000000e+01,7.89320349693298340e-01,3.95000000000000000e+01,4.05000000000000000e+01,3.50000000000000000e+00,1.53080000000000000e+04,1.46350000000000000e+03,1.75000000000000000e+01,4.06500000000000000e+02,-2.78550863265991211e-01,2.39145000000000000e+04,-1.17561377584934235e-01,3.09680979698896408e-02,-1.81607842445373535e-01,2.44780555367469788e-02,9.54315939452499151e-04,-2.34290674328804016e-01,6.60239309072494507e-02,-3.20588201284408569e-02,2.21036411821842194e-02,-2.89945155382156372e-01,7.26158395409584045e-02,-7.64770880341529846e-02,3.57341654598712921e-02,-1.33628308773040771e-01,1.72215610742568970e-01,-3.62116210162639618e-02],"split_indices":[53,146,84,144,144,72,48,56,147,16,5,48,1,78,22,0,0,0,0,0,0,0,0,0,0,0,0,0,0,0,0],"sum_hessian":[2.81224291992187500e+03,2.41791528320312500e+03,3.94327423095703125e+02,2.37320385742187500e+03,4.47116661071777344e+01,1.04071601867675781e+02,2.90255828857421875e+02,2.19742822265625000e+03,1.75775543212890625e+02,4.06938133239746094e+01,4.01785326004028320e+00,9.17451858520507813e+01,1.23264207839965820e+01,1.87589660644531250e+02,1.02666160583496094e+02,9.76424713134765625e+01,2.09978564453125000e+03,9.76438827514648438e+01,7.81316528320312500e+01,4.83352136611938477e+00,3.58602905273437500e+01,1.18465089797973633e+00,2.83320236206054688e+00,5.98881626129150391e+00,8.57563705444335938e+01,7.34667158126831055e+00,4.97974872589111328e+00,6.35075263977050781e+01,1.24082130432128906e+02,7.32395324707031250e+01,2.94266338348388672e+01],"tree_param":{"num_deleted":"0","num_feature":"168","num_nodes":"31","size_leaf_vector":"0"}},{"base_weights":[-1.03081837296485901e-02,9.18735936284065247e-03,-4.86855089664459229e-01,4.90063428878784180e-02,-2.42907479405403137e-01,-6.50138676166534424e-01,1.34363574907183647e-02,2.34176721423864365e-02,4.42094385623931885e-01,-7.25143909454345703e-01,-2.67128404229879379e-02,-7.73898661136627197e-01,1.29770457744598389e-01,2.31578618288040161e-01,-2.66598224639892578e-01,5.80081269145011902e-02,-3.47566813230514526e-01,-3.16920608282089233e-01,7.03466415405273438e-01,-1.47364079952239990e-01,-8.82951498031616211e-01,1.52547448873519897e-01,-5.28160572052001953e-01,-8.43117237091064453e-01,2.10474863648414612e-01,-1.77079021930694580e-01,2.96144694089889526e-01,3.22468996047973633e-01,-1.36540442705154419e-01,-4.40109312534332275e-01,1.91289395093917847e-01],"default_left":[true,true,true,true,true,true,true,true,true,true,true,true,true,true,true,false,false,false,false,false,false,false,false,false,false,false,false,false,false,false,false],"id":23,"leaf_child_counts":[0,0,0,0,0,0,0,0,0,0,0,0,0,0,0,0,0,0,0,0,0,0,0,0,0,0,0,0,0,0,0],"left_children":[1,3,5,7,9,11,13,15,17,19,21,23,25,27,29,-1,-1,-1,-1,-1,-1,-1,-1,-1,-1,-1,-1,-1,-1,-1,-1],"loss_changes":[2.60812568664550781e+01,2.73292064666748047e+01,9.14354515075683594e+00,2.34651184082031250e+01,3.84370422363281250e+01,9.56431961059570313e+00,3.48221468925476074e+00,2.87982845306396484e+01,3.16503734588623047e+01,8.47996902465820313e+00,2.56632881164550781e+01,7.71782684326171875e+00,2.02610945701599121e+00,1.71601557731628418e+00,3.27251219749450684e+00,0.00000000000000000e+00,0.00000000000000000e+00,0.00000000000000000e+00,0.00000000000000000e+00,0.00000000000000000e+00,0.00000000000000000e+00,0.00000000000000000e+00,0.00000000000000000e+00,0.00000000000000000e+00,0.00000000000000000e+00,0.00000000000000000e+00,0.00000000000000000e+00,0.00000000000000000e+00,0.00000000000000000e+00,0.00000000000000000e+00,0.00000000000000000e+00],"parents":[2147483647,0,0,1,1,2,2,3,3,4,4,5,5,6,6,7,7,8,8,9,9,10,10,11,11,12,12,13,13,14,14],"right_children":[2,4,6,8,10,12,14,16,18,20,22,24,26,28,30,-1,-1,-1,-1,-1,-1,-1,-1,-1,-1,-1,-1,-1,-1,-1,-1],"split_conditions":[3.85000000000000000e+01,6.05000000000000000e+01,9.05000000000000000e+01,2.91548200000000000e+06,1.03150000000000000e+03,1.55126094818115234e+00,6.60000000000000000e+01,7.50000000000000000e+00,5.00000000000000000e-01,4.59500000000000000e+02,2.84004711914062500e+03,1.25000000000000000e+01,2.50000000000000000e+00,2.75000000000000000e+01,1.28290653228759766e+00,1.74024384468793869e-02,-1.04270048439502716e-01,-9.50761884450912476e-02,2.11039930582046509e-01,-4.42092269659042358e-02,-2.64885455369949341e-01,4.57642376422882080e-02,-1.58448174595832825e-01,-2.52935171127319336e-01,6.31424635648727417e-02,-5.31237088143825531e-02,8.88434126973152161e-02,9.67407003045082092e-02,-4.09621335566043854e-02,-1.32032796740531921e-01,5.73868192732334137e-02],"split_indices":[117,63,136,16,43,91,127,148,65,44,80,132,120,153,95,0,0,0,0,0,0,0,0,0,0,0,0,0,0,0,0],"sum_hessian":[2.78506982421875000e+03,2.68974316406250000e+03,9.53266448974609375e+01,2.33328002929687500e+03,3.56463134765625000e+02,6.84826812744140625e+01,2.68439636230468750e+01,2.20559692382812500e+03,1.27683120727539063e+02,9.94102096557617188e+01,2.57052917480468750e+02,5.92035522460937500e+01,9.27912712097167969e+00,1.65484962463378906e+01,1.02954664230346680e+01,2.02906250000000000e+03,1.76534469604492188e+02,3.18894367218017578e+01,9.57936859130859375e+01,2.75497665405273438e+01,7.18604431152343750e+01,1.97047927856445313e+02,6.00049896240234375e+01,5.73250846862792969e+01,1.87846887111663818e+00,2.92300558090209961e+00,6.35612154006958008e+00,1.47634620666503906e+01,1.78503513336181641e+00,7.88858318328857422e+00,2.40688300132751465e+00],"tree_param":{"num_deleted":"0","num_feature":"168","num_nodes":"31","size_leaf_vector":"0"}},{"base_weights":[-1.06130512431263924e-02,-1.28767848014831543e-01,6.14447854459285736e-02,-6.87906086444854736e-01,-5.56138791143894196e-02,4.37269598245620728e-01,1.05017395690083504e-02,-7.52180278301239014e-01,1.10011368989944458e-01,-5.27937710285186768e-01,1.61105617880821228e-02,5.80076754093170166e-01,-4.92961928248405457e-02,-2.06173643469810486e-01,1.41154035925865173e-01,1.58631131052970886e-01,-7.94619679450988770e-01,2.65751838684082031e-01,-1.16504199802875519e-01,-6.57976984977722168e-01,-6.46042227745056152e-02,-3.65442365407943726e-01,1.70458376407623291e-01,6.38155877590179443e-01,-1.73768624663352966e-01,3.00020754337310791e-01,-2.69554704427719116e-01,-1.18634570389986038e-02,-5.96538782119750977e-01,-1.25147178769111633e-01,3.36584985256195068e-01],"default_left":[true,true,true,true,true,true,true,true,true,true,true,true,true,true,true,false,false,false,false,false,false,false,false,false,false,false,false,false,false,false,false],"id":24,"leaf_child_counts":[0,0,0,0,0,0,0,0,0,0,0,0,0,0,0,0,0,0,0,0,0,0,0,0,0,0,0,0,0,0,0],"left_children":[1,3,5,7,9,11,13,15,17,19,21,23,25,27,29,-1,-1,-1,-1,-1,-1,-1,-1,-1,-1,-1,-1,-1,-1,-1,-1],"loss_changes":[2.36561603546142578e+01,4.24620590209960938e+01,3.30038604736328125e+01,7.41648864746093750e+00,3.22001495361328125e+01,1.47312507629394531e+01,4.39362030029296875e+01,6.27213287353515625e+00,1.24272406101226807e+00,6.90925598144531250e+00,5.01959648132324219e+01,8.68189239501953125e+00,5.87021398544311523e+00,4.41995773315429688e+01,5.09832153320312500e+01,0.00000000000000000e+00,0.00000000000000000e+00,0.00000000000000000e+00,0.00000000000000000e+00,0.00000000000000000e+00,0.00000000000000000e+00,0.00000000000000000e+00,0.00000000000000000e+00,0.00000000000000000e+00,0.00000000000000000e+00,0.00000000000000000e+00,0.00000000000000000e+00,0.00000000000000000e+00,0.00000000000000000e+00,0.00000000000000000e+00,0.00000000000000000e+00],"parents":[2147483647,0,0,1,1,2,2,3,3,4,4,5,5,6,6,7,7,8,8,9,9,10,10,11,11,12,12,13,13,14,14],"right_children":[2,4,6,8,10,12,14,16,18,20,22,24,26,28,30,-1,-1,-1,-1,-1,-1,-1,-1,-1,-1,-1,-1,-1,-1,-1,-1],"split_conditions":[7.77398824691772461e-01,7.75000000000000000e+01,5.06500000000000000e+02,6.61700000000000000e+03,2.95000000000000000e+01,5.00000000000000000e-01,5.50000000000000000e+00,5.00000000000000000e-01,-2.01472073793411255e-01,2.56049275398254395e-01,7.39130859375000000e+01,8.26939821243286133e-01,5.05000000000000000e+01,6.50000000000000000e+00,1.01850000000000000e+03,4.75893430411815643e-02,-2.38385915756225586e-01,7.97255560755729675e-02,-3.49512621760368347e-02,-1.97393104434013367e-01,-1.93812679499387741e-02,-1.09632715582847595e-01,5.11375144124031067e-02,1.91446766257286072e-01,-5.21305911242961884e-02,9.00062322616577148e-02,-8.08664113283157349e-02,-3.55903734453022480e-03,-1.78961634635925293e-01,-3.75441536307334900e-02,1.00975498557090759e-01],"split_indices":[93,145,44,44,136,96,67,110,75,79,84,92,62,70,41,0,0,0,0,0,0,0,0,0,0,0,0,0,0,0,0],"sum_hessian":[2.74956835937500000e+03,1.03714086914062500e+03,1.71242749023437500e+03,1.05409629821777344e+02,9.31731262207031250e+02,1.90832962036132813e+02,1.52159460449218750e+03,9.83473281860351563e+01,7.06230115890502930e+00,1.10256217956542969e+02,8.21475036621093750e+02,1.45303558349609375e+02,4.55293998718261719e+01,5.69108154296875000e+02,9.52486450195312500e+02,2.55014634132385254e+00,9.57971878051757813e+01,2.64528751373291016e+00,4.41701364517211914e+00,8.11728363037109375e+01,2.90833854675292969e+01,2.30689102172851563e+02,5.90785949707031250e+02,