{"learner":{"attributes":{"best_iteration":"119","best_msg":"[119]\tvalidation_0-error:0.06362\tvalidation_1-error:0.10040","best_score":"0.1004","scikit_learn":"{\"n_estimators\": 1000, \"objective\": \"binary:logistic\", \"max_depth\": 4, \"learning_rate\": 0.3, \"verbosity\": null, \"booster\": null, \"tree_method\": null, \"gamma\": null, \"min_child_weight\": null, \"max_delta_step\": null, \"subsample\": null, \"colsample_bytree\": null, \"colsample_bylevel\": null, \"colsample_bynode\": null, \"reg_alpha\": null, \"reg_lambda\": 15, \"scale_pos_weight\": null, \"base_score\": null, \"missing\": NaN, \"num_parallel_tree\": null, \"kwargs\": {\"silent\": true, \"eval_metrics\": \"error\", \"seed\": 100, \"sub_sabsample\": 0.8}, \"random_state\": null, \"n_jobs\": null, \"monotone_constraints\": null, \"interaction_constraints\": null, \"importance_type\": \"gain\", \"gpu_id\": null, \"validate_parameters\": null, \"classes_\": [0, 1], \"n_classes_\": 2, \"_le\": {\"classes_\": [0, 1]}, \"_features_count\": 84, \"evals_result_\": {\"validation_0\": {\"error\": [0.227012, 0.205821, 0.198454, 0.188085, 0.177399, 0.169031, 0.164893, 0.159618, 0.155525, 0.150023, 0.14643, 0.142428, 0.141155, 0.136653, 0.134152, 0.132333, 0.130332, 0.127512, 0.126648, 0.125739, 0.124147, 0.123147, 0.122465, 0.120009, 0.117144, 0.115416, 0.112915, 0.111778, 0.111141, 0.110869, 0.110277, 0.107776, 0.106594, 0.105093, 0.104548, 0.104138, 0.102819, 0.102638, 0.101683, 0.100864, 0.1, 0.099454, 0.099363, 0.098181, 0.097544, 0.097817, 0.097362, 0.096817, 0.095771, 0.095225, 0.094588, 0.093861, 0.092087, 0.091951, 0.091451, 0.09095, 0.09095, 0.089222, 0.08895, 0.088495, 0.088495, 0.087767, 0.08754, 0.087176, 0.086858, 0.086539, 0.085766, 0.085584, 0.085221, 0.084538, 0.083492, 0.082719, 0.082447, 0.081719, 0.081219, 0.080764, 0.080264, 0.079718, 0.079354, 0.079127, 0.07899, 0.078718, 0.078399, 0.078126, 0.077763, 0.076899, 0.07658, 0.076262, 0.075352, 0.074943, 0.074261, 0.074216, 0.074307, 0.073988, 0.073352, 0.073488, 0.072806, 0.072124, 0.071396, 0.071078, 0.069759, 0.069668, 0.069668, 0.069031, 0.06894, 0.068895, 0.068668, 0.067167, 0.066849, 0.067076, 0.06703, 0.066985, 0.065712, 0.065757, 0.065666, 0.064848, 0.064757, 0.064529, 0.064029, 0.06362, 0.063256, 0.062665, 0.06271, 0.062119, 0.061937, 0.06121, 0.060664, 0.0608, 0.059754, 0.059936, 0.059118, 0.058936, 0.059163, 0.058845, 0.058663, 0.058299, 0.058299, 0.057754, 0.056844, 0.056662, 0.056526, 0.056207, 0.055707, 0.055343, 0.05507, 0.054889, 0.053979, 0.053979, 0.053934]}, \"validation_1\": {\"error\": [0.236268, 0.208439, 0.203347, 0.199163, 0.186977, 0.177519, 0.175882, 0.167152, 0.163332, 0.160058, 0.154602, 0.154238, 0.150418, 0.146599, 0.143143, 0.14096, 0.141688, 0.140233, 0.137686, 0.135686, 0.133321, 0.132594, 0.131502, 0.130047, 0.129502, 0.127683, 0.127319, 0.126046, 0.124591, 0.125136, 0.125682, 0.124227, 0.121681, 0.120407, 0.119862, 0.120771, 0.121135, 0.121135, 0.120044, 0.118225, 0.116952, 0.118407, 0.117134, 0.117497, 0.116952, 0.116224, 0.116224, 0.115315, 0.116588, 0.117315, 0.116952, 0.114587, 0.114405, 0.114405, 0.115497, 0.114587, 0.11386, 0.112223, 0.112586, 0.112405, 0.111495, 0.112041, 0.112223, 0.11295, 0.112223, 0.111859, 0.110768, 0.11004, 0.11004, 0.110222, 0.11004, 0.108585, 0.108039, 0.108039, 0.108039, 0.108221, 0.108039, 0.10713, 0.106948, 0.10713, 0.106766, 0.107494, 0.107312, 0.106948, 0.107494, 0.106766, 0.106402, 0.106584, 0.106948, 0.106402, 0.106948, 0.106948, 0.106584, 0.105675, 0.105857, 0.105493, 0.104947, 0.105311, 0.104765, 0.104947, 0.104947, 0.104765, 0.104583, 0.104765, 0.10422, 0.104038, 0.10422, 0.102401, 0.103492, 0.102947, 0.102765, 0.102947, 0.102219, 0.102219, 0.103128, 0.102765, 0.102401, 0.102765, 0.101491, 0.1004, 0.1004, 0.100582, 0.100764, 0.101128, 0.100582, 0.100764, 0.101128, 0.101491, 0.10131, 0.100946, 0.101491, 0.101128, 0.10131, 0.101491, 0.101673, 0.101491, 0.102401, 0.102401, 0.103492, 0.102765, 0.103128, 0.102583, 0.102583, 0.101673, 0.102219, 0.102583, 0.101855, 0.102219, 0.102947]}}, \"best_score\": 0.1004, \"best_iteration\": 119, \"best_ntree_limit\": 120, \"type\": \"XGBClassifier\"}"},"gradient_booster":{"model":{"gbtree_model_param":{"num_trees":"150","size_leaf_vector":"0"},"tree_info":[0,0,0,0,0,0,0,0,0,0,0,0,0,0,0,0,0,0,0,0,0,0,0,0,0,0,0,0,0,0,0,0,0,0,0,0,0,0,0,0,0,0,0,0,0,0,0,0,0,0,0,0,0,0,0,0,0,0,0,0,0,0,0,0,0,0,0,0,0,0,0,0,0,0,0,0,0,0,0,0,0,0,0,0,0,0,0,0,0,0,0,0,0,0,0,0,0,0,0,0,0,0,0,0,0,0,0,0,0,0,0,0,0,0,0,0,0,0,0,0,0,0,0,0,0,0,0,0,0,0,0,0,0,0,0,0,0,0,0,0,0,0,0,0,0,0,0,0,0,0],"trees":[{"base_weights":[2.47981861233711243e-01,-1.57873618602752686e+00,5.32977640628814697e-01,-1.77975130081176758e+00,-8.93617033958435059e-01,1.01414462551474571e-02,1.26933741569519043e+00,-1.78590548038482666e+00,-5.71428574621677399e-02,-1.31111109256744385e+00,-1.88087765127420425e-02,-6.34880781173706055e-01,6.38937413692474365e-01,1.45459675788879395e+00,-2.64900654554367065e-01,-1.79335129261016846e+00,-1.57894730567932129e-01,1.25000000000000000e-01,-1.81818187236785889e-01,-1.35216569900512695e+00,1.44927531480789185e-01,3.47826093435287476e-01,-5.77181220054626465e-01,-1.49483144283294678e+00,-6.32688924670219421e-02,-1.88888892531394958e-01,9.04652237892150879e-01,-8.75000000000000000e-01,1.51732099056243896e+00,-1.14211881160736084e+00,3.48877370357513428e-01],"default_left":[true,true,true,true,true,true,true,true,true,true,true,true,true,true,true,false,false,false,false,false,false,false,false,false,false,false,false,false,false,false,false],"id":0,"leaf_child_counts":[0,0,0,0,0,0,0,0,0,0,0,0,0,0,0,0,0,0,0,0,0,0,0,0,0,0,0,0,0,0,0],"left_children":[1,3,5,7,9,11,13,15,17,19,21,23,25,27,29,-1,-1,-1,-1,-1,-1,-1,-1,-1,-1,-1,-1,-1,-1,-1,-1],"loss_changes":[2.88246752929687500e+03,7.91232910156250000e+01,1.83998937988281250e+03,4.43774414062500000e+00,7.25842437744140625e+01,1.14588671875000000e+03,5.69838134765625000e+02,2.54687500000000000e+00,7.38311707973480225e-01,1.10093994140625000e+01,1.93377037048339844e+01,6.84181945800781250e+02,3.17224060058593750e+02,2.78989501953125000e+02,1.27928390502929688e+02,0.00000000000000000e+00,0.00000000000000000e+00,0.00000000000000000e+00,0.00000000000000000e+00,0.00000000000000000e+00,0.00000000000000000e+00,0.00000000000000000e+00,0.00000000000000000e+00,0.00000000000000000e+00,0.00000000000000000e+00,0.00000000000000000e+00,0.00000000000000000e+00,0.00000000000000000e+00,0.00000000000000000e+00,0.00000000000000000e+00,0.00000000000000000e+00],"parents":[2147483647,0,0,1,1,2,2,3,3,4,4,5,5,6,6,7,7,8,8,9,9,10,10,11,11,12,12,13,13,14,14],"right_children":[2,4,6,8,10,12,14,16,18,20,22,24,26,28,30,-1,-1,-1,-1,-1,-1,-1,-1,-1,-1,-1,-1,-1,-1,-1,-1],"split_conditions":[1.31150000000000000e+03,1.11050000000000000e+03,1.24500000000000000e+02,3.15606927871704102e+00,5.85000000000000000e+01,2.65000000000000000e+01,2.09459500000000000e+05,1.60228872299194336e+00,8.11000000000000000e+02,9.45000000000000000e+01,6.75000000000000000e+01,1.12500000000000000e+02,1.79250000000000000e+03,7.19610571861267090e-01,9.50000000000000000e+00,-5.38005411624908447e-01,-4.73684221506118774e-02,3.75000014901161194e-02,-5.45454584062099457e-02,-4.05649721622467041e-01,4.34782616794109344e-02,1.04347832500934601e-01,-1.73154368996620178e-01,-4.48449462652206421e-01,-1.89806688576936722e-02,-5.66666685044765472e-02,2.71395683288574219e-01,-2.62500017881393433e-01,4.55196321010589600e-01,-3.42635661363601685e-01,1.04663215577602386e-01],"split_indices":[22,22,52,37,26,35,10,44,2,24,24,61,21,47,35,0,0,0,0,0,0,0,0,0,0,0,0,0,0,0,0],"sum_hessian":[5.49750000000000000e+03,7.32750000000000000e+02,4.76475000000000000e+03,5.48000000000000000e+02,1.84750000000000000e+02,2.79525000000000000e+03,1.96950000000000000e+03,5.45500000000000000e+02,2.50000000000000000e+00,1.20000000000000000e+02,6.47500000000000000e+01,1.37975000000000000e+03,1.41550000000000000e+03,1.75800000000000000e+03,2.11500000000000000e+02,5.41500000000000000e+02,4.00000000000000000e+00,1.00000000000000000e+00,1.50000000000000000e+00,1.17750000000000000e+02,2.25000000000000000e+00,4.25000000000000000e+01,2.22500000000000000e+01,5.41250000000000000e+02,8.38500000000000000e+02,3.45000000000000000e+02,1.07050000000000000e+03,4.10000000000000000e+01,1.71700000000000000e+03,8.17500000000000000e+01,1.29750000000000000e+02],"tree_param":{"num_deleted":"0","num_feature":"84","num_nodes":"31","size_leaf_vector":"0"}},{"base_weights":[1.76231622695922852e-01,-1.04268133640289307e+00,4.17563885450363159e-01,-1.39188528060913086e+00,-5.80583572387695313e-01,2.78691090643405914e-02,1.00019407272338867e+00,-1.22791796922683716e-01,-1.40385270118713379e+00,-1.33971440792083740e+00,-2.22181063145399094e-02,-7.59120941162109375e-01,3.34407985210418701e-01,-5.32885789871215820e-01,1.12956070899963379e+00,-2.77847737073898315e-01,1.56898349523544312e-01,-1.40916872024536133e+00,-3.96201312541961670e-02,-1.37921416759490967e+00,1.35425314307212830e-01,-1.05835855007171631e+00,2.22397968173027039e-01,-1.19624316692352295e+00,-5.41106909513473511e-02,8.64714235067367554e-02,9.26544010639190674e-01,-8.50658059120178223e-01,6.10740244388580322e-01,1.27640163898468018e+00,3.52444142103195190e-01],"default_left":[true,true,true,true,true,true,true,true,true,true,true,true,true,true,true,false,false,false,false,false,false,false,false,false,false,false,false,false,false,false,false],"id":1,"leaf_child_counts":[0,0,0,0,0,0,0,0,0,0,0,0,0,0,0,0,0,0,0,0,0,0,0,0,0,0,0,0,0,0,0],"left_children":[1,3,5,7,9,11,13,15,17,19,21,23,25,27,29,-1,-1,-1,-1,-1,-1,-1,-1,-1,-1,-1,-1,-1,-1,-1,-1],"loss_changes":[1.57577746582031250e+03,1.30838134765625000e+02,1.01305206298828125e+03,4.91503906250000000e+00,1.72095443725585938e+02,6.52782836914062500e+02,3.63751708984375000e+02,1.56685853004455566e+00,2.70043945312500000e+00,1.28390502929687500e+01,6.68436584472656250e+01,2.32837646484375000e+02,2.84559753417968750e+02,6.20765419006347656e+01,1.82015136718750000e+02,0.00000000000000000e+00,0.00000000000000000e+00,0.00000000000000000e+00,0.00000000000000000e+00,0.00000000000000000e+00,0.00000000000000000e+00,0.00000000000000000e+00,0.00000000000000000e+00,0.00000000000000000e+00,0.00000000000000000e+00,0.00000000000000000e+00,0.00000000000000000e+00,0.00000000000000000e+00,0.00000000000000000e+00,0.00000000000000000e+00,0.00000000000000000e+00],"parents":[2147483647,0,0,1,1,2,2,3,3,4,4,5,5,6,6,7,7,8,8,9,9,10,10,11,11,12,12,13,13,14,14],"right_children":[2,4,6,8,10,12,14,16,18,20,22,24,26,28,30,-1,-1,-1,-1,-1,-1,-1,-1,-1,-1,-1,-1,-1,-1,-1,-1],"split_conditions":[1.48750000000000000e+03,1.06950000000000000e+03,1.14500000000000000e+02,-1.61445975303649902e+00,4.55000000000000000e+01,9.50000000000000000e+00,1.07500000000000000e+02,3.25000000000000000e+01,8.15000000000000000e+01,9.15000000000000000e+01,8.92500000000000000e+02,1.76500000000000000e+02,6.45750000000000000e+03,5.26250000000000000e+03,1.45949500000000000e+05,-8.33543241024017334e-02,4.70695085823535919e-02,-4.22750622034072876e-01,-1.18860397487878799e-02,-4.13764268159866333e-01,4.06275950372219086e-02,-3.17507565021514893e-01,6.67193904519081116e-02,-3.58872950077056885e-01,-1.62332076579332352e-02,2.59414277970790863e-02,2.77963221073150635e-01,-2.55197435617446899e-01,1.83222085237503052e-01,3.82920503616333008e-01,1.05733245611190796e-01],"split_indices":[22,22,28,39,27,35,61,71,53,24,23,61,23,23,10,0,0,0,0,0,0,0,0,0,0,0,0,0,0,0,0],"sum_hessian":[5.31961572265625000e+03,8.70932250976562500e+02,4.44868359375000000e+03,4.78871276855468750e+02,3.92060974121093750e+02,2.67512915039062500e+03,1.77355444335937500e+03,6.05143785476684570e+00,4.72819824218750000e+02,1.57262741088867188e+02,2.34798217773437500e+02,7.43686218261718750e+02,1.93144299316406250e+03,1.34371749877929688e+02,1.63918261718750000e+03,3.95670938491821289e+00,2.09472846984863281e+00,4.70492370605468750e+02,2.32747602462768555e+00,1.54111511230468750e+02,3.15122151374816895e+00,3.53145065307617188e+01,1.99483718872070313e+02,4.52607666015625000e+02,2.91078521728515625e+02,1.37351953125000000e+03,5.57923522949218750e+02,1.08160491943359375e+02,2.62112617492675781e+01,1.37056811523437500e+03,2.68614501953125000e+02],"tree_param":{"num_deleted":"0","num_feature":"84","num_nodes":"31","size_leaf_vector":"0"}},{"base_weights":[1.29376456141471863e-01,-1.04545032978057861e+00,2.84287780523300171e-01,-1.20446515083312988e+00,-7.20737218856811523e-01,7.64469981193542480e-01,-4.80447411537170410e-02,-2.42168769240379333e-01,-1.23306703567504883e+00,-1.13608837127685547e+00,-1.70603990554809570e-01,-4.47230488061904907e-01,8.85049641132354736e-01,-6.22692883014678955e-01,2.32221141457557678e-01,1.75587505102157593e-01,-3.84753435850143433e-01,-1.24150419235229492e+00,4.78729885071516037e-03,7.11134150624275208e-02,-1.15951430797576904e+00,1.81551322340965271e-01,-7.12873697280883789e-01,-8.05943727493286133e-01,5.52592575550079346e-01,-8.93817961215972900e-01,9.46565270423889160e-01,-1.13785338401794434e+00,-2.42763862013816833e-01,4.26829069852828979e-01,-4.51781451702117920e-01],"default_left":[true,true,true,true,true,true,true,true,true,true,true,true,true,true,true,false,false,false,false,false,false,false,false,false,false,false,false,false,false,false,false],"id":2,"leaf_child_counts":[0,0,0,0,0,0,0,0,0,0,0,0,0,0,0,0,0,0,0,0,0,0,0,0,0,0,0,0,0,0,0],"left_children":[1,3,5,7,9,11,13,15,17,19,21,23,25,27,29,-1,-1,-1,-1,-1,-1,-1,-1,-1,-1,-1,-1,-1,-1,-1,-1],"loss_changes":[9.23665161132812500e+02,1.75256347656250000e+01,7.14536254882812500e+02,5.83612060546875000e+00,5.00648880004882813e+01,2.73442260742187500e+02,4.30292724609375000e+02,2.76958942413330078e+00,3.85211181640625000e+00,4.89752197265625000e+00,2.43571071624755859e+01,6.96849975585937500e+01,1.95459594726562500e+02,1.67218994140625000e+02,2.42192291259765625e+02,0.00000000000000000e+00,0.00000000000000000e+00,0.00000000000000000e+00,0.00000000000000000e+00,0.00000000000000000e+00,0.00000000000000000e+00,0.00000000000000000e+00,0.00000000000000000e+00,0.00000000000000000e+00,0.00000000000000000e+00,0.00000000000000000e+00,0.00000000000000000e+00,0.00000000000000000e+00,0.00000000000000000e+00,0.00000000000000000e+00,0.00000000000000000e+00],"parents":[2147483647,0,0,1,1,2,2,3,3,4,4,5,5,6,6,7,7,8,8,9,9,10,10,11,11,12,12,13,13,14,14],"right_children":[2,4,6,8,10,12,14,16,18,20,22,24,26,28,30,-1,-1,-1,-1,-1,-1,-1,-1,-1,-1,-1,-1,-1,-1,-1,-1],"split_conditions":[1.26850000000000000e+03,1.00250000000000000e+03,8.50000000000000000e+00,-1.17889928817749023e+00,1.50500000000000000e+02,1.15500000000000000e+02,2.35500000000000000e+03,1.15000000000000000e+01,3.15606927871704102e+00,5.16844511032104492e-01,6.75000000000000000e+01,1.42765000000000000e+04,7.21739530563354492e-01,1.38500000000000000e+02,1.55000000000000000e+01,5.26762530207633972e-02,-1.15426033735275269e-01,-3.72451275587081909e-01,1.43618974834680557e-03,2.13340260088443756e-02,-3.47854316234588623e-01,5.44653981924057007e-02,-2.13862121105194092e-01,-2.41783127188682556e-01,1.65777772665023804e-01,-2.68145412206649780e-01,2.83969581127166748e-01,-3.41356039047241211e-01,-7.28291645646095276e-02,1.28048732876777649e-01,-1.35534435510635376e-01],"split_indices":[22,22,50,37,79,61,23,62,37,44,24,20,47,61,67,0,0,0,0,0,0,0,0,0,0,0,0,0,0,0,0],"sum_hessian":[5.03575585937500000e+03,5.76607849121093750e+02,4.45914794921875000e+03,3.59780456542968750e+02,2.16827392578125000e+02,1.81589038085937500e+03,2.64325732421875000e+03,1.44837970733642578e+01,3.45296661376953125e+02,1.14444763183593750e+02,1.02382637023925781e+02,1.60671707153320313e+02,1.65521875000000000e+03,8.60529113769531250e+02,1.78272814941406250e+03,2.80208754539489746e+00,1.16817102432250977e+01,3.42915161132812500e+02,2.38150691986083984e+00,1.59727859497070313e+00,1.12847480773925781e+02,6.81217269897460938e+01,3.42609062194824219e+01,1.20388000488281250e+02,4.02837028503417969e+01,4.85427131652832031e+01,1.60667602539062500e+03,3.52558166503906250e+02,5.07970977783203125e+02,1.39225317382812500e+03,3.90475006103515625e+02],"tree_param":{"num_deleted":"0","num_feature":"84","num_nodes":"31","size_leaf_vector":"0"}},{"base_weights":[9.20846536755561829e-02,-8.72981309890747070e-01,2.17108383774757385e-01,-1.20719337463378906e+00,-5.39555013179779053e-01,-4.09406274557113647e-02,6.56463623046875000e-01,-1.21683418750762939e+00,7.02832341194152832e-02,-9.27026391029357910e-01,-5.76350875198841095e-02,-1.87458321452140808e-01,9.45806145668029785e-01,-4.53526526689529419e-01,7.66261518001556396e-01,-1.22650122642517090e+00,6.61487281322479248e-02,-9.75614309310913086e-01,4.43439744412899017e-03,2.40104272961616516e-01,-8.18129777908325195e-01,-4.27722275257110596e-01,4.82670634984970093e-01,-4.54943597316741943e-01,1.19233763217926025e+00,-8.05670678615570068e-01,5.53034283220767975e-02,8.60351979732513428e-01,4.36906218528747559e-02],"default_left":[true,true,true,true,true,true,true,true,false,true,true,true,true,true,true,false,false,false,false,false,false,false,false,false,false,false,false,false,false],"id":3,"leaf_child_counts":[0,0,0,0,0,0,0,0,0,0,0,0,0,0,0,0,0,0,0,0,0,0,0,0,0,0,0,0,0],"left_children":[1,3,5,7,9,11,13,15,-1,17,19,21,23,25,27,-1,-1,-1,-1,-1,-1,-1,-1,-1,-1,-1,-1,-1,-1],"loss_changes":[5.76448852539062500e+02,5.13225097656250000e+01,4.78939270019531250e+02,4.50558471679687500e+00,5.55094604492187500e+01,3.89136474609375000e+02,1.95658935546875000e+02,4.44824218750000000e+00,0.00000000000000000e+00,7.58526611328125000e+00,3.70004386901855469e+01,3.79869049072265625e+02,1.28342742919921875e+02,2.75603103637695313e+01,9.64915771484375000e+01,0.00000000000000000e+00,0.00000000000000000e+00,0.00000000000000000e+00,0.00000000000000000e+00,0.00000000000000000e+00,0.00000000000000000e+00,0.00000000000000000e+00,0.00000000000000000e+00,0.00000000000000000e+00,0.00000000000000000e+00,0.00000000000000000e+00,0.00000000000000000e+00,0.00000000000000000e+00,0.00000000000000000e+00],"parents":[2147483647,0,0,1,1,2,2,3,3,4,4,5,5,6,6,7,7,9,9,10,10,11,11,12,12,13,13,14,14],"right_children":[2,4,6,8,10,12,14,16,-1,18,20,22,24,26,28,-1,-1,-1,-1,-1,-1,-1,-1,-1,-1,-1,-1,-1,-1],"split_conditions":[1.13250000000000000e+03,1.25000000000000000e+01,1.14500000000000000e+02,1.61209893226623535e+00,5.85000000000000000e+01,1.24880029296875000e+04,4.65000000000000000e+01,3.15567922592163086e+00,2.10849717259407043e-02,1.31437492370605469e+00,2.29888137817382813e+02,5.62650000000000000e+03,1.41050000000000000e+03,9.64831471443176270e-01,4.25000000000000000e+01,-3.67950379848480225e-01,1.98446195572614670e-02,-2.92684316635131836e-01,1.33031932637095451e-03,7.20312818884849548e-02,-2.45438948273658752e-01,-1.28316685557365417e-01,1.44801199436187744e-01,-1.36483088135719299e-01,3.57701301574707031e-01,-2.41701215505599976e-01,1.65910292416810989e-02,2.58105605840682983e-01,1.31071871146559715e-02],"split_indices":[23,80,28,44,26,42,26,37,0,36,42,23,21,45,62,0,0,0,0,0,0,0,0,0,0,0,0,0,0],"sum_hessian":[4.73905468750000000e+03,5.33235900878906250e+02,4.20581884765625000e+03,2.46672958374023438e+02,2.86562927246093750e+02,2.65817822265625000e+03,1.54764062500000000e+03,2.45532058715820313e+02,1.14090836048126221e+00,1.51167587280273438e+02,1.35395324707031250e+02,2.32508666992187500e+03,3.33091522216796875e+02,1.35082260131835938e+02,1.41255834960937500e+03,2.44351272583007813e+02,1.18078255653381348e+00,1.42997344970703125e+02,8.17023277282714844e+00,1.04677490234375000e+02,3.07178382873535156e+01,1.71546142578125000e+03,6.09625122070312500e+02,4.79525680541992188e+01,2.85138946533203125e+02,7.46611099243164063e+01,6.04211425781250000e+01,1.24728173828125000e+03,1.65276596069335938e+02],"tree_param":{"num_deleted":"0","num_feature":"84","num_nodes":"29","size_leaf_vector":"0"}},{"base_weights":[6.83619901537895203e-02,-6.20636284351348877e-01,2.03538700938224792e-01,-1.07167780399322510e+00,-3.91622453927993774e-01,3.17361243069171906e-02,7.91598200798034668e-01,-1.08520090579986572e+00,1.13001368939876556e-01,-9.40281271934509277e-01,2.30960417538881302e-02,-1.23146915435791016e+00,9.85750108957290649e-02,9.55074369907379150e-01,-8.79341304302215576e-01,-1.09729659557342529e+00,6.08578994870185852e-02,-9.95353698730468750e-01,-4.83777783811092377e-02,-8.24562847614288330e-01,1.77796885371208191e-01,-1.35559284687042236e+00,3.79231482744216919e-01,-1.08444048091769218e-02,7.38779067993164063e-01,-5.74208974838256836e-01,1.01851475238800049e+00,-1.32329916954040527e+00,-5.19197396934032440e-02],"default_left":[true,true,true,true,true,true,true,true,false,true,true,true,true,true,true,false,false,false,false,false,false,false,false,false,false,false,false,false,false],"id":4,"leaf_child_counts":[0,0,0,0,0,0,0,0,0,0,0,0,0,0,0,0,0,0,0,0,0,0,0,0,0,0,0,0,0],"left_children":[1,3,5,7,9,11,13,15,-1,17,19,21,23,25,27,-1,-1,-1,-1,-1,-1,-1,-1,-1,-1,-1,-1,-1,-1],"loss_changes":[4.22140502929687500e+02,7.05313110351562500e+01,3.81859039306640625e+02,5.71368408203125000e+00,1.17948081970214844e+02,2.50352539062500000e+02,2.46089660644531250e+02,4.33581542968750000e+00,0.00000000000000000e+00,1.02259368896484375e+01,4.27248191833496094e+01,3.75075836181640625e+01,1.96932113647460938e+02,8.50097045898437500e+01,2.98204498291015625e+01,0.00000000000000000e+00,0.00000000000000000e+00,0.00000000000000000e+00,0.00000000000000000e+00,0.00000000000000000e+00,0.00000000000000000e+00,0.00000000000000000e+00,0.00000000000000000e+00,0.00000000000000000e+00,0.00000000000000000e+00,0.00000000000000000e+00,0.00000000000000000e+00,0.00000000000000000e+00,0.00000000000000000e+00],"parents":[2147483647,0,0,1,1,2,2,3,3,4,4,5,5,6,6,7,7,9,9,10,10,11,11,12,12,13,13,14,14],"right_children":[2,4,6,8,10,12,14,16,-1,18,20,22,24,26,28,-1,-1,-1,-1,-1,-1,-1,-1,-1,-1,-1,-1,-1,-1],"split_conditions":[1.56750000000000000e+03,4.55000000000000000e+01,2.15500000000000000e+02,2.47252345085144043e+00,9.99500000000000000e+02,1.65000000000000000e+01,6.45419677734375000e+02,2.20805335044860840e+00,3.39004136621952057e-02,1.27888059616088867e+00,3.98653209209442139e-01,5.14095950000000000e+06,8.10538476562500000e+03,1.85000000000000000e+01,3.98591979980468750e+02,-3.29189002513885498e-01,1.82573702186346054e-02,-2.98606127500534058e-01,-1.45133342593908310e-02,-2.47368857264518738e-01,5.33390678465366364e-02,-4.06677871942520142e-01,1.13769449293613434e-01,-3.25332162901759148e-03,2.21633732318878174e-01,-1.72262698411941528e-01,3.05554449558258057e-01,-3.96989762783050537e-01,-1.55759220942854881e-02],"split_indices":[22,27,61,38,22,27,42,36,0,44,45,8,42,80,43,0,0,0,0,0,0,0,0,0,0,0,0,0,0],"sum_hessian":[4.49714648437500000e+03,7.28762268066406250e+02,3.76838427734375000e+03,2.26829574584960938e+02,5.01932678222656250e+02,2.92859887695312500e+03,8.39785583496093750e+02,2.25514877319335938e+02,1.31469392776489258e+00,2.07890853881835938e+02,2.94041839599609375e+02,1.34036773681640625e+02,2.79456201171875000e+03,7.70800720214843750e+02,6.89848709106445313e+01,2.23791152954101563e+02,1.72372424602508545e+00,1.94162078857421875e+02,1.37287626266479492e+01,3.53571548461914063e+01,2.58684661865234375e+02,1.26652435302734375e+02,7.38433265686035156e+00,2.39924487304687500e+03,3.95317047119140625e+02,2.58917274475097656e+01,7.44908996582031250e+02,3.90453109741210938e+01,2.99395618438720703e+01],"tree_param":{"num_deleted":"0","num_feature":"84","num_nodes":"29","size_leaf_vector":"0"}},{"base_weights":[4.70270551741123199e-02,-5.63559532165527344e-01,1.62553772330284119e-01,-8.96893978118896484e-01,3.81895840167999268e-01,-6.97445213794708252e-01,2.63203471899032593e-01,-1.06448662281036377e+00,1.26191839575767517e-01,-5.45506238937377930e-01,6.56870484352111816e-01,-9.63287830352783203e-01,-8.17443057894706726e-02,-3.97732764482498169e-01,3.52610021829605103e-01,-1.11501777172088623e+00,2.19427153468132019e-01,-5.49876928329467773e-01,5.21541833877563477e-01,3.22520956397056580e-02,-7.90372967720031738e-01,-3.67702305316925049e-01,7.71915197372436523e-01,-1.04013705253601074e+00,-3.33244323730468750e-01,-4.90524977445602417e-01,4.74858224391937256e-01,-8.49099993705749512e-01,-3.82996201515197754e-02,-5.62803566455841064e-01,4.13819849491119385e-01],"default_left":[true,true,true,true,true,true,true,true,true,true,true,true,true,true,true,false,false,false,false,false,false,false,false,false,false,false,false,false,false,false,false],"id":5,"leaf_child_counts":[0,0,0,0,0,0,0,0,0,0,0,0,0,0,0,0,0,0,0,0,0,0,0,0,0,0,0,0,0,0,0],"left_children":[1,3,5,7,9,11,13,15,17,19,21,23,25,27,29,-1,-1,-1,-1,-1,-1,-1,-1,-1,-1,-1,-1,-1,-1,-1,-1],"loss_changes":[3.05139892578125000e+02,2.22123825073242188e+02,3.17207000732421875e+02,9.00639648437500000e+01,5.38247146606445313e+01,6.17915649414062500e+01,1.94927261352539063e+02,3.23997192382812500e+01,2.72053680419921875e+01,7.68864345550537109e+00,2.23327026367187500e+01,7.74385070800781250e+00,3.36215515136718750e+01,6.37354087829589844e+01,1.64992279052734375e+02,0.00000000000000000e+00,0.00000000000000000e+00,0.00000000000000000e+00,0.00000000000000000e+00,0.00000000000000000e+00,0.00000000000000000e+00,0.00000000000000000e+00,0.00000000000000000e+00,0.00000000000000000e+00,0.00000000000000000e+00,0.00000000000000000e+00,0.00000000000000000e+00,0.00000000000000000e+00,0.00000000000000000e+00,0.00000000000000000e+00,0.00000000000000000e+00],"parents":[2147483647,0,0,1,1,2,2,3,3,4,4,5,5,6,6,7,7,8,8,9,9,10,10,11,11,12,12,13,13,14,14],"right_children":[2,4,6,8,10,12,14,16,18,20,22,24,26,28,30,-1,-1,-1,-1,-1,-1,-1,-1,-1,-1,-1,-1,-1,-1,-1,-1],"split_conditions":[8.05000000000000000e+01,6.16956054687500000e+03,1.65000000000000000e+01,6.65150000000000000e+03,7.25000000000000000e+01,1.50000000000000000e+00,9.35000000000000000e+01,6.53181750000000000e+06,3.45000000000000000e+01,1.35000000000000000e+01,7.55150000000000000e+03,5.94457030296325684e-01,1.34686250000000000e+06,1.45600000000000000e+03,1.26550000000000000e+03,-3.34505349397659302e-01,6.58281520009040833e-02,-1.64963081479072571e-01,1.56462550163269043e-01,9.67562943696975708e-03,-2.37111896276473999e-01,-1.10310696065425873e-01,2.31574565172195435e-01,-3.12041133642196655e-01,-9.99732986092567444e-02,-1.47157505154609680e-01,1.42457470297813416e-01,-2.54730015993118286e-01,-1.14898867905139923e-02,-1.68841078877449036e-01,1.24145962297916412e-01],"split_indices":[61,42,80,23,34,58,28,8,34,54,0,38,8,21,22,0,0,0,0,0,0,0,0,0,0,0,0,0,0,0,0],"sum_hessian":[4.29134814453125000e+03,6.73510437011718750e+02,3.61783764648437500e+03,4.98520141601562500e+02,1.74990295410156250e+02,3.69731750488281250e+02,3.24810595703125000e+03,4.27829925537109375e+02,7.06902236938476563e+01,3.66440238952636719e+01,1.38346267700195313e+02,2.52319198608398438e+02,1.17412544250488281e+02,3.80862060546875000e+02,2.86724389648437500e+03,4.13527862548828125e+02,1.43020563125610352e+01,2.39210643768310547e+01,4.67691612243652344e+01,1.47845277786254883e+01,2.18594970703125000e+01,1.06405334472656250e+01,1.27705734252929688e+02,2.16186523437500000e+02,3.61326866149902344e+01,6.87222213745117188e+01,4.86903152465820313e+01,1.59779708862304688e+02,2.21082351684570313e+02,1.72000381469726563e+02,2.69524340820312500e+03],"tree_param":{"num_deleted":"0","num_feature":"84","num_nodes":"31","size_leaf_vector":"0"}},{"base_weights":[2.89088413119316101e-02,-4.94944691658020020e-01,1.31367444992065430e-01,5.35224795341491699e-01,-6.98456943035125732e-01,-7.81752884387969971e-01,1.93326488137245178e-01,-5.50067484378814697e-01,7.31331050395965576e-01,8.38443711400032043e-02,-8.72638881206512451e-01,-8.60811531543731689e-01,1.10199280083179474e-01,2.79591113328933716e-01,-3.48575562238693237e-01,-6.19121730327606201e-01,4.25129160284996033e-02,8.28472614288330078e-01,-2.36129239201545715e-01,-5.59454917907714844e-01,4.45128858089447021e-01,-1.00837218761444092e+00,-2.80507415533065796e-01,-8.94239664077758789e-01,4.81090135872364044e-02,-4.70320940017700195e-01,5.06669998168945313e-01,3.07543631643056870e-02,4.30255591869354248e-01,-9.28830504417419434e-01,2.45621472597122192e-01],"default_left":[true,true,true,true,true,true,true,true,true,true,true,true,true,true,true,false,false,false,false,false,false,false,false,false,false,false,false,false,false,false,false],"id":6,"leaf_child_counts":[0,0,0,0,0,0,0,0,0,0,0,0,0,0,0,0,0,0,0,0,0,0,0,0,0,0,0,0,0,0,0],"left_children":[1,3,5,7,9,11,13,15,17,19,21,23,25,27,29,-1,-1,-1,-1,-1,-1,-1,-1,-1,-1,-1,-1,-1,-1,-1,-1],"loss_changes":[2.20991882324218750e+02,1.46856933593750000e+02,1.96914077758789063e+02,3.14961433410644531e+01,7.86445007324218750e+01,1.70485992431640625e+01,1.52635040283203125e+02,1.49432373046875000e+00,1.30621032714843750e+01,3.10026836395263672e+01,3.32729492187500000e+01,6.88151550292968750e+00,1.07874679565429688e+01,1.04704147338867188e+02,1.58842773437500000e+02,0.00000000000000000e+00,0.00000000000000000e+00,0.00000000000000000e+00,0.00000000000000000e+00,0.00000000000000000e+00,0.00000000000000000e+00,0.00000000000000000e+00,0.00000000000000000e+00,0.00000000000000000e+00,0.00000000000000000e+00,0.00000000000000000e+00,0.00000000000000000e+00,0.00000000000000000e+00,0.00000000000000000e+00,0.00000000000000000e+00,0.00000000000000000e+00],"parents":[2147483647,0,0,1,1,2,2,3,3,4,4,5,5,6,6,7,7,8,8,9,9,10,10,11,11,12,12,13,13,14,14],"right_children":[2,4,6,8,10,12,14,16,18,20,22,24,26,28,30,-1,-1,-1,-1,-1,-1,-1,-1,-1,-1,-1,-1,-1,-1,-1,-1],"split_conditions":[4.75000000000000000e+01,5.65000000000000000e+01,1.25000000000000000e+01,1.46750000000000000e+03,7.59245452880859375e+01,4.42000900000000000e+06,1.55000000000000000e+01,2.05000000000000000e+01,2.35000000000000000e+01,5.25000000000000000e+01,6.36200000000000000e+03,1.18983364105224609e+00,2.13400000000000000e+03,1.06500000000000000e+02,2.42964648437500000e+03,-1.85736522078514099e-01,1.27538749948143959e-02,2.48541787266731262e-01,-7.08387717604637146e-02,-1.67836487293243408e-01,1.33538663387298584e-01,-3.02511662244796753e-01,-8.41522291302680969e-02,-2.68271923065185547e-01,1.44327050074934959e-02,-1.41096293926239014e-01,1.52001008391380310e-01,9.22630913555622101e-03,1.29076689481735229e-01,-2.78649151325225830e-01,7.36864432692527771e-02],"split_indices":[25,30,80,21,41,8,59,63,49,26,22,36,21,28,43,0,0,0,0,0,0,0,0,0,0,0,0,0,0,0,0],"sum_hessian":[4.08418115234375000e+03,6.58732604980468750e+02,3.42544873046875000e+03,1.04633529663085938e+02,5.54099060058593750e+02,2.06588973999023438e+02,3.21885961914062500e+03,1.18697443008422852e+01,9.27637863159179688e+01,1.02321823120117188e+02,4.51777221679687500e+02,1.90249786376953125e+02,1.63391933441162109e+01,2.78308520507812500e+03,4.35774597167968750e+02,1.00291891098022461e+01,1.84055542945861816e+00,8.62576904296875000e+01,6.50609445571899414e+00,3.38396148681640625e+01,6.84822006225585938e+01,3.58951141357421875e+02,9.28260879516601563e+01,1.83734695434570313e+02,6.51509189605712891e+00,5.49673318862915039e+00,1.08424596786499023e+01,1.05640063476562500e+03,1.72668444824218750e+03,2.16199966430664063e+02,2.19574630737304688e+02],"tree_param":{"num_deleted":"0","num_feature":"84","num_nodes":"31","size_leaf_vector":"0"}},{"base_weights":[1.72955188900232315e-02,-3.89155596494674683e-01,1.35094717144966125e-01,-1.01253807544708252e-01,-9.99054729938507080e-01,-3.67674184963107109e-03,5.12228012084960938e-01,-8.06229293346405029e-01,1.02419272065162659e-01,-1.09970915317535400e+00,-2.68517732620239258e-01,-7.63233602046966553e-01,9.67629998922348022e-02,-7.53109395503997803e-01,5.92781484127044678e-01,-8.63352060317993164e-01,-3.91607880592346191e-02,-7.15803563594818115e-01,2.95519888401031494e-01,-4.77333426475524902e-01,-1.21452295780181885e+00,1.32847145199775696e-01,-4.97848927974700928e-01,-4.28832247853279114e-02,-1.14868867397308350e+00,-5.00478260219097137e-02,5.44071316719055176e-01,4.29493188858032227e-02,-1.06438970565795898e+00,-5.41586458683013916e-01,6.42435967922210693e-01],"default_left":[true,true,true,true,true,true,true,true,true,true,true,true,true,true,true,false,false,false,false,false,false,false,false,false,false,false,false,false,false,false,false],"id":7,"leaf_child_counts":[0,0,0,0,0,0,0,0,0,0,0,0,0,0,0,0,0,0,0,0,0,0,0,0,0,0,0,0,0,0,0],"left_children":[1,3,5,7,9,11,13,15,17,19,21,23,25,27,29,-1,-1,-1,-1,-1,-1,-1,-1,-1,-1,-1,-1,-1,-1,-1,-1],"loss_changes":[1.88888137817382813e+02,1.54165420532226563e+02,1.60015930175781250e+02,9.01168975830078125e+01,1.63525695800781250e+01,1.72727615356445313e+02,9.05205993652343750e+01,5.64646911621093750e+00,8.11548385620117188e+01,8.70779418945312500e+00,5.96903371810913086e+00,7.26801757812500000e+01,1.31758529663085938e+02,1.45197238922119141e+01,4.92417297363281250e+01,0.00000000000000000e+00,0.00000000000000000e+00,0.00000000000000000e+00,0.00000000000000000e+00,0.00000000000000000e+00,0.00000000000000000e+00,0.00000000000000000e+00,0.00000000000000000e+00,0.00000000000000000e+00,0.00000000000000000e+00,0.00000000000000000e+00,0.00000000000000000e+00,0.00000000000000000e+00,0.00000000000000000e+00,0.00000000000000000e+00,0.00000000000000000e+00],"parents":[2147483647,0,0,1,1,2,2,3,3,4,4,5,5,6,6,7,7,8,8,9,9,10,10,11,11,12,12,13,13,14,14],"right_children":[2,4,6,8,10,12,14,16,18,20,22,24,26,28,30,-1,-1,-1,-1,-1,-1,-1,-1,-1,-1,-1,-1,-1,-1,-1,-1],"split_conditions":[1.59050000000000000e+03,3.37900000000000000e+03,1.38500000000000000e+02,9.10500000000000000e+02,2.50000000000000000e+00,1.92250000000000000e+03,5.95000000000000000e+01,1.26869845390319824e+00,1.61500000000000000e+02,2.15000000000000000e+01,7.20090000000000000e+04,4.02400000000000000e+03,1.04648388671875000e+04,3.55000000000000000e+01,2.55000000000000000e+01,-2.59005635976791382e-01,-1.17482366040349007e-02,-2.14741080999374390e-01,8.86559709906578064e-02,-1.43200039863586426e-01,-3.64356905221939087e-01,3.98541465401649475e-02,-1.49354681372642517e-01,-1.28649678081274033e-02,-3.44606608152389526e-01,-1.50143485516309738e-02,1.63221403956413269e-01,1.28847965970635414e-02,-3.19316923618316650e-01,-1.62475943565368652e-01,1.92730799317359924e-01],"split_indices":[23,2,52,23,35,22,70,44,61,26,11,3,40,78,69,0,0,0,0,0,0,0,0,0,0,0,0,0,0,0,0],"sum_hessian":[3.91359350585937500e+03,8.71621582031250000e+02,3.04197216796875000e+03,6.03996398925781250e+02,2.67625152587890625e+02,2.23458056640625000e+03,8.07391418457031250e+02,1.25438446044921875e+02,4.78557952880859375e+02,2.28554412841796875e+02,3.90707283020019531e+01,2.49418197631835938e+02,1.98516247558593750e+03,4.08278579711914063e+01,7.66563537597656250e+02,1.14992271423339844e+02,1.04461803436279297e+01,8.36223907470703125e+01,3.94935577392578125e+02,4.76450119018554688e+01,1.80909408569335938e+02,1.65014476776123047e+01,2.25692825317382813e+01,9.27510299682617188e+01,1.56667160034179688e+02,1.50464538574218750e+03,4.80517120361328125e+02,1.51117906570434570e+01,2.57160682678222656e+01,2.59153327941894531e+01,7.40648193359375000e+02],"tree_param":{"num_deleted":"0","num_feature":"84","num_nodes":"31","size_leaf_vector":"0"}},{"base_weights":[6.57728919759392738e-03,-8.31306695938110352e-01,4.99291308224201202e-02,-1.01819646358489990e+00,5.22904336452484131e-01,-9.23250675201416016e-01,8.12258198857307434e-02,3.40155780315399170e-01,-1.14222550392150879e+00,6.71157121658325195e-01,-1.33964061737060547e-01,-1.12915945053100586e+00,4.90424223244190216e-03,-1.68089065700769424e-02,4.85083162784576416e-01,-7.83132016658782959e-02,4.41593319177627563e-01,-1.16623258590698242e+00,8.85578170418739319e-02,-1.94567307829856873e-01,4.98824454843997955e-02,-1.16615247726440430e+00,7.75305628776550293e-02,-3.59243899583816528e-01,3.06878507137298584e-01,4.85892862081527710e-01,-1.13583974540233612e-01,5.89994966983795166e-01,-9.50981229543685913e-02],"default_left":[true,true,true,true,true,true,true,true,true,false,true,true,true,true,true,false,false,false,false,false,false,false,false,false,false,false,false,false,false],"id":8,"leaf_child_counts":[0,0,0,0,0,0,0,0,0,0,0,0,0,0,0,0,0,0,0,0,0,0,0,0,0,0,0,0,0],"left_children":[1,3,5,7,9,11,13,15,17,-1,19,21,23,25,27,-1,-1,-1,-1,-1,-1,-1,-1,-1,-1,-1,-1,-1,-1],"loss_changes":[1.37019561767578125e+02,5.49534149169921875e+01,1.10297653198242188e+02,3.41589660644531250e+01,4.50534915924072266e+00,2.16589279174804688e+01,1.38162277221679688e+02,1.60660171508789063e+00,6.20387268066406250e+00,0.00000000000000000e+00,3.51403146982192993e-01,5.48358917236328125e+00,5.55000352859497070e+00,1.38019271850585938e+02,4.23250579833984375e+01,0.00000000000000000e+00,0.00000000000000000e+00,0.00000000000000000e+00,0.00000000000000000e+00,0.00000000000000000e+00,0.00000000000000000e+00,0.00000000000000000e+00,0.00000000000000000e+00,0.00000000000000000e+00,0.00000000000000000e+00,0.00000000000000000e+00,0.00000000000000000e+00,0.00000000000000000e+00,0.00000000000000000e+00],"parents":[2147483647,0,0,1,1,2,2,3,3,4,4,5,5,6,6,7,7,8,8,10,10,11,11,12,12,13,13,14,14],"right_children":[2,4,6,8,10,12,14,16,18,-1,20,22,24,26,28,-1,-1,-1,-1,-1,-1,-1,-1,-1,-1,-1,-1,-1,-1],"split_conditions":[1.95000000000000000e+01,4.34979150000000000e+06,8.80500000000000000e+02,5.25000000000000000e+01,9.85000000000000000e+01,4.25000000000000000e+01,1.21500000000000000e+02,1.50000000000000000e+00,1.20340000000000000e+04,2.01347142457962036e-01,2.15000000000000000e+01,1.35680000000000000e+04,9.22882318496704102e-01,-6.66794300079345703e-01,3.85000000000000000e+01,-2.34939623624086380e-02,1.32477998733520508e-01,-3.49869787693023682e-01,2.65673454850912094e-02,-5.83701953291893005e-02,1.49647342041134834e-02,-3.49845767021179199e-01,2.32591703534126282e-02,-1.07773177325725555e-01,9.20635536313056946e-02,1.45767867565155029e-01,-3.40751931071281433e-02,1.76998496055603027e-01,-2.85294372588396072e-02],"split_indices":[27,8,20,30,30,69,28,57,22,0,71,8,46,39,62,0,0,0,0,0,0,0,0,0,0,0,0,0,0],"sum_hessian":[3.74002905273437500e+03,1.70576156616210938e+02,3.56945288085937500e+03,1.53160873413085938e+02,1.74152870178222656e+01,9.78945159912109375e+01,3.47155834960937500e+03,1.06278409957885742e+01,1.42533035278320313e+02,1.39422740936279297e+01,3.47301387786865234e+00,7.74614486694335938e+01,2.04330711364746094e+01,2.80502539062500000e+03,6.66532836914062500e+02,2.74073767662048340e+00,7.88710260391235352e+00,1.40577697753906250e+02,1.95532953739166260e+00,1.95414090156555176e+00,1.51887309551239014e+00,7.56462936401367188e+01,1.81515240669250488e+00,7.97333526611328125e+00,1.24597358703613281e+01,4.43085937500000000e+02,2.36193945312500000e+03,5.64248352050781250e+02,1.02284454345703125e+02],"tree_param":{"num_deleted":"0","num_feature":"84","num_nodes":"29","size_leaf_vector":"0"}},{"base_weights":[3.99292120710015297e-03,-3.19788873195648193e-01,9.31447371840476990e-02,-1.39258787035942078e-01,-9.42775547504425049e-01,2.05292388796806335e-01,-2.81286239624023438e-01,1.17452345788478851e-01,-6.03638589382171631e-01,-3.73240895569324493e-02,-1.02268397808074951e+00,-4.35667276382446289e-01,2.91956365108489990e-01,-6.32576942443847656e-01,2.11142227053642273e-01,-5.39801299571990967e-01,4.99242007732391357e-01,-6.99232339859008789e-01,2.89179414510726929e-01,-3.67445290088653564e-01,2.75708317756652832e-01,-1.06131732463836670e+00,1.13188110291957855e-01,3.06248247623443604e-01,-7.89120078086853027e-01,1.91176220774650574e-01,7.60164380073547363e-01,1.99332356452941895e-01,-7.54644989967346191e-01,-7.36179411411285400e-01,4.70192402601242065e-01],"default_left":[true,true,true,true,true,true,true,true,true,true,true,true,true,true,true,false,false,false,false,false,false,false,false,false,false,false,false,false,false,false,false],"id":9,"leaf_child_counts":[0,0,0,0,0,0,0,0,0,0,0,0,0,0,0,0,0,0,0,0,0,0,0,0,0,0,0,0,0,0,0],"left_children":[1,3,5,7,9,11,13,15,17,19,21,23,25,27,29,-1,-1,-1,-1,-1,-1,-1,-1,-1,-1,-1,-1,-1,-1,-1,-1],"loss_changes":[1.06183990478515625e+02,8.73565826416015625e+01,1.21962867736816406e+02,7.65708618164062500e+01,1.21504058837890625e+01,1.25659904479980469e+02,1.18076873779296875e+02,1.09548927307128906e+02,2.24866027832031250e+01,4.60204887390136719e+00,8.86772155761718750e+00,7.47858734130859375e+01,9.08459472656250000e+01,4.24067077636718750e+01,7.65124053955078125e+01,0.00000000000000000e+00,0.00000000000000000e+00,0.00000000000000000e+00,0.00000000000000000e+00,0.00000000000000000e+00,0.00000000000000000e+00,0.00000000000000000e+00,0.00000000000000000e+00,0.00000000000000000e+00,0.00000000000000000e+00,0.00000000000000000e+00,0.00000000000000000e+00,0.00000000000000000e+00,0.00000000000000000e+00,0.00000000000000000e+00,0.00000000000000000e+00],"parents":[2147483647,0,0,1,1,2,2,3,3,4,4,5,5,6,6,7,7,8,8,9,9,10,10,11,11,12,12,13,13,14,14],"right_children":[2,4,6,8,10,12,14,16,18,20,22,24,26,28,30,-1,-1,-1,-1,-1,-1,-1,-1,-1,-1,-1,-1,-1,-1,-1,-1],"split_conditions":[1.59050000000000000e+03,1.45000000000000000e+01,1.35000000000000000e+01,2.45000000000000000e+01,2.05000000000000000e+01,1.75950000000000000e+03,5.02050000000000000e+03,4.92800116539001465e-01,3.50000000000000000e+00,1.50000000000000000e+00,1.33755000000000000e+04,3.50000000000000000e+00,2.19500000000000000e+02,7.95000000000000000e+01,1.79250000000000000e+03,-1.61940395832061768e-01,1.49772614240646362e-01,-2.09769710898399353e-01,8.67538303136825562e-02,-1.10233590006828308e-01,8.27125012874603271e-02,-3.18395197391510010e-01,3.39564345777034760e-02,9.18744802474975586e-02,-2.36736029386520386e-01,5.73528669774532318e-02,2.28049322962760925e-01,5.97997084259986877e-02,-2.26393505930900574e-01,-2.20853835344314575e-01,1.41057729721069336e-01],"split_indices":[23,34,67,62,26,22,23,45,35,58,20,76,61,30,21,0,0,0,0,0,0,0,0,0,0,0,0,0,0,0,0],"sum_hessian":[3.64806958007812500e+03,7.79235412597656250e+02,2.86883398437500000e+03,6.18390319824218750e+02,1.60845108032226563e+02,2.21283349609375000e+03,6.56000671386718750e+02,4.05457702636718750e+02,2.12932601928710938e+02,1.48284626007080078e+01,1.46016632080078125e+02,2.56365936279296875e+02,1.95646752929687500e+03,3.80376770019531250e+02,2.75623870849609375e+02,1.46701660156250000e+02,2.58756042480468750e+02,1.95276748657226563e+02,1.76558475494384766e+01,5.94818401336669922e+00,8.88027858734130859e+00,1.42165847778320313e+02,3.85078835487365723e+00,8.33704299926757813e+01,1.72995513916015625e+02,1.62731762695312500e+03,3.29149810791015625e+02,4.74569778442382813e+01,3.32919799804687500e+02,5.32534637451171875e+01,2.22370422363281250e+02],"tree_param":{"num_deleted":"0","num_feature":"84","num_nodes":"31","size_leaf_vector":"0"}},{"base_weights":[6.32719194982200861e-04,-1.11989676952362061e-01,2.36836507916450500e-01,6.37613177299499512e-01,-1.57605677843093872e-01,-1.88858449459075928e-01,3.27137380838394165e-01,-4.24427032470703125e-01,8.37901711463928223e-01,-6.05305373668670654e-01,-5.48475310206413269e-02,-6.69321119785308838e-01,1.73808231949806213e-01,2.47075840830802917e-01,7.94433176517486572e-01,-6.07074201107025146e-01,3.49443703889846802e-02,6.17473339661955833e-03,9.77868139743804932e-01,-7.41776943206787109e-01,1.79426789283752441e-01,-1.58605054020881653e-01,3.59715610742568970e-01,-8.37177932262420654e-01,-7.53268525004386902e-02,-3.73738944530487061e-01,3.53101909160614014e-01,-1.13732002675533295e-01,4.02689635753631592e-01,-1.61668553948402405e-01,8.74110996723175049e-01],"default_left":[true,true,true,true,true,true,true,true,true,true,true,true,true,true,true,false,false,false,false,false,false,false,false,false,false,false,false,false,false,false,false],"id":10,"leaf_child_counts":[0,0,0,0,0,0,0,0,0,0,0,0,0,0,0,0,0,0,0,0,0,0,0,0,0,0,0,0,0,0,0],"left_children":[1,3,5,7,9,11,13,15,17,19,21,23,25,27,29,-1,-1,-1,-1,-1,-1,-1,-1,-1,-1,-1,-1,-1,-1,-1,-1],"loss_changes":[9.41231460571289063e+01,8.34333114624023438e+01,4.48390197753906250e+01,3.52016181945800781e+01,1.03956527709960938e+02,3.82364997863769531e+01,3.25196075439453125e+01,3.02280521392822266e+00,1.42487030029296875e+01,4.72284240722656250e+01,8.09975967407226563e+01,8.34408950805664063e+00,1.48644447326660156e+01,4.73469696044921875e+01,1.21663970947265625e+01,0.00000000000000000e+00,0.00000000000000000e+00,0.00000000000000000e+00,0.00000000000000000e+00,0.00000000000000000e+00,0.00000000000000000e+00,0.00000000000000000e+00,0.00000000000000000e+00,0.00000000000000000e+00,0.00000000000000000e+00,0.00000000000000000e+00,0.00000000000000000e+00,0.00000000000000000e+00,0.00000000000000000e+00,0.00000000000000000e+00,0.00000000000000000e+00],"parents":[2147483647,0,0,1,1,2,2,3,3,4,4,5,5,6,6,7,7,8,8,9,9,10,10,11,11,12,12,13,13,14,14],"right_children":[2,4,6,8,10,12,14,16,18,20,22,24,26,28,30,-1,-1,-1,-1,-1,-1,-1,-1,-1,-1,-1,-1,-1,-1,-1,-1],"split_conditions":[3.67955803871154785e-01,6.15000000000000000e+01,4.45000000000000000e+01,1.41450000000000000e+03,4.15000000000000000e+01,1.01890397071838379e+00,2.53381518554687500e+03,4.00000000000000000e+01,6.95000000000000000e+01,4.55832300000000000e+06,4.42870410156250000e+03,1.75000000000000000e+01,2.15000000000000000e+01,1.57500000000000000e+02,4.11348632812500000e+02,-1.82122260332107544e-01,1.04833114892244339e-02,1.85242004226893187e-03,2.93360441923141479e-01,-2.22533091902732849e-01,5.38280382752418518e-02,-4.75815199315547943e-02,1.07914686203002930e-01,-2.51153379678726196e-01,-2.25980561226606369e-02,-1.12121686339378357e-01,1.05930574238300323e-01,-3.41196022927761078e-02,1.20806895196437836e-01,-4.85005676746368408e-02,2.62233316898345947e-01],"split_indices":[36,30,79,21,26,45,43,78,31,8,43,33,34,61,42,0,0,0,0,0,0,0,0,0,0,0,0,0,0,0,0],"sum_hessian":[3.50826391601562500e+03,2.38092358398437500e+03,1.12734045410156250e+03,1.25409828186035156e+02,2.25551367187500000e+03,1.94422973632812500e+02,9.32917541503906250e+02,1.72348690032958984e+01,1.08174964904785156e+02,4.07359466552734375e+02,1.84815417480468750e+03,7.81741485595703125e+01,1.16248832702636719e+02,8.16037353515625000e+02,1.16880187988281250e+02,8.88084125518798828e+00,8.35402774810791016e+00,1.78379135131835938e+01,9.03370513916015625e+01,3.47710723876953125e+02,5.96487617492675781e+01,1.48559765625000000e+03,3.62556518554687500e+02,5.61622161865234375e+01,2.20119342803955078e+01,2.46628932952880859e+01,9.15859375000000000e+01,2.47113754272460938e+02,5.68923583984375000e+02,7.80368947982788086e+00,1.09076499938964844e+02],"tree_param":{"num_deleted":"0","num_feature":"84","num_nodes":"31","size_leaf_vector":"0"}},{"base_weights":[1.35247805155813694e-03,-4.17843163013458252e-01,5.39787486195564270e-02,1.95251137018203735e-01,-6.11616134643554688e-01,-9.74463105201721191e-01,7.69798159599304199e-02,-3.82079571485519409e-01,5.23939728736877441e-01,8.06886106729507446e-02,-9.51143205165863037e-01,7.98918306827545166e-02,-1.03079521656036377e+00,3.56341958045959473e-01,-1.79941970854997635e-02,-6.56206130981445313e-01,1.29133105278015137e-01,-2.10574761033058167e-01,6.63163900375366211e-01,3.08435857295989990e-01,-3.84677469730377197e-01,-1.01759898662567139e+00,4.31947521865367889e-02,-2.42233090102672577e-02,1.08460545539855957e-01,-1.06155490875244141e+00,5.45531176030635834e-02,-5.03083586692810059e-01,4.80817854404449463e-01,-1.57038554549217224e-01,4.02500420808792114e-01],"default_left":[true,true,true,true,true,true,true,true,true,true,true,true,true,true,true,false,false,false,false,false,false,false,false,false,false,false,false,false,false,false,false],"id":11,"leaf_child_counts":[0,0,0,0,0,0,0,0,0,0,0,0,0,0,0,0,0,0,0,0,0,0,0,0,0,0,0,0,0,0,0],"left_children":[1,3,5,7,9,11,13,15,17,19,21,23,25,27,29,-1,-1,-1,-1,-1,-1,-1,-1,-1,-1,-1,-1,-1,-1,-1,-1],"loss_changes":[7.63164138793945313e+01,4.76318359375000000e+01,7.38222579956054688e+01,2.27449245452880859e+01,7.09213943481445313e+01,5.29345703125000000e+00,8.02195663452148438e+01,7.77579355239868164e+00,9.52089309692382813e+00,1.35968885421752930e+01,1.38967437744140625e+01,9.11239534616470337e-02,3.07006835937500000e+00,8.56695785522460938e+01,1.33549957275390625e+02,0.00000000000000000e+00,0.00000000000000000e+00,0.00000000000000000e+00,0.00000000000000000e+00,0.00000000000000000e+00,0.00000000000000000e+00,0.00000000000000000e+00,0.00000000000000000e+00,0.00000000000000000e+00,0.00000000000000000e+00,0.00000000000000000e+00,0.00000000000000000e+00,0.00000000000000000e+00,0.00000000000000000e+00,0.00000000000000000e+00,0.00000000000000000e+00],"parents":[2147483647,0,0,1,1,2,2,3,3,4,4,5,5,6,6,7,7,8,8,9,9,10,10,11,11,12,12,13,13,14,14],"right_children":[2,4,6,8,10,12,14,16,18,20,22,24,26,28,30,-1,-1,-1,-1,-1,-1,-1,-1,-1,-1,-1,-1,-1,-1,-1,-1],"split_conditions":[9.15000000000000000e+01,8.05000000000000000e+01,8.97557067871093750e+00,4.16750000000000000e+03,-2.61362522840499878e-01,4.55000000000000000e+01,1.75000000000000000e+01,4.65000000000000000e+01,1.50650000000000000e+03,1.45000000000000000e+01,1.02113260000000000e+07,1.72200000000000000e+03,2.46250891685485840e+00,4.85000000000000000e+01,6.20541601562500000e+03,-1.96861848235130310e-01,3.87399345636367798e-02,-6.31724298000335693e-02,1.98949173092842102e-01,9.25307571887969971e-02,-1.15403242409229279e-01,-3.05279701948165894e-01,1.29584260284900665e-02,-7.26699316874146461e-03,3.25381644070148468e-02,-3.18466484546661377e-01,1.63659360259771347e-02,-1.50925084948539734e-01,1.44245356321334839e-01,-4.71115671098232269e-02,1.20750129222869873e-01],"split_indices":[28,30,41,40,39,24,62,78,21,77,8,22,36,26,40,0,0,0,0,0,0,0,0,0,0,0,0,0,0,0,0],"sum_hessian":[3.42904711914062500e+03,3.70859649658203125e+02,3.05818750000000000e+03,8.90362243652343750e+01,2.81823425292968750e+02,5.33263816833496094e+01,3.00486108398437500e+03,3.14169101715087891e+01,5.76193122863769531e+01,9.64975662231445313e+01,1.85325866699218750e+02,2.38644194602966309e+00,5.09399375915527344e+01,7.51899597167968750e+02,2.25296166992187500e+03,1.76813030242919922e+01,1.37356071472167969e+01,7.95631694793701172e+00,4.96629943847656250e+01,6.81860275268554688e+01,2.83115348815917969e+01,1.73386795043945313e+02,1.19390668869018555e+01,1.00508582592010498e+00,1.38135612010955811e+00,4.98558197021484375e+01,1.08411967754364014e+00,8.93527145385742188e+01,6.62546875000000000e+02,1.70016760253906250e+03,5.52793945312500000e+02],"tree_param":{"num_deleted":"0","num_feature":"84","num_nodes":"31","size_leaf_vector":"0"}},{"base_weights":[-1.21015671174973249e-03,5.56892082095146179e-02,-3.59097450971603394e-01,-3.04508566856384277e-01,1.38536900281906128e-01,-5.79485416412353516e-01,3.37915003299713135e-01,-6.78464233875274658e-01,-9.14722979068756104e-02,2.03875258564949036e-01,-3.12978923320770264e-01,1.41402870416641235e-01,-7.50346064567565918e-01,5.91028511524200439e-01,-2.30134010314941406e-01,-9.26990389823913574e-01,-3.71219694614410400e-01,-5.73823511600494385e-01,1.52854904532432556e-01,-7.45116293430328369e-01,2.36247286200523376e-01,-6.41392827033996582e-01,1.04261577129364014e-01,-4.59584921598434448e-01,4.32741284370422363e-01,-8.04665267467498779e-01,1.06714881956577301e-01,-3.19381982088088989e-01,6.88120841979980469e-01,-5.02974092960357666e-01,3.14275652170181274e-01],"default_left":[true,true,true,true,true,true,true,true,true,true,true,true,true,true,true,false,false,false,false,false,false,false,false,false,false,false,false,false,false,false,false],"id":12,"leaf_child_counts":[0,0,0,0,0,0,0,0,0,0,0,0,0,0,0,0,0,0,0,0,0,0,0,0,0,0,0,0,0,0,0],"left_children":[1,3,5,7,9,11,13,15,17,19,21,23,25,27,29,-1,-1,-1,-1,-1,-1,-1,-1,-1,-1,-1,-1,-1,-1,-1,-1],"loss_changes":[6.87616577148437500e+01,8.75842132568359375e+01,7.40909042358398438e+01,4.28498916625976563e+01,7.11471252441406250e+01,4.56191940307617188e+01,1.94017677307128906e+01,9.88932800292968750e+00,4.46193008422851563e+01,6.67710189819335938e+01,4.30276031494140625e+01,1.71847686767578125e+01,1.48513641357421875e+01,1.10517559051513672e+01,9.50321578979492188e+00,0.00000000000000000e+00,0.00000000000000000e+00,0.00000000000000000e+00,0.00000000000000000e+00,0.00000000000000000e+00,0.00000000000000000e+00,0.00000000000000000e+00,0.00000000000000000e+00,0.00000000000000000e+00,0.00000000000000000e+00,0.00000000000000000e+00,0.00000000000000000e+00,0.00000000000000000e+00,0.00000000000000000e+00,0.00000000000000000e+00,0.00000000000000000e+00],"parents":[2147483647,0,0,1,1,2,2,3,3,4,4,5,5,6,6,7,7,8,8,9,9,10,10,11,11,12,12,13,13,14,14],"right_children":[2,4,6,8,10,12,14,16,18,20,22,24,26,28,30,-1,-1,-1,-1,-1,-1,-1,-1,-1,-1,-1,-1,-1,-1,-1,-1],"split_conditions":[1.75000000000000000e+01,2.25000000000000000e+01,5.88400000000000000e+03,7.37083077430725098e-01,2.45000000000000000e+01,8.05000000000000000e+01,9.95000000000000000e+01,5.95000000000000000e+01,2.75000000000000000e+01,5.00000000000000000e-01,1.94307092285156250e+03,2.40350000000000000e+03,1.08215000000000000e+04,2.30900000000000000e+03,3.35000000000000000e+01,-2.78097122907638550e-01,-1.11365914344787598e-01,-1.72147065401077271e-01,4.58564721047878265e-02,-2.23534896969795227e-01,7.08741918206214905e-02,-1.92417860031127930e-01,3.12784761190414429e-02,-1.37875482439994812e-01,1.29822388291358948e-01,-2.41399586200714111e-01,3.20144668221473694e-02,-9.58146005868911743e-02,2.06436261534690857e-01,-1.50892227888107300e-01,9.42827016115188599e-02],"split_indices":[59,80,23,45,72,30,30,26,79,68,43,21,22,21,79,0,0,0,0,0,0,0,0,0,0,0,0,0,0,0,0],"sum_hessian":[3.34697045898437500e+03,2.89877001953125000e+03,4.48200317382812500e+02,5.34553466796875000e+02,2.36421655273437500e+03,3.42450378417968750e+02,1.05749938964843750e+02,1.82111282348632813e+02,3.52442199707031250e+02,2.07253002929687500e+03,2.91686584472656250e+02,6.61096038818359375e+01,2.76340789794921875e+02,7.27340316772460938e+01,3.30159111022949219e+01,8.39492187500000000e+01,9.81620712280273438e+01,1.11698333740234375e+02,2.40743865966796875e+02,5.74718856811523438e+01,2.01505810546875000e+03,1.58707794189453125e+02,1.32978775024414063e+02,1.87561111450195313e+01,4.73534927368164063e+01,2.60732940673828125e+02,1.56078367233276367e+01,3.69981694221496582e+00,6.90342178344726563e+01,2.27540168762207031e+01,1.02618932723999023e+01],"tree_param":{"num_deleted":"0","num_feature":"84","num_nodes":"31","size_leaf_vector":"0"}},{"base_weights":[-6.21407059952616692e-03,-4.30459350347518921e-01,3.42179611325263977e-02,-8.67932379245758057e-01,-6.15254640579223633e-02,-2.52977907657623291e-01,1.23253114521503448e-01,3.60628068447113037e-02,-1.07053041458129883e+00,-3.30530881881713867e-01,5.62319993972778320e-01,-9.61080044507980347e-02,-9.44553315639495850e-01,-2.71277129650115967e-01,1.89667984843254089e-01,-3.06195467710494995e-01,2.29046553373336792e-01,-5.24232257157564163e-03,-1.11554563045501709e+00,-5.02070903778076172e-01,1.13192878663539886e-01,-2.34393432736396790e-01,7.02722668647766113e-01,-6.43288969993591309e-01,3.40269953012466431e-02,-1.06675422191619873e+00,-2.27218821644783020e-01,1.86797663569450378e-01,-6.56364142894744873e-01,2.73237884044647217e-01,-2.05067276954650879e-01],"default_left":[true,true,true,true,true,true,true,true,true,true,true,true,true,true,true,false,false,false,false,false,false,false,false,false,false,false,false,false,false,false,false],"id":13,"leaf_child_counts":[0,0,0,0,0,0,0,0,0,0,0,0,0,0,0,0,0,0,0,0,0,0,0,0,0,0,0,0,0,0,0],"left_children":[1,3,5,7,9,11,13,15,17,19,21,23,25,27,29,-1,-1,-1,-1,-1,-1,-1,-1,-1,-1,-1,-1,-1,-1,-1,-1],"loss_changes":[5.63111763000488281e+01,4.52990455627441406e+01,7.71626281738281250e+01,2.43024978637695313e+01,3.15010757446289063e+01,7.61753692626953125e+01,6.10284461975097656e+01,3.57684373855590820e+00,5.01007080078125000e+00,1.06710586547851563e+01,8.85822105407714844e+00,4.30005149841308594e+01,7.79881286621093750e+00,6.13760223388671875e+01,6.60618515014648438e+01,0.00000000000000000e+00,0.00000000000000000e+00,0.00000000000000000e+00,0.00000000000000000e+00,0.00000000000000000e+00,0.00000000000000000e+00,0.00000000000000000e+00,0.00000000000000000e+00,0.00000000000000000e+00,0.00000000000000000e+00,0.00000000000000000e+00,0.00000000000000000e+00,0.00000000000000000e+00,0.00000000000000000e+00,0.00000000000000000e+00,0.00000000000000000e+00],"parents":[2147483647,0,0,1,1,2,2,3,3,4,4,5,5,6,6,7,7,8,8,9,9,10,10,11,11,12,12,13,13,14,14],"right_children":[2,4,6,8,10,12,14,16,18,20,22,24,26,28,30,-1,-1,-1,-1,-1,-1,-1,-1,-1,-1,-1,-1,-1,-1,-1,-1],"split_conditions":[7.05000000000000000e+01,2.41450000000000000e+03,1.09802055358886719e+00,8.11050000000000000e+03,8.40800000000000000e+03,1.95000000000000000e+01,1.92150000000000000e+03,2.29950000000000000e+03,3.50000000000000000e+00,4.06100273132324219e-01,2.65000000000000000e+01,1.54500000000000000e+02,5.00000000000000000e-01,3.67900000000000000e+03,1.55000000000000000e+01,-9.18586403131484985e-02,6.87139704823493958e-02,-1.57269684132188559e-03,-3.34663689136505127e-01,-1.50621280074119568e-01,3.39578650891780853e-02,-7.03180357813835144e-02,2.10816815495491028e-01,-1.92986696958541870e-01,1.02080991491675377e-02,-3.20026278495788574e-01,-6.81656524538993835e-02,5.60392998158931732e-02,-1.96909248828887939e-01,8.19713696837425232e-02,-6.15201853215694427e-02],"split_indices":[31,21,47,3,23,34,22,22,70,37,60,61,75,3,73,0,0,0,0,0,0,0,0,0,0,0,0,0,0,0,0],"sum_hessian":[3.25497680664062500e+03,2.70628509521484375e+02,2.98434838867187500e+03,1.14531570434570313e+02,1.56096939086914063e+02,6.99710449218750000e+02,2.28463793945312500e+03,2.32261505126953125e+01,9.13054199218750000e+01,1.13994491577148438e+02,4.21024398803710938e+01,5.84266052246093750e+02,1.15444389343261719e+02,3.22513397216796875e+02,1.96212451171875000e+03,5.20156049728393555e+00,1.80245895385742188e+01,4.38078451156616211e+00,8.69246368408203125e+01,8.07895050048828125e+01,3.32049903869628906e+01,4.80349588394165039e+00,3.72989463806152344e+01,1.00892585754394531e+02,4.83373504638671875e+02,9.23974609375000000e+01,2.30469226837158203e+01,1.50825210571289063e+02,1.71688186645507813e+02,1.62311059570312500e+03,3.39013916015625000e+02],"tree_param":{"num_deleted":"0","num_feature":"84","num_nodes":"31","size_leaf_vector":"0"}},{"base_weights":[-9.69056691974401474e-03,-6.90609872341156006e-01,1.28590157255530357e-02,-8.22394907474517822e-01,3.05996656417846680e-01,-3.71073968708515167e-02,3.54061573743820190e-01,1.19283892214298248e-01,-8.94592702388763428e-01,3.88945579528808594e-01,-8.07805359363555908e-02,4.39579077064990997e-02,-4.09872353076934814e-01,-5.65930724143981934e-01,5.28802394866943359e-01,-1.41323819756507874e-01,2.71831542253494263e-01,-9.23157513141632080e-01,9.91196632385253906e-02,-3.66127043962478638e-01,1.02545998990535736e-01,-7.93801128864288330e-01,2.77172863483428955e-01,-7.18598127365112305e-01,1.48986950516700745e-01,-2.94470310211181641e-01,6.68159544467926025e-01],"default_left":[true,true,true,true,true,true,true,true,true,false,false,true,true,true,true,false,false,false,false,false,false,false,false,false,false,false,false],"id":14,"leaf_child_counts":[0,0,0,0,0,0,0,0,0,0,0,0,0,0,0,0,0,0,0,0,0,0,0,0,0,0,0],"left_children":[1,3,5,7,9,11,13,15,17,-1,-1,19,21,23,25,-1,-1,-1,-1,-1,-1,-1,-1,-1,-1,-1,-1],"loss_changes":[4.92187690734863281e+01,1.72694549560546875e+01,5.32027893066406250e+01,8.04691314697265625e+00,1.20701837539672852e+00,8.26307678222656250e+01,6.85623779296875000e+01,1.37083017826080322e+00,3.92235565185546875e+00,0.00000000000000000e+00,0.00000000000000000e+00,5.46752090454101563e+01,1.32101745605468750e+02,9.34039878845214844e+00,4.22689819335937500e+01,0.00000000000000000e+00,0.00000000000000000e+00,0.00000000000000000e+00,0.00000000000000000e+00,0.00000000000000000e+00,0.00000000000000000e+00,0.00000000000000000e+00,0.00000000000000000e+00,0.00000000000000000e+00,0.00000000000000000e+00,0.00000000000000000e+00,0.00000000000000000e+00],"parents":[2147483647,0,0,1,1,2,2,3,3,4,4,5,5,6,6,7,7,8,8,11,11,12,12,13,13,14,14],"right_children":[2,4,6,8,10,12,14,16,18,-1,-1,20,22,24,26,-1,-1,-1,-1,-1,-1,-1,-1,-1,-1,-1,-1],"split_conditions":[1.75000000000000000e+01,4.58529450000000000e+06,6.01140185546875000e+03,4.85000000000000000e+01,9.85000000000000000e+01,2.25000000000000000e+01,1.33350000000000000e+03,4.45000000000000000e+01,1.42500000000000000e+02,1.16683676838874817e-01,-2.42341626435518265e-02,2.45000000000000000e+01,1.80500000000000000e+02,1.02165818214416504e+00,2.95000000000000000e+01,-4.23971489071846008e-02,8.15494656562805176e-02,-2.76947259902954102e-01,2.97359004616737366e-02,-1.09838120639324188e-01,3.07638011872768402e-02,-2.38140344619750977e-01,8.31518620252609253e-02,-2.15579450130462646e-01,4.46960851550102234e-02,-8.83410945534706116e-02,2.00447872281074524e-01],"split_indices":[27,8,42,30,30,77,21,25,80,0,0,69,61,45,62,0,0,0,0,0,0,0,0,0,0,0,0],"sum_hessian":[3.18183032226562500e+03,8.77480773925781250e+01,3.09408227539062500e+03,7.98158035278320313e+01,7.93226957321166992e+00,2.71051708984375000e+03,3.83565093994140625e+02,4.98702955245971680e+00,7.48287734985351563e+01,6.46226644515991211e+00,1.47000312805175781e+00,2.23721948242187500e+03,4.73297668457031250e+02,5.58644218444824219e+01,3.27700683593750000e+02,2.24883198738098145e+00,2.73819756507873535e+00,7.37731475830078125e+01,1.05563068389892578e+00,2.69828491210937500e+02,1.96739099121093750e+03,3.02132019042968750e+02,1.71165634155273438e+02,4.59704246520996094e+01,9.89399719238281250e+00,4.50232582092285156e+01,2.82677429199218750e+02],"tree_param":{"num_deleted":"0","num_feature":"84","num_nodes":"27","size_leaf_vector":"0"}},{"base_weights":[-9.14218183606863022e-03,-7.99530804157257080e-01,8.78444686532020569e-03,-8.86288166046142578e-01,4.60541397333145142e-02,-3.68773609399795532e-01,5.05419671535491943e-02,-9.41492199897766113e-01,7.19059910625219345e-03,-1.12392127513885498e-01,1.67476251721382141e-01,-6.41273677349090576e-01,1.06438308954238892e-01,2.43017792701721191e-01,-7.41388201713562012e-02,-9.88820910453796387e-01,-1.57056953758001328e-02,1.59592449665069580e-01,-1.62218093872070313e-01,-1.64796963334083557e-01,4.79437075555324554e-02,1.93877875804901123e-01,-7.59186923503875732e-01,3.11475574970245361e-01,-5.57939469814300537e-01,2.41554379463195801e-02,4.09050554037094116e-01,1.20562836527824402e-01,-2.28647053241729736e-01],"default_left":[true,true,true,true,true,true,true,true,true,true,false,true,true,true,true,false,false,false,false,false,false,false,false,false,false,false,false,false,false],"id":15,"leaf_child_counts":[0,0,0,0,0,0,0,0,0,0,0,0,0,0,0,0,0,0,0,0,0,0,0,0,0,0,0,0,0],"left_children":[1,3,5,7,9,11,13,15,17,19,-1,21,23,25,27,-1,-1,-1,-1,-1,-1,-1,-1,-1,-1,-1,-1,-1,-1],"loss_changes":[4.44242210388183594e+01,5.71319961547851563e+00,4.87335510253906250e+01,3.24854660034179688e+00,6.81152820587158203e-01,4.08911209106445313e+01,6.69962234497070313e+01,2.40496444702148438e+00,8.68524789810180664e-01,2.69502252340316772e-01,0.00000000000000000e+00,2.16864166259765625e+01,1.96434326171875000e+01,3.96992568969726563e+01,5.15217323303222656e+01,0.00000000000000000e+00,0.00000000000000000e+00,0.00000000000000000e+00,0.00000000000000000e+00,0.00000000000000000e+00,0.00000000000000000e+00,0.00000000000000000e+00,0.00000000000000000e+00,0.00000000000000000e+00,0.00000000000000000e+00,0.00000000000000000e+00,0.00000000000000000e+00,0.00000000000000000e+00,0.00000000000000000e+00],"parents":[2147483647,0,0,1,1,2,2,3,3,4,4,5,5,6,6,7,7,8,8,9,9,11,11,12,12,13,13,14,14],"right_children":[2,4,6,8,10,12,14,16,18,20,-1,22,24,26,28,-1,-1,-1,-1,-1,-1,-1,-1,-1,-1,-1,-1,-1,-1],"split_conditions":[2.65150000000000000e+03,1.14451980590820313e+00,3.25000000000000000e+01,5.90000000000000000e+01,2.25287377834320068e-01,6.71589941406250000e+03,2.95000000000000000e+01,6.75000000000000000e+01,1.25663900375366211e+00,1.50000000000000000e+00,5.02428784966468811e-02,8.05000000000000000e+01,1.45500000000000000e+02,1.22642850875854492e+00,3.45000000000000000e+01,-2.96646296977996826e-01,-4.71170898526906967e-03,4.78777363896369934e-02,-4.86654303967952728e-02,-4.94390912353992462e-02,1.43831130117177963e-02,5.81633634865283966e-02,-2.27756083011627197e-01,9.34426784515380859e-02,-1.67381852865219116e-01,7.24663166329264641e-03,1.22715167701244354e-01,3.61688509583473206e-02,-6.85941204428672791e-02],"split_indices":[9,36,52,51,45,43,51,78,47,67,0,30,35,47,53,0,0,0,0,0,0,0,0,0,0,0,0,0,0],"sum_hessian":[3.11287475585937500e+03,5.45322952270507813e+01,3.05834252929687500e+03,4.88030395507812500e+01,5.72925519943237305e+00,2.92866668701171875e+02,2.76547583007812500e+03,4.52040252685546875e+01,3.59901523590087891e+00,2.96963858604431152e+00,2.75961637496948242e+00,1.82801406860351563e+02,1.10065254211425781e+02,1.08156860351562500e+03,1.68390722656250000e+03,4.20338325500488281e+01,3.17019343376159668e+00,2.35215449333190918e+00,1.24686098098754883e+00,1.92357492446899414e+00,1.04606366157531738e+00,2.14206142425537109e+01,1.61380783081054688e+02,9.01967849731445313e+01,1.98684692382812500e+01,4.73969757080078125e+02,6.07598876953125000e+02,7.46504333496093750e+02,9.37402893066406250e+02],"tree_param":{"num_deleted":"0","num_feature":"84","num_nodes":"29","size_leaf_vector":"0"}},{"base_weights":[-8.35306569933891296e-03,-2.78581649065017700e-01,4.06217873096466064e-02,5.70523925125598907e-02,-5.03932476043701172e-01,-5.16279220581054688e-01,7.46972784399986267e-02,-1.94523751735687256e-01,3.75017315149307251e-01,-6.65303289890289307e-01,-1.41763627529144287e-01,-6.25997245311737061e-01,2.70455360412597656e-01,4.92351680994033813e-01,3.90045382082462311e-02,2.73305147886276245e-01,-7.98681259155273438e-01,4.88231420516967773e-01,-9.03157666325569153e-02,-9.48617041110992432e-01,-2.97383517026901245e-01,-3.76740217208862305e-01,2.02494084835052490e-01,-7.76752173900604248e-01,-1.77147574722766876e-02,4.21349346637725830e-01,-1.09098017215728760e-01,-4.19867873191833496e-01,7.89219439029693604e-01,3.11834067106246948e-01,-4.49737943708896637e-02],"default_left":[true,true,true,true,true,true,true,true,true,true,true,true,true,true,true,false,false,false,false,false,false,false,false,false,false,false,false,false,false,false,false],"id":16,"leaf_child_counts":[0,0,0,0,0,0,0,0,0,0,0,0,0,0,0,0,0,0,0,0,0,0,0,0,0,0,0,0,0,0,0],"left_children":[1,3,5,7,9,11,13,15,17,19,21,23,25,27,29,-1,-1,-1,-1,-1,-1,-1,-1,-1,-1,-1,-1,-1,-1,-1,-1],"loss_changes":[4.09727287292480469e+01,3.63538246154785156e+01,5.03572463989257813e+01,1.74336585998535156e+01,1.52814865112304688e+01,1.57589836120605469e+01,3.67565498352050781e+01,3.82972640991210938e+01,5.68464088439941406e+00,1.59449539184570313e+01,9.80931091308593750e+00,1.25335006713867188e+01,2.36292767524719238e+00,5.76043853759765625e+01,5.30369110107421875e+01,0.00000000000000000e+00,0.00000000000000000e+00,0.00000000000000000e+00,0.00000000000000000e+00,0.00000000000000000e+00,0.00000000000000000e+00,0.00000000000000000e+00,0.00000000000000000e+00,0.00000000000000000e+00,0.00000000000000000e+00,0.00000000000000000e+00,0.00000000000000000e+00,0.00000000000000000e+00,0.00000000000000000e+00,0.00000000000000000e+00,0.00000000000000000e+00],"parents":[2147483647,0,0,1,1,2,2,3,3,4,4,5,5,6,6,7,7,8,8,9,9,10,10,11,11,12,12,13,13,14,14],"right_children":[2,4,6,8,10,12,14,16,18,20,22,24,26,28,30,-1,-1,-1,-1,-1,-1,-1,-1,-1,-1,-1,-1,-1,-1,-1,-1],"split_conditions":[4.75000000000000000e+01,6.50000000000000000e+00,6.50000000000000000e+00,2.72300000000000000e+03,3.14900000000000000e+03,5.85000000000000000e+01,7.95000000000000000e+01,1.16500000000000000e+03,4.25000000000000000e+01,5.65000000000000000e+01,5.55000000000000000e+01,7.07589387893676758e-01,2.50000000000000000e+00,9.57351684570312500e-01,1.75000000000000000e+01,8.19915458559989929e-02,-2.39604383707046509e-01,1.46469429135322571e-01,-2.70947311073541641e-02,-2.84585118293762207e-01,-8.92150551080703735e-02,-1.13022066652774811e-01,6.07482269406318665e-02,-2.33025655150413513e-01,-5.31442742794752121e-03,1.26404806971549988e-01,-3.27294059097766876e-02,-1.25960364937782288e-01,2.36765846610069275e-01,9.35502201318740845e-02,-1.34921390563249588e-02],"split_indices":[25,67,60,22,21,51,30,21,53,79,35,36,55,45,62,0,0,0,0,0,0,0,0,0,0,0,0,0,0,0,0],"sum_hessian":[3.06809912109375000e+03,4.59943664550781250e+02,2.60815551757812500e+03,1.89262084960937500e+02,2.70681579589843750e+02,1.38146163940429688e+02,2.47000927734375000e+03,1.08912811279296875e+02,8.03492736816406250e+01,1.78564163208007813e+02,9.21174163818359375e+01,1.23927825927734375e+02,1.42183389663696289e+01,1.79358200073242188e+02,2.29065112304687500e+03,6.60113601684570313e+01,4.29014587402343750e+01,6.40322875976562500e+01,1.63169860839843750e+01,8.75059814453125000e+01,9.10581817626953125e+01,5.39071922302246094e+01,3.82102241516113281e+01,9.59848403930664063e+01,2.79429912567138672e+01,8.99180603027343750e+00,5.22653341293334961e+00,4.25119552612304688e+01,1.36846237182617188e+02,5.29548950195312500e+02,1.76110217285156250e+03],"tree_param":{"num_deleted":"0","num_feature":"84","num_nodes":"31","size_leaf_vector":"0"}},{"base_weights":[-7.65645736828446388e-03,-5.93449294567108154e-01,1.43845193088054657e-02,-6.93375587463378906e-01,2.16971889138221741e-01,-2.13866624981164932e-02,4.26806956529617310e-01,-8.54740262031555176e-01,-3.09489779174327850e-02,-1.89489498734474182e-01,4.36189383268356323e-01,2.29661613702774048e-02,-4.92984116077423096e-01,-7.06502258777618408e-01,6.67937397956848145e-01,1.68668821454048157e-01,-9.10716116428375244e-01,-2.61687994003295898e-01,2.77790009975433350e-01,-2.15504124760627747e-01,1.49720488116145134e-02,-3.32338139414787292e-02,4.89700675010681152e-01,-6.08757555484771729e-01,4.97931651771068573e-02,-8.37721943855285645e-01,-1.90737694501876831e-01,-8.01282405853271484e-01,1.36996462941169739e-01,-7.22786486148834229e-02,8.16198945045471191e-01],"default_left":[true,true,true,true,true,true,true,true,true,true,true,true,true,true,true,false,false,false,false,false,false,false,false,false,false,false,false,false,false,false,false],"id":17,"leaf_child_counts":[0,0,0,0,0,0,0,0,0,0,0,0,0,0,0,0,0,0,0,0,0,0,0,0,0,0,0,0,0,0,0],"left_children":[1,3,5,7,9,11,13,15,17,19,21,23,25,27,29,-1,-1,-1,-1,-1,-1,-1,-1,-1,-1,-1,-1,-1,-1,-1,-1],"loss_changes":[3.93607826232910156e+01,1.12083740234375000e+01,4.35554313659667969e+01,1.05041618347167969e+01,3.33894181251525879e+00,5.71145401000976563e+01,7.14640884399414063e+01,6.96959304809570313e+00,3.62218880653381348e+00,1.47923350334167480e-01,7.42669105529785156e-01,4.28695106506347656e+01,2.20578765869140625e+01,5.53395271301269531e+00,2.30516281127929688e+01,0.00000000000000000e+00,0.00000000000000000e+00,0.00000000000000000e+00,0.00000000000000000e+00,0.00000000000000000e+00,0.00000000000000000e+00,0.00000000000000000e+00,0.00000000000000000e+00,0.00000000000000000e+00,0.00000000000000000e+00,0.00000000000000000e+00,0.00000000000000000e+00,0.00000000000000000e+00,0.00000000000000000e+00,0.00000000000000000e+00,0.00000000000000000e+00],"parents":[2147483647,0,0,1,1,2,2,3,3,4,4,5,5,6,6,7,7,8,8,9,9,10,10,11,11,12,12,13,13,14,14],"right_children":[2,4,6,8,10,12,14,16,18,20,22,24,26,28,30,-1,-1,-1,-1,-1,-1,-1,-1,-1,-1,-1,-1,-1,-1,-1,-1],"split_conditions":[8.45000000000000000e+01,5.85000000000000000e+01,4.32045800000000000e+06,2.05000000000000000e+01,1.11200000000000000e+03,1.05500000000000000e+02,2.48750000000000000e+03,7.30000000000000000e+01,2.22562300000000000e+06,1.39665627479553223e+00,1.01500000000000000e+02,2.15000000000000000e+01,1.11531162261962891e+00,1.74768650531768799e+00,1.92650000000000000e+03,5.06006479263305664e-02,-2.73214846849441528e-01,-7.85064026713371277e-02,8.33370089530944824e-02,-6.46512433886528015e-02,4.49161464348435402e-03,-9.97014436870813370e-03,1.46910205483436584e-01,-1.82627275586128235e-01,1.49379502981901169e-02,-2.51316606998443604e-01,-5.72213120758533478e-02,-2.40384727716445923e-01,4.10989411175251007e-02,-2.16835960745811462e-02,2.44859695434570313e-01],"split_indices":[28,27,8,33,21,32,22,29,10,44,29,27,46,47,21,0,0,0,0,0,0,0,0,0,0,0,0,0,0,0,0],"sum_hessian":[3.02360107421875000e+03,9.55392608642578125e+01,2.92806176757812500e+03,8.69807739257812500e+01,8.55848598480224609e+00,2.70745458984375000e+03,2.20607086181640625e+02,6.64411849975585938e+01,2.05395889282226563e+01,3.71131205558776855e+00,4.84717416763305664e+00,2.48775561523437500e+03,2.19699066162109375e+02,3.36242485046386719e+01,1.86982833862304688e+02,1.87949991226196289e+00,6.45616836547851563e+01,1.30628814697265625e+01,7.47670698165893555e+00,2.57372379302978516e+00,1.13758838176727295e+00,1.07765090465545654e+00,3.76952314376831055e+00,8.80874710083007813e+01,2.39966796875000000e+03,9.02203140258789063e+01,1.29478759765625000e+02,3.09025993347167969e+01,2.72165107727050781e+00,3.24849014282226563e+01,1.54497940063476563e+02],"tree_param":{"num_deleted":"0","num_feature":"84","num_nodes":"31","size_leaf_vector":"0"}},{"base_weights":[-8.17009806632995605e-03,-8.44355165958404541e-01,5.92004461213946342e-03,-9.56133723258972168e-01,1.26782208681106567e-01,-4.35868501663208008e-02,2.59027987718582153e-01,1.48556679487228394e-02,-1.00394892692565918e+00,1.52149453759193420e-01,-1.86792556196451187e-02,2.59243309497833252e-01,-1.02980777621269226e-01,3.42411607503890991e-01,-3.54193568229675293e-01,-1.68761432170867920e-01,4.49734985828399658e-01,-1.72489821910858154e-01,1.54908552765846252e-01,-3.36991846561431885e-01,4.07352954149246216e-01,-7.76437163352966309e-01,1.11849486827850342e-01],"default_left":[true,true,true,true,true,true,true,false,false,false,false,true,true,true,true,false,false,false,false,false,false,false,false],"id":18,"leaf_child_counts":[0,0,0,0,0,0,0,0,0,0,0,0,0,0,0,0,0,0,0,0,0,0,0],"left_children":[1,3,5,7,9,11,13,-1,-1,-1,-1,15,17,19,21,-1,-1,-1,-1,-1,-1,-1,-1],"loss_changes":[3.54179992675781250e+01,7.22576141357421875e+00,3.73218116760253906e+01,2.37929534912109375e+00,1.10473006963729858e-01,4.52352867126464844e+01,2.67318420410156250e+01,0.00000000000000000e+00,0.00000000000000000e+00,0.00000000000000000e+00,0.00000000000000000e+00,3.48106613159179688e+01,3.79501457214355469e+01,2.13191299438476563e+01,1.42299556732177734e+01,0.00000000000000000e+00,0.00000000000000000e+00,0.00000000000000000e+00,0.00000000000000000e+00,0.00000000000000000e+00,0.00000000000000000e+00,0.00000000000000000e+00,0.00000000000000000e+00],"parents":[2147483647,0,0,1,1,2,2,3,3,4,4,5,5,6,6,11,11,12,12,13,13,14,14],"right_children":[2,4,6,8,10,12,14,-1,-1,-1,-1,16,18,20,22,-1,-1,-1,-1,-1,-1,-1,-1],"split_conditions":[3.95600000000000000e+03,1.55000000000000000e+01,1.22500000000000000e+02,-1.08347856998443604e+00,7.80000000000000000e+01,-6.56509399414062500e-01,2.04102000000000000e+05,4.45670075714588165e-03,-3.01184684038162231e-01,4.56448383629322052e-02,-5.60377677902579308e-03,6.00750000000000000e+03,4.29865136718750000e+03,7.82862901687622070e-01,6.50000000000000000e+00,-5.06284311413764954e-02,1.34920507669448853e-01,-5.17469495534896851e-02,4.64725680649280548e-02,-1.01097561419010162e-01,1.22205890715122223e-01,-2.32931151986122131e-01,3.35548482835292816e-02],"split_indices":[8,81,28,37,25,39,10,0,0,0,0,0,42,47,33,0,0,0,0,0,0,0,0],"sum_hessian":[2.98475537109375000e+03,3.48142013549804688e+01,2.94994116210937500e+03,3.14285030364990234e+01,3.38569712638854980e+00,2.47772485351562500e+03,4.72216156005859375e+02,1.96028816699981689e+00,2.94682140350341797e+01,2.29568266868591309e+00,1.09001433849334717e+00,3.97996917724609375e+02,2.07972802734375000e+03,4.21523254394531250e+02,5.06929054260253906e+01,1.23106704711914063e+02,2.74890228271484375e+02,1.64209936523437500e+03,4.37628692626953125e+02,3.12940139770507813e+01,3.90229217529296875e+02,2.13547782897949219e+01,2.93381271362304688e+01],"tree_param":{"num_deleted":"0","num_feature":"84","num_nodes":"23","size_leaf_vector":"0"}},{"base_weights":[-6.95536239072680473e-03,2.51148864626884460e-02,-3.94280552864074707e-01,-2.40809008479118347e-01,6.91753700375556946e-02,-7.70310521125793457e-01,-2.33505561947822571e-01,7.17414245009422302e-02,-5.18440306186676025e-01,-6.34505212306976318e-01,8.83899480104446411e-02,-1.20176889002323151e-01,-9.51663374900817871e-01,1.14933274686336517e-01,-5.10118782520294189e-01,-3.39552581310272217e-01,3.38456958532333374e-01,-7.63337194919586182e-01,-1.48162364959716797e-01,-8.61427366733551025e-01,1.35301291942596436e-01,4.34119477868080139e-02,3.95100533962249756e-01,1.73408254981040955e-01,-3.41565012931823730e-01,-9.73335087299346924e-01,-1.33112492039799690e-03,3.63563120365142822e-01,-4.09211903810501099e-01,-7.04573094844818115e-01,4.85140718519687653e-02],"default_left":[true,true,true,true,true,true,true,true,true,true,true,true,true,true,true,false,false,false,false,false,false,false,false,false,false,false,false,false,false,false,false],"id":19,"leaf_child_counts":[0,0,0,0,0,0,0,0,0,0,0,0,0,0,0,0,0,0,0,0,0,0,0,0,0,0,0,0,0,0,0],"left_children":[1,3,5,7,9,11,13,15,17,19,21,23,25,27,29,-1,-1,-1,-1,-1,-1,-1,-1,-1,-1,-1,-1,-1,-1,-1,-1],"loss_changes":[3.68916969299316406e+01,3.24229888916015625e+01,1.10309333801269531e+01,3.47159767150878906e+01,3.28488922119140625e+01,5.53430557250976563e+00,1.82862434387207031e+01,2.34829750061035156e+01,1.73727226257324219e+01,1.30602817535400391e+01,3.17133064270019531e+01,2.87598991394042969e+00,9.26097869873046875e-01,1.42424707412719727e+01,1.17487277984619141e+01,0.00000000000000000e+00,0.00000000000000000e+00,0.00000000000000000e+00,0.00000000000000000e+00,0.00000000000000000e+00,0.00000000000000000e+00,0.00000000000000000e+00,0.00000000000000000e+00,0.00000000000000000e+00,0.00000000000000000e+00,0.00000000000000000e+00,0.00000000000000000e+00,0.00000000000000000e+00,0.00000000000000000e+00,0.00000000000000000e+00,0.00000000000000000e+00],"parents":[2147483647,0,0,1,1,2,2,3,3,4,4,5,5,6,6,7,7,8,8,9,9,10,10,11,11,12,12,13,13,14,14],"right_children":[2,4,6,8,10,12,14,16,18,20,22,24,26,28,30,-1,-1,-1,-1,-1,-1,-1,-1,-1,-1,-1,-1,-1,-1,-1,-1],"split_conditions":[1.35000000000000000e+01,5.00000000000000000e-01,1.38850000000000000e+03,1.74550000000000000e+03,9.58500000000000000e+02,2.35000000000000000e+01,1.15000000000000000e+01,1.23450000000000000e+03,1.84500000000000000e+02,7.71875441074371338e-01,7.85000000000000000e+01,3.50000000000000000e+00,1.35628151893615723e+00,2.45000000000000000e+01,3.87344360351562500e-01,-1.01865775883197784e-01,1.01537093520164490e-01,-2.29001164436340332e-01,-4.44487109780311584e-02,-2.58428215980529785e-01,4.05903905630111694e-02,1.30235850811004639e-02,1.18530161678791046e-01,5.20224794745445251e-02,-1.02469511330127716e-01,-2.92000532150268555e-01,-3.99337499402463436e-04,1.09068937599658966e-01,-1.22763574123382568e-01,-2.11371943354606628e-01,1.45542221143841743e-02],"split_indices":[66,35,21,20,20,34,76,0,79,45,24,75,36,68,39,0,0,0,0,0,0,0,0,0,0,0,0,0,0,0,0],"sum_hessian":[2.94300195312500000e+03,2.73091186523437500e+03,2.12090164184570313e+02,3.78645080566406250e+02,2.35226660156250000e+03,4.64894409179687500e+01,1.65600723266601563e+02,1.83353820800781250e+02,1.95291275024414063e+02,4.97561073303222656e+01,2.30251049804687500e+03,1.55792531967163086e+01,3.09101867675781250e+01,7.71656494140625000e+01,8.84350814819335938e+01,7.05163421630859375e+01,1.12837478637695313e+02,1.07963058471679688e+02,8.73282089233398438e+01,3.70494613647460938e+01,1.27066469192504883e+01,2.02297216796875000e+03,2.79538421630859375e+02,8.09509849548339844e+00,7.48415422439575195e+00,2.98660373687744141e+01,1.04415023326873779e+00,5.54556388854980469e+01,2.17100086212158203e+01,6.26934547424316406e+01,2.57416248321533203e+01],"tree_param":{"num_deleted":"0","num_feature":"84","num_nodes":"31","size_leaf_vector":"0"}},{"base_weights":[-9.64832026511430740e-03,1.81037057191133499e-02,-3.63662391901016235e-01,-4.19806867837905884e-01,4.75689023733139038e-02,-5.77497363090515137e-01,1.52852699160575867e-01,-6.61341547966003418e-01,5.84674850106239319e-02,8.36263447999954224e-02,-3.67838203907012939e-01,-1.52939707040786743e-01,-7.51252532005310059e-01,-2.08792909979820251e-01,6.55045330524444580e-01,-7.43503928184509277e-01,6.98615610599517822e-02,-2.71113455295562744e-01,2.28873044252395630e-01,-5.05419671535491943e-01,1.07243627309799194e-01,1.62426784634590149e-01,-6.01551711559295654e-01,2.47182622551918030e-01,-5.31326651573181152e-01,-8.93892407417297363e-01,-3.19512635469436646e-02,-4.30124759674072266e-01,1.84656396508216858e-01,-1.83008655905723572e-01,7.99843132495880127e-01],"default_left":[true,true,true,true,true,true,true,true,true,true,true,true,true,true,true,false,false,false,false,false,false,false,false,false,false,false,false,false,false,false,false],"id":20,"leaf_child_counts":[0,0,0,0,0,0,0,0,0,0,0,0,0,0,0,0,0,0,0,0,0,0,0,0,0,0,0,0,0,0,0],"left_children":[1,3,5,7,9,11,13,15,17,19,21,23,25,27,29,-1,-1,-1,-1,-1,-1,-1,-1,-1,-1,-1,-1,-1,-1,-1,-1],"loss_changes":[2.87787017822265625e+01,3.54125061035156250e+01,2.48407344818115234e+01,2.05749397277832031e+01,3.88542022705078125e+01,9.61624526977539063e+00,1.55274095535278320e+01,7.76163864135742188e+00,4.96667337417602539e+00,3.37933578491210938e+01,2.71804466247558594e+01,1.15802831649780273e+01,1.03696517944335938e+01,5.93831825256347656e+00,6.40516567230224609e+00,0.00000000000000000e+00,0.00000000000000000e+00,0.00000000000000000e+00,0.00000000000000000e+00,0.00000000000000000e+00,0.00000000000000000e+00,0.00000000000000000e+00,0.00000000000000000e+00,0.00000000000000000e+00,0.00000000000000000e+00,0.00000000000000000e+00,0.00000000000000000e+00,0.00000000000000000e+00,0.00000000000000000e+00,0.00000000000000000e+00,0.00000000000000000e+00],"parents":[2147483647,0,0,1,1,2,2,3,3,4,4,5,5,6,6,7,7,8,8,9,9,10,10,11,11,12,12,13,13,14,14],"right_children":[2,4,6,8,10,12,14,16,18,20,22,24,26,28,30,-1,-1,-1,-1,-1,-1,-1,-1,-1,-1,-1,-1,-1,-1,-1,-1],"split_conditions":[5.95000000000000000e+01,5.65000000000000000e+01,5.71100000000000000e+03,1.55000000000000000e+01,5.85000000000000000e+01,1.31700000000000000e+03,3.54500000000000000e+03,7.10272073745727539e-01,9.22642827033996582e-01,5.00000000000000000e-01,1.15500000000000000e+03,5.42600000000000000e+03,2.25000000000000000e+01,3.12721192836761475e-01,4.30800000000000000e+03,-2.23051190376281738e-01,2.09584683179855347e-02,-8.13340395689010620e-02,6.86619132757186890e-02,-1.51625901460647583e-01,3.21730896830558777e-02,4.87280376255512238e-02,-1.80465519428253174e-01,7.41547867655754089e-02,-1.59398004412651062e-01,-2.68167734146118164e-01,-9.58537962287664413e-03,-1.29037439823150635e-01,5.53969219326972961e-02,-5.49025982618331909e-02,2.39952951669692993e-01],"split_indices":[62,61,22,76,60,21,21,37,44,72,21,0,50,36,20,0,0,0,0,0,0,0,0,0,0,0,0,0,0,0,0],"sum_hessian":[2.90419531250000000e+03,2.70627661132812500e+03,1.97918685913085938e+02,1.58086608886718750e+02,2.54818994140625000e+03,1.38718765258789063e+02,5.91999282836914063e+01,1.01225128173828125e+02,5.68614768981933594e+01,2.35569531250000000e+03,1.92494628906250000e+02,4.84755210876464844e+01,9.02432403564453125e+01,3.95105972290039063e+01,1.96893310546875000e+01,9.07729873657226563e+01,1.04521389007568359e+01,1.63582286834716797e+01,4.05032463073730469e+01,7.90125274658203125e+01,2.27668286132812500e+03,6.02868957519531250e+01,1.32207733154296875e+02,2.60890541076660156e+01,2.23864669799804688e+01,7.22708435058593750e+01,1.79724006652832031e+01,2.43912582397460938e+01,1.51193408966064453e+01,2.31754899024963379e+00,1.73717823028564453e+01],"tree_param":{"num_deleted":"0","num_feature":"84","num_nodes":"31","size_leaf_vector":"0"}},{"base_weights":[-1.10402526333928108e-02,-6.99980616569519043e-01,1.66345608886331320e-03,5.17348051071166992e-02,-7.42104828357696533e-01,2.05865502357482910e-02,-4.72525238990783691e-01,5.81211298704147339e-02,-2.47057378292083740e-01,-6.71444952487945557e-01,5.33931702375411987e-02,7.72979557514190674e-02,-4.73426908254623413e-01,-7.70952224731445313e-01,-9.32830199599266052e-02,7.58729204535484314e-02,-8.35836231708526611e-01,2.53749489784240723e-01,-2.53930687904357910e-01],"default_left":[true,true,true,false,false,true,true,true,true,true,true,false,false,false,false,false,false,false,false],"id":21,"leaf_child_counts":[0,0,0,0,0,0,0,0,0,0,0,0,0,0,0,0,0,0,0],"left_children":[1,3,5,-1,-1,7,9,11,13,15,17,-1,-1,-1,-1,-1,-1,-1,-1],"loss_changes":[2.52422618865966797e+01,2.22941207885742188e+00,2.56737556457519531e+01,0.00000000000000000e+00,0.00000000000000000e+00,2.78428688049316406e+01,1.20245227813720703e+01,2.52579765319824219e+01,2.64008598327636719e+01,1.08743057250976563e+01,3.67750096321105957e+00,0.00000000000000000e+00,0.00000000000000000e+00,0.00000000000000000e+00,0.00000000000000000e+00,0.00000000000000000e+00,0.00000000000000000e+00,0.00000000000000000e+00,0.00000000000000000e+00],"parents":[2147483647,0,0,1,1,2,2,5,5,6,6,7,7,8,8,9,9,10,10],"right_children":[2,4,6,-1,-1,8,10,12,14,16,18,-1,-1,-1,-1,-1,-1,-1,-1],"split_conditions":[8.32500000000000000e+02,-1.44261360168457031e+00,7.05000000000000000e+01,1.55204422771930695e-02,-2.22631454467773438e-01,1.15000000000000000e+01,2.50000000000000000e+00,7.05000000000000000e+01,1.34950000000000000e+03,1.61050000000000000e+03,1.35000000000000000e+01,2.31893882155418396e-02,-1.42028078436851501e-01,-2.31285676360130310e-01,-2.79849078506231308e-02,2.27618776261806488e-02,-2.50750869512557983e-01,7.61248469352722168e-02,-7.61792063713073730e-02],"split_indices":[23,37,69,0,0,66,74,71,21,20,63,0,0,0,0,0,0,0,0],"sum_hessian":[2.86714282226562500e+03,3.72185783386230469e+01,2.82992431640625000e+03,1.79336476325988770e+00,3.54252128601074219e+01,2.73512451171875000e+03,9.47997894287109375e+01,2.40902392578125000e+03,3.26100646972656250e+02,6.57720031738281250e+01,2.90277843475341797e+01,2.33751147460937500e+03,7.15124359130859375e+01,6.03365859985351563e+01,2.65764038085937500e+02,1.33157806396484375e+01,5.24562225341796875e+01,1.91548671722412109e+01,9.87291717529296875e+00],"tree_param":{"num_deleted":"0","num_feature":"84","num_nodes":"19","size_leaf_vector":"0"}},{"base_weights":[-1.26708010211586952e-02,1.53343193233013153e-02,-3.17194879055023193e-01,-3.61169219017028809e-01,4.10118587315082550e-02,2.25217416882514954e-01,-4.25494939088821411e-01,-8.91966342926025391e-01,-1.46155148744583130e-01,8.30983649939298630e-03,4.16127085685729980e-01,-2.99200534820556641e-01,4.61930364370346069e-01,-5.05112349987030029e-01,2.74120509624481201e-01,-9.12987172603607178e-01,-7.12856184691190720e-03,-3.15705955028533936e-01,2.81164228916168213e-01,-2.34546288847923279e-01,7.52377286553382874e-02,-4.80396658182144165e-01,5.95250129699707031e-01,1.08497262001037598e-01,-4.36032027006149292e-01,6.61878466606140137e-01,-1.77496418356895447e-01,-9.25134956836700439e-01,-3.42125028371810913e-01,-2.41873726248741150e-01,5.17852246761322021e-01],"default_left":[true,true,true,true,true,true,true,true,true,true,true,true,true,true,true,false,false,false,false,false,false,false,false,false,false,false,false,false,false,false,false],"id":22,"leaf_child_counts":[0,0,0,0,0,0,0,0,0,0,0,0,0,0,0,0,0,0,0,0,0,0,0,0,0,0,0,0,0,0,0],"left_children":[1,3,5,7,9,11,13,15,17,19,21,23,25,27,29,-1,-1,-1,-1,-1,-1,-1,-1,-1,-1,-1,-1,-1,-1,-1,-1],"loss_changes":[2.44068126678466797e+01,2.56224174499511719e+01,1.55942592620849609e+01,1.73635215759277344e+01,3.02852249145507813e+01,8.26977825164794922e+00,1.35557365417480469e+01,7.55401611328125000e-01,1.13597745895385742e+01,3.74869308471679688e+01,3.60864067077636719e+01,2.08352112770080566e+00,6.91335773468017578e+00,8.27981567382812500e+00,5.74971771240234375e+00,0.00000000000000000e+00,0.00000000000000000e+00,0.00000000000000000e+00,0.00000000000000000e+00,0.00000000000000000e+00,0.00000000000000000e+00,0.00000000000000000e+00,0.00000000000000000e+00,0.00000000000000000e+00,0.00000000000000000e+00,0.00000000000000000e+00,0.00000000000000000e+00,0.00000000000000000e+00,0.00000000000000000e+00,0.00000000000000000e+00,0.00000000000000000e+00],"parents":[2147483647,0,0,1,1,2,2,3,3,4,4,5,5,6,6,7,7,8,8,9,9,10,10,11,11,12,12,13,13,14,14],"right_children":[2,4,6,8,10,12,14,16,18,20,22,24,26,28,30,-1,-1,-1,-1,-1,-1,-1,-1,-1,-1,-1,-1,-1,-1,-1,-1],"split_conditions":[8.89433264732360840e-01,2.15000000000000000e+01,2.10600000000000000e+03,1.59750000000000000e+03,7.46550000000000000e+03,5.50183415412902832e-01,1.61756801605224609e+00,3.75000000000000000e+01,4.28244500000000000e+06,5.65000000000000000e+01,1.66303942871093750e+03,2.47735000000000000e+04,5.00000000000000000e-01,6.36215000000000000e+04,2.15000000000000000e+01,-2.73896157741546631e-01,-2.13856855407357216e-03,-9.47117879986763000e-02,8.43492746353149414e-02,-7.03638866543769836e-02,2.25713197141885757e-02,-1.44119009375572205e-01,1.78575038909912109e-01,3.25491800904273987e-02,-1.30809620022773743e-01,1.98563545942306519e-01,-5.32489269971847534e-02,-2.77540504932403564e-01,-1.02637514472007751e-01,-7.25621208548545837e-02,1.55355677008628845e-01],"split_indices":[38,79,2,21,23,45,47,77,8,79,40,10,58,8,71,0,0,0,0,0,0,0,0,0,0,0,0,0,0,0,0],"sum_hessian":[2.83832861328125000e+03,2.61233374023437500e+03,2.25994842529296875e+02,1.54273620605468750e+02,2.45806030273437500e+03,3.49178733825683594e+01,1.91076980590820313e+02,3.08613166809082031e+01,1.23412300109863281e+02,2.27505639648437500e+03,1.83003936767578125e+02,9.62803840637207031e+00,2.52898330688476563e+01,1.75297988891601563e+02,1.57789916992187500e+01,2.96790428161621094e+01,1.18227446079254150e+00,9.11599655151367188e+01,3.22523307800292969e+01,4.83402770996093750e+02,1.79165356445312500e+03,2.62735996246337891e+01,1.56730331420898438e+02,3.19988632202148438e+00,6.42815256118774414e+00,1.88643016815185547e+01,6.42553091049194336e+00,2.93976707458496094e+01,1.45900314331054688e+02,5.09882593154907227e+00,1.06801652908325195e+01],"tree_param":{"num_deleted":"0","num_feature":"84","num_nodes":"31","size_leaf_vector":"0"}},{"base_weights":[-1.13540776073932648e-02,-1.23596467077732086e-01,7.25501775741577148e-02,8.16854536533355713e-02,-3.89470636844635010e-01,-8.08569714426994324e-02,2.43015587329864502e-01,1.68852910399436951e-01,-7.35618293285369873e-01,-9.81182396411895752e-01,-2.71137505769729614e-01,-7.90386795997619629e-01,1.88081189990043640e-02,1.56507432460784912e-01,7.45777010917663574e-01,-2.48936623334884644e-01,3.15873891115188599e-01,-8.40175330638885498e-01,1.87077686190605164e-01,-1.14576399326324463e+00,5.26444008573889732e-03,-6.06642901897430420e-01,-4.47677969932556152e-02,-9.13783550262451172e-01,2.25455053150653839e-02,-4.37618017196655273e-01,9.49796438217163086e-02,-1.74929767847061157e-01,2.51960784196853638e-01,7.95957803726196289e-01,-1.59344211220741272e-01],"default_left":[true,true,true,true,true,true,true,true,true,true,true,true,true,true,true,false,false,false,false,false,false,false,false,false,false,false,false,false,false,false,false],"id":23,"leaf_child_counts":[0,0,0,0,0,0,0,0,0,0,0,0,0,0,0,0,0,0,0,0,0,0,0,0,0,0,0,0,0,0,0],"left_children":[1,3,5,7,9,11,13,15,17,19,21,23,25,27,29,-1,-1,-1,-1,-1,-1,-1,-1,-1,-1,-1,-1,-1,-1,-1,-1],"loss_changes":[2.67881832122802734e+01,6.68564071655273438e+01,4.28939437866210938e+01,5.16403923034667969e+01,3.32944335937500000e+01,6.16499938964843750e+01,3.19711532592773438e+01,4.07097854614257813e+01,9.12410736083984375e+00,1.35681762695312500e+01,3.48691635131835938e+01,1.10763244628906250e+01,2.76133575439453125e+01,2.21900272369384766e+01,6.89140319824218750e+00,0.00000000000000000e+00,0.00000000000000000e+00,0.00000000000000000e+00,0.00000000000000000e+00,0.00000000000000000e+00,0.00000000000000000e+00,0.00000000000000000e+00,0.00000000000000000e+00,0.00000000000000000e+00,0.00000000000000000e+00,0.00000000000000000e+00,0.00000000000000000e+00,0.00000000000000000e+00,0.00000000000000000e+00,0.00000000000000000e+00,0.00000000000000000e+00],"parents":[2147483647,0,0,1,1,2,2,3,3,4,4,5,5,6,6,7,7,8,8,9,9,10,10,11,11,12,12,13,13,14,14],"right_children":[2,4,6,8,10,12,14,16,18,20,22,24,26,28,30,-1,-1,-1,-1,-1,-1,-1,-1,-1,-1,-1,-1,-1,-1,-1,-1],"split_conditions":[1.29108238220214844e+00,5.00000000000000000e-01,6.05000000000000000e+01,3.67150000000000000e+03,7.72771120071411133e-01,2.44850000000000000e+03,7.85000000000000000e+01,4.61397945880889893e-01,3.38500000000000000e+03,1.25000000000000000e+01,1.34500000000000000e+02,1.66071844100952148e+00,2.50000000000000000e+00,1.05000000000000000e+01,6.78000000000000000e+03,-7.46809914708137512e-02,9.47621688246726990e-02,-2.52052605152130127e-01,5.61233088374137878e-02,-3.43729197978973389e-01,1.57933204900473356e-03,-1.81992873549461365e-01,-1.34303392842411995e-02,-2.74135082960128784e-01,6.76365196704864502e-03,-1.31285414099693298e-01,2.84938942641019821e-02,-5.24789318442344666e-02,7.55882412195205688e-02,2.38787353038787842e-01,-4.78032641112804413e-02],"split_indices":[47,33,79,22,45,22,24,45,23,35,61,47,59,34,2,0,0,0,0,0,0,0,0,0,0,0,0,0,0,0,0],"sum_hessian":[2.81519458007812500e+03,1.20120031738281250e+03,1.61399426269531250e+03,6.83703308105468750e+02,5.17497009277343750e+02,8.53651611328125000e+02,7.60342651367187500e+02,6.28566223144531250e+02,5.51371002197265625e+01,6.80158462524414063e+01,4.49481201171875000e+02,9.23367614746093750e+01,7.61314819335937500e+02,6.65501831054687500e+02,9.48408203125000000e+01,1.60910049438476563e+02,4.67656127929687500e+02,5.07300415039062500e+01,4.40705919265747070e+00,5.62143020629882813e+01,1.18015422821044922e+01,1.70936279296875000e+02,2.78544921875000000e+02,7.85522689819335938e+01,1.37844953536987305e+01,9.87026748657226563e+01,6.62612182617187500e+02,1.46014572143554688e+02,5.19487304687500000e+02,9.15730285644531250e+01,3.26779818534851074e+00],"tree_param":{"num_deleted":"0","num_feature":"84","num_nodes":"31","size_leaf_vector":"0"}},{"base_weights":[-1.27070192247629166e-02,-2.38746494054794312e-01,2.83281914889812469e-02,-2.96605862677097321e-02,-8.60817492008209229e-01,3.88237446546554565e-01,-1.22282104566693306e-02,1.14140622317790985e-01,-6.15366637706756592e-01,-9.32619452476501465e-01,1.54296262189745903e-02,9.30088087916374207e-02,5.43834626674652100e-01,-6.46669045090675354e-02,2.00255975127220154e-01,-4.84245449304580688e-01,2.95959353446960449e-01,1.36650577187538147e-01,-9.90350127220153809e-01,-9.79040443897247314e-01,6.28039687871932983e-02,-2.36078426241874695e-01,2.59924411773681641e-01,-3.72871726751327515e-01,1.93300023674964905e-01,-2.13024377822875977e-01,6.21884703636169434e-01,-2.74031043052673340e-01,2.60513797402381897e-02,-2.12749719619750977e-01,3.55458706617355347e-01],"default_left":[true,true,true,true,true,true,true,true,true,true,true,true,true,true,true,false,false,false,false,false,false,false,false,false,false,false,false,false,false,false,false],"id":24,"leaf_child_counts":[0,0,0,0,0,0,0,0,0,0,0,0,0,0,0,0,0,0,0,0,0,0,0,0,0,0,0,0,0,0,0],"left_children":[1,3,5,7,9,11,13,15,17,19,21,23,25,27,29,-1,-1,-1,-1,-1,-1,-1,-1,-1,-1,-1,-1,-1,-1,-1,-1],"loss_changes":[2.58339500427246094e+01,5.52647781372070313e+01,3.45393791198730469e+01,2.93321170806884766e+01,6.95371246337890625e+00,1.02478256225585938e+01,2.40030574798583984e+01,3.28545494079589844e+01,2.13550643920898438e+01,5.50740051269531250e+00,2.32656621932983398e+00,5.79044866561889648e+00,1.10732574462890625e+01,3.28733711242675781e+01,2.84801464080810547e+01,0.00000000000000000e+00,0.00000000000000000e+00,0.00000000000000000e+00,0.00000000000000000e+00,0.00000000000000000e+00,0.00000000000000000e+00,0.00000000000000000e+00,0.00000000000000000e+00,0.00000000000000000e+00,0.00000000000000000e+00,0.00000000000000000e+00,0.00000000000000000e+00,0.00000000000000000e+00,0.00000000000000000e+00,0.00000000000000000e+00,0.00000000000000000e+00],"parents":[2147483647,0,0,1,1,2,2,3,3,4,4,5,5,6,6,7,7,8,8,9,9,10,10,11,11,12,12,13,13,14,14],"right_children":[2,4,6,8,10,12,14,16,18,20,22,24,26,28,30,-1,-1,-1,-1,-1,-1,-1,-1,-1,-1,-1,-1,-1,-1,-1,-1],"split_conditions":[5.00000000000000000e-01,1.45941000000000000e+05,4.50000000000000000e+00,3.95000000000000000e+01,4.03386132812500000e+03,1.05000000000000000e+01,4.98149365234375000e+03,3.35000000000000000e+01,4.52963676452636719e+01,7.15000000000000000e+01,3.84900000000000000e+03,1.26367788314819336e+01,9.95000000000000000e+01,5.55000000000000000e+01,3.35000000000000000e+01,-1.45273640751838684e-01,8.87878090143203735e-02,4.09951731562614441e-02,-2.97105044126510620e-01,-2.93712139129638672e-01,1.88411921262741089e-02,-7.08235278725624084e-02,7.79773294925689697e-02,-1.11861519515514374e-01,5.79900108277797699e-02,-6.39073178172111511e-02,1.86565414071083069e-01,-8.22093188762664795e-02,7.81541410833597183e-03,-6.38249218463897705e-02,1.06637619435787201e-01],"split_indices":[55,10,54,62,42,81,42,69,40,51,23,41,29,52,62,0,0,0,0,0,0,0,0,0,0,0,0,0,0,0,0],"sum_hessian":[2.75922070312500000e+03,4.12841583251953125e+02,2.34637915039062500e+03,3.20749023437500000e+02,9.20925827026367188e+01,2.24602249145507813e+02,2.12177685546875000e+03,2.67218902587890625e+02,5.35301246643066406e+01,8.42258834838867188e+01,7.86669588088989258e+00,8.57904815673828125e+01,1.38811767578125000e+02,1.71016296386718750e+03,4.11613922119140625e+02,5.64582519531250000e+01,2.10760635375976563e+02,2.09830455780029297e+01,3.25470809936523438e+01,8.07089462280273438e+01,3.51693677902221680e+00,4.13225746154785156e+00,3.73443818092346191e+00,7.97518444061279297e+00,7.78152999877929688e+01,1.05516319274902344e+01,1.28260131835937500e+02,5.07838348388671875e+02,1.20232470703125000e+03,1.10910713195800781e+02,3.00703216552734375e+02],"tree_param":{"num_deleted":"0","num_feature":"84","num_nodes":"31","size_leaf_vector":"0"}},{"base_weights":[-1.12033896148204803e-02,-4.52431626617908478e-02,2.17247515916824341e-01,-8.25132206082344055e-02,2.49435618519783020e-01,-6.39978051185607910e-02,3.67192298173904419e-01,-4.71950992941856384e-02,-4.95497524738311768e-01,-3.34216713905334473e-01,4.90964144468307495e-01,2.82419532537460327e-01,-2.23077908158302307e-01,4.60051596164703369e-01,-3.32794219255447388e-01,-1.52270793914794922e-01,7.15406388044357300e-02,2.39413246512413025e-01,-5.84154844284057617e-01,3.15911620855331421e-01,-7.43102014064788818e-01,-3.31360697746276855e-01,6.04714930057525635e-01,5.11427342891693115e-01,-1.85840457677841187e-01,-5.10882914066314697e-01,9.03532877564430237e-02,5.28029203414916992e-01,-2.30394601821899414e-01,1.88795223832130432e-01,-5.60804128646850586e-01],"default_left":[true,true,true,true,true,true,true,true,true,true,true,true,true,true,true,false,false,false,false,false,false,false,false,false,false,false,false,false,false,false,false],"id":25,"leaf_child_counts":[0,0,0,0,0,0,0,0,0,0,0,0,0,0,0,0,0,0,0,0,0,0,0,0,0,0,0,0,0,0,0],"left_children":[1,3,5,7,9,11,13,15,17,19,21,23,25,27,29,-1,-1,-1,-1,-1,-1,-1,-1,-1,-1,-1,-1,-1,-1,-1,-1],"loss_changes":[2.14215030670166016e+01,2.65943050384521484e+01,1.54225158691406250e+01,3.08033370971679688e+01,4.08678359985351563e+01,8.49713897705078125e+00,1.75918197631835938e+01,2.49190578460693359e+01,1.29586906433105469e+01,2.70920963287353516e+01,2.15993804931640625e+01,6.76025009155273438e+00,9.92014884948730469e+00,1.18711051940917969e+01,5.90092134475708008e+00,0.00000000000000000e+00,0.00000000000000000e+00,0.00000000000000000e+00,0.00000000000000000e+00,0.00000000000000000e+00,0.00000000000000000e+00,0.00000000000000000e+00,0.00000000000000000e+00,0.00000000000000000e+00,0.00000000000000000e+00,0.00000000000000000e+00,0.00000000000000000e+00,0.00000000000000000e+00,0.00000000000000000e+00,0.00000000000000000e+00,0.00000000000000000e+00],"parents":[2147483647,0,0,1,1,2,2,3,3,4,4,5,5,6,6,7,7,8,8,9,9,10,10,11,11,12,12,13,13,14,14],"right_children":[2,4,6,8,10,12,14,16,18,20,22,24,26,28,30,-1,-1,-1,-1,-1,-1,-1,-1,-1,-1,-1,-1,-1,-1,-1,-1],"split_conditions":[8.54386806488037109e-01,3.40262450000000000e+06,-1.16388782858848572e-01,1.05500000000000000e+02,1.91250000000000000e+03,4.50000000000000000e+00,2.65000000000000000e+01,1.11261511230468750e+03,1.25000000000000000e+01,-2.54714727401733398e-01,1.25000000000000000e+01,1.48900604248046875e+00,3.25000000000000000e+01,6.65000000000000000e+01,8.95000000000000000e+01,-4.56812381744384766e-02,2.14621927589178085e-02,7.18239769339561462e-02,-1.75246462225914001e-01,9.47734937071800232e-02,-2.22930610179901123e-01,-9.94082167744636536e-02,1.81414484977722168e-01,1.53428211808204651e-01,-5.57521395385265350e-02,-1.53264880180358887e-01,2.71059870719909668e-02,1.58408761024475098e-01,-6.91183805465698242e-02,5.66385686397552490e-02,-1.68241247534751892e-01],