{"learner":{"attributes":{"best_iteration":"171","best_msg":"[171]\tvalidation_0-error:0.00058\tvalidation_1-error:0.04800","best_score":"0.048003","scikit_learn":"{\"n_estimators\": 1000, \"objective\": \"binary:logistic\", \"max_depth\": 4, \"learning_rate\": 0.3, \"verbosity\": null, \"booster\": null, \"tree_method\": null, \"gamma\": null, \"min_child_weight\": null, \"max_delta_step\": null, \"subsample\": null, \"colsample_bytree\": null, \"colsample_bylevel\": null, \"colsample_bynode\": null, \"reg_alpha\": null, \"reg_lambda\": 15, \"scale_pos_weight\": null, \"base_score\": null, \"missing\": NaN, \"num_parallel_tree\": null, \"kwargs\": {\"silent\": true, \"eval_metrics\": \"error\", \"seed\": 100, \"sub_sabsample\": 0.8}, \"random_state\": null, \"n_jobs\": null, \"monotone_constraints\": null, \"interaction_constraints\": null, \"importance_type\": \"gain\", \"gpu_id\": null, \"validate_parameters\": null, \"classes_\": [0, 1], \"n_classes_\": 2, \"_le\": {\"classes_\": [0, 1]}, \"_features_count\": 168, \"evals_result_\": {\"validation_0\": {\"error\": [0.184061, 0.1518, 0.127508, 0.123284, 0.116755, 0.109746, 0.103889, 0.094671, 0.091695, 0.089966, 0.085646, 0.084013, 0.079309, 0.077868, 0.07614, 0.074124, 0.07326, 0.070571, 0.068555, 0.067403, 0.065963, 0.065963, 0.066155, 0.063082, 0.061066, 0.060106, 0.059145, 0.058089, 0.054921, 0.053481, 0.053577, 0.053481, 0.051752, 0.05108, 0.050312, 0.049928, 0.048392, 0.047144, 0.045703, 0.045607, 0.044743, 0.043111, 0.041575, 0.040518, 0.040326, 0.040134, 0.03927, 0.039462, 0.037062, 0.037062, 0.036102, 0.03543, 0.034085, 0.032453, 0.032165, 0.030821, 0.030245, 0.030053, 0.029573, 0.028709, 0.027652, 0.026884, 0.026692, 0.025636, 0.0241, 0.024004, 0.02314, 0.022852, 0.022468, 0.022276, 0.021603, 0.021219, 0.020931, 0.020259, 0.019875, 0.019683, 0.019299, 0.019011, 0.018339, 0.017571, 0.017091, 0.017571, 0.016707, 0.016323, 0.016035, 0.016419, 0.015747, 0.015074, 0.01469, 0.014402, 0.013538, 0.013346, 0.01325, 0.01277, 0.012578, 0.01229, 0.012002, 0.01181, 0.011234, 0.011042, 0.01085, 0.010562, 0.009986, 0.010082, 0.00941, 0.009506, 0.009313, 0.009121, 0.008833, 0.008929, 0.008353, 0.008641, 0.008065, 0.008257, 0.007585, 0.007585, 0.007009, 0.006817, 0.006913, 0.006625, 0.006625, 0.006817, 0.006241, 0.005953, 0.006145, 0.006145, 0.005857, 0.005761, 0.005665, 0.005665, 0.005089, 0.004801, 0.004705, 0.004705, 0.004513, 0.004513, 0.004321, 0.004129, 0.003553, 0.003361, 0.003361, 0.003265, 0.003265, 0.003169, 0.002784, 0.00288, 0.002784, 0.002304, 0.002304, 0.002112, 0.001632, 0.001536, 0.001344, 0.001248, 0.001248, 0.001344, 0.001248, 0.001248, 0.001248, 0.001344, 0.001152, 0.001152, 0.000768, 0.00096, 0.001056, 0.001056, 0.00096, 0.000768, 0.000672, 0.000672, 0.000672, 0.000576, 0.000576, 0.000576, 0.000576, 0.000576, 0.000576, 0.000384, 0.00048, 0.000384, 0.000384, 0.000384, 0.000288, 0.000288, 0.000288, 0.000288, 0.000288, 0.000288, 0.000288, 0.000288, 0.000192, 0.000192, 0.000192, 0.000192, 0.000192, 0.000192, 0.000192, 0.000192, 0.000192, 0.000192, 0.000192]}, \"validation_1\": {\"error\": [0.192012, 0.164363, 0.144393, 0.135177, 0.130568, 0.12596, 0.1202, 0.117896, 0.116359, 0.112519, 0.111751, 0.108679, 0.104455, 0.101767, 0.101382, 0.097926, 0.097926, 0.093318, 0.09447, 0.091398, 0.091014, 0.090246, 0.091398, 0.089478, 0.090246, 0.08871, 0.087174, 0.085637, 0.084869, 0.086022, 0.085253, 0.084869, 0.082949, 0.082565, 0.082565, 0.077957, 0.079493, 0.076805, 0.077573, 0.077189, 0.075653, 0.072197, 0.072581, 0.072197, 0.071429, 0.071813, 0.072581, 0.072965, 0.071429, 0.071429, 0.071429, 0.069508, 0.069508, 0.070276, 0.071045, 0.06874, 0.06874, 0.068356, 0.06874, 0.066436, 0.067972, 0.067588, 0.065668, 0.065284, 0.06682, 0.066052, 0.062596, 0.06298, 0.062212, 0.06106, 0.060292, 0.060292, 0.058756, 0.059524, 0.059908, 0.059524, 0.058756, 0.060292, 0.05914, 0.060292, 0.061444, 0.06106, 0.059524, 0.05914, 0.059908, 0.05914, 0.057988, 0.058756, 0.057988, 0.057988, 0.058372, 0.055684, 0.056068, 0.057604, 0.055684, 0.056452, 0.056836, 0.057604, 0.056068, 0.053379, 0.053379, 0.052611, 0.053763, 0.053763, 0.053379, 0.051843, 0.053379, 0.052611, 0.051075, 0.051459, 0.052227, 0.053379, 0.053379, 0.052611, 0.052227, 0.051843, 0.051459, 0.050691, 0.051075, 0.051843, 0.050691, 0.050307, 0.051075, 0.051459, 0.050691, 0.051459, 0.050307, 0.051843, 0.051459, 0.051075, 0.051459, 0.051459, 0.051075, 0.051843, 0.051075, 0.051843, 0.051843, 0.050691, 0.051459, 0.051075, 0.051075, 0.050307, 0.049923, 0.050691, 0.051843, 0.051459, 0.050691, 0.052227, 0.051459, 0.052227, 0.051459, 0.051075, 0.050691, 0.050691, 0.049539, 0.049923, 0.048771, 0.049539, 0.049923, 0.049539, 0.049539, 0.048771, 0.049923, 0.049923, 0.050307, 0.050691, 0.051075, 0.050307, 0.051075, 0.049539, 0.048771, 0.048003, 0.048387, 0.049155, 0.050307, 0.048387, 0.048003, 0.049155, 0.049539, 0.049539, 0.050691, 0.050307, 0.050307, 0.050307, 0.051075, 0.049923, 0.049539, 0.049923, 0.049539, 0.049539, 0.048387, 0.048003, 0.049155, 0.048003, 0.048387, 0.048771, 0.048387, 0.049155, 0.048003, 0.048003, 0.048387]}}, \"best_score\": 0.048003, \"best_iteration\": 171, \"best_ntree_limit\": 172, \"type\": \"XGBClassifier\"}"},"gradient_booster":{"model":{"gbtree_model_param":{"num_trees":"202","size_leaf_vector":"0"},"tree_info":[0,0,0,0,0,0,0,0,0,0,0,0,0,0,0,0,0,0,0,0,0,0,0,0,0,0,0,0,0,0,0,0,0,0,0,0,0,0,0,0,0,0,0,0,0,0,0,0,0,0,0,0,0,0,0,0,0,0,0,0,0,0,0,0,0,0,0,0,0,0,0,0,0,0,0,0,0,0,0,0,0,0,0,0,0,0,0,0,0,0,0,0,0,0,0,0,0,0,0,0,0,0,0,0,0,0,0,0,0,0,0,0,0,0,0,0,0,0,0,0,0,0,0,0,0,0,0,0,0,0,0,0,0,0,0,0,0,0,0,0,0,0,0,0,0,0,0,0,0,0,0,0,0,0,0,0,0,0,0,0,0,0,0,0,0,0,0,0,0,0,0,0,0,0,0,0,0,0,0,0,0,0,0,0,0,0,0,0,0,0,0,0,0,0,0,0,0,0,0,0,0,0],"trees":[{"base_weights":[1.85775652527809143e-01,-1.60600996017456055e+00,4.14480030536651611e-01,-0.00000000000000000e+00,-1.67013883590698242e+00,-1.35257586836814880e-01,1.36009311676025391e+00,-4.65116292238235474e-01,5.00000000000000000e-01,-1.78672027587890625e+00,-6.78899109363555908e-01,-7.73407220840454102e-01,8.24408471584320068e-01,1.50830984115600586e+00,-4.33656960725784302e-01,-5.36585390567779541e-01,6.25000000000000000e-02,-1.80547118186950684e+00,8.95522385835647583e-02,-1.18128657341003418e+00,5.04672884941101074e-01,-1.31028878688812256e+00,3.55078458786010742e-01,-1.27557158470153809e-01,1.27716732025146484e+00,-3.14606755971908569e-01,1.58450019359588623e+00,-1.19512200355529785e+00,3.02439033985137939e-01],"default_left":[true,true,true,true,true,true,true,true,false,true,true,true,true,true,true,false,false,false,false,false,false,false,false,false,false,false,false,false,false],"id":0,"leaf_child_counts":[0,0,0,0,0,0,0,0,0,0,0,0,0,0,0,0,0,0,0,0,0,0,0,0,0,0,0,0,0],"left_children":[1,3,5,7,9,11,13,15,-1,17,19,21,23,25,27,-1,-1,-1,-1,-1,-1,-1,-1,-1,-1,-1,-1,-1,-1],"loss_changes":[1.08312036132812500e+03,3.08459472656250000e+01,1.21619384765625000e+03,9.65116310119628906e+00,1.50863037109375000e+01,9.21902709960937500e+02,2.38321166992187500e+02,1.31377601623535156e+00,0.00000000000000000e+00,1.11679077148437500e+01,4.13487892150878906e+01,5.53770263671875000e+02,2.62019927978515625e+02,1.18206420898437500e+02,4.87212715148925781e+01,0.00000000000000000e+00,0.00000000000000000e+00,0.00000000000000000e+00,0.00000000000000000e+00,0.00000000000000000e+00,0.00000000000000000e+00,0.00000000000000000e+00,0.00000000000000000e+00,0.00000000000000000e+00,0.00000000000000000e+00,0.00000000000000000e+00,0.00000000000000000e+00,0.00000000000000000e+00,0.00000000000000000e+00],"parents":[2147483647,0,0,1,1,2,2,3,3,4,4,5,5,6,6,7,7,9,9,10,10,11,11,12,12,13,13,14,14],"right_children":[2,4,6,8,10,12,14,16,-1,18,20,22,24,26,28,-1,-1,-1,-1,-1,-1,-1,-1,-1,-1,-1,-1,-1,-1],"split_conditions":[2.77400000000000000e+03,8.46359692513942719e-03,2.31500000000000000e+02,6.50000000000000000e+00,2.52450000000000000e+03,7.27650000000000000e+03,4.27460000000000000e+05,9.94700000000000000e+03,1.50000005960464478e-01,1.76586556434631348e+00,2.42500000000000000e+02,2.61500000000000000e+02,5.40500000000000000e+03,7.85000000000000000e+01,2.55000000000000000e+01,-1.60975620150566101e-01,1.87500007450580597e-02,-5.41641354560852051e-01,2.68656723201274872e-02,-3.54385972023010254e-01,1.51401877403259277e-01,-3.93086642026901245e-01,1.06523543596267700e-01,-3.82671505212783813e-02,3.83150219917297363e-01,-9.43820327520370483e-02,4.75350081920623779e-01,-3.58536601066589355e-01,9.07317101955413818e-02],"split_indices":[42,95,56,162,42,43,18,0,0,95,56,136,46,55,67,0,0,0,0,0,0,0,0,0,0,0,0,0,0],"sum_hessian":[2.60375000000000000e+03,2.84500000000000000e+02,2.31925000000000000e+03,1.15000000000000000e+01,2.73000000000000000e+02,1.47475000000000000e+03,8.44500000000000000e+02,6.50000000000000000e+00,5.00000000000000000e+00,2.33500000000000000e+02,3.95000000000000000e+01,8.87500000000000000e+02,5.87250000000000000e+02,7.82250000000000000e+02,6.22500000000000000e+01,5.50000000000000000e+00,1.00000000000000000e+00,2.31750000000000000e+02,1.75000000000000000e+00,2.77500000000000000e+01,1.17500000000000000e+01,5.99750000000000000e+02,2.87750000000000000e+02,1.92750000000000000e+02,3.94500000000000000e+02,2.95000000000000000e+01,7.52750000000000000e+02,2.60000000000000000e+01,3.62500000000000000e+01],"tree_param":{"num_deleted":"0","num_feature":"168","num_nodes":"29","size_leaf_vector":"0"}},{"base_weights":[1.32727548480033875e-01,3.57514292001724243e-01,-9.90443646907806396e-01,1.07469630241394043e+00,-5.67655041813850403e-02,4.92563486099243164e-01,-1.10835695266723633e+00,1.24318444728851318e+00,-1.87942221760749817e-01,-4.90522980690002441e-01,7.85383164882659912e-01,-3.22249829769134521e-01,7.34720885753631592e-01,-1.39556348323822021e+00,-2.15020641684532166e-01,1.34512150287628174e+00,9.64121818542480469e-02,-1.05546963214874268e+00,4.45765882730484009e-01,-8.92163991928100586e-01,5.06103038787841797e-01,-9.97958540916442871e-01,1.02356481552124023e+00,-3.69213968515396118e-01,2.94798556715250015e-02,8.42286109924316406e-01,-9.22840014100074768e-02,-1.41199970245361328e+00,1.24182529747486115e-01,4.61524754762649536e-01,-1.05923473834991455e+00],"default_left":[true,true,true,true,true,true,true,true,true,true,true,true,true,true,true,false,false,false,false,false,false,false,false,false,false,false,false,false,false,false,false],"id":1,"leaf_child_counts":[0,0,0,0,0,0,0,0,0,0,0,0,0,0,0,0,0,0,0,0,0,0,0,0,0,0,0,0,0,0,0],"left_children":[1,3,5,7,9,11,13,15,17,19,21,23,25,27,29,-1,-1,-1,-1,-1,-1,-1,-1,-1,-1,-1,-1,-1,-1,-1,-1],"loss_changes":[6.42060058593750000e+02,6.28562683105468750e+02,8.24295043945312500e+01,1.68213745117187500e+02,5.00105987548828125e+02,1.17705030441284180e+01,9.75891113281250000e+01,7.81357421875000000e+01,6.43317794799804688e+01,3.68004272460937500e+02,2.13182983398437500e+02,4.93145704269409180e-01,4.42930412292480469e+00,1.00830078125000000e+01,7.27493515014648438e+01,0.00000000000000000e+00,0.00000000000000000e+00,0.00000000000000000e+00,0.00000000000000000e+00,0.00000000000000000e+00,0.00000000000000000e+00,0.00000000000000000e+00,0.00000000000000000e+00,0.00000000000000000e+00,0.00000000000000000e+00,0.00000000000000000e+00,0.00000000000000000e+00,0.00000000000000000e+00,0.00000000000000000e+00,0.00000000000000000e+00,0.00000000000000000e+00],"parents":[2147483647,0,0,1,1,2,2,3,3,4,4,5,5,6,6,7,7,8,8,9,9,10,10,11,11,12,12,13,13,14,14],"right_children":[2,4,6,8,10,12,14,16,18,20,22,24,26,28,30,-1,-1,-1,-1,-1,-1,-1,-1,-1,-1,-1,-1,-1,-1,-1,-1],"split_conditions":[2.30500000000000000e+02,1.65000000000000000e+01,1.09320338815450668e-02,3.51438000000000000e+05,6.45000000000000000e+01,3.45000000000000000e+01,9.95000000000000000e+01,1.05000000000000000e+01,2.85000000000000000e+01,2.88500000000000000e+02,1.48350732421875000e+03,1.30000000000000000e+03,9.65000000000000000e+01,9.12815189361572266e+00,3.25300000000000000e+03,4.03536468744277954e-01,2.89236549288034439e-02,-3.16640913486480713e-01,1.33729770779609680e-01,-2.67649203538894653e-01,1.51830911636352539e-01,-2.99387574195861816e-01,3.07069450616836548e-01,-1.10764198005199432e-01,8.84395744651556015e-03,2.52685844898223877e-01,-2.76852007955312729e-02,-4.23599928617477417e-01,3.72547619044780731e-02,1.38457432389259338e-01,-3.17770421504974365e-01],"split_indices":[58,98,95,18,71,108,164,70,67,136,84,5,117,76,45,0,0,0,0,0,0,0,0,0,0,0,0,0,0,0,0],"sum_hessian":[2.50703613281250000e+03,2.09748071289062500e+03,4.09555541992187500e+02,7.59228149414062500e+02,1.33825244140625000e+03,2.66548538208007813e+01,3.82900695800781250e+02,6.70047241210937500e+02,8.91808929443359375e+01,8.87433593750000000e+02,4.50818939208984375e+02,4.97013235092163086e+00,2.16847209930419922e+01,2.83365997314453125e+02,9.95347137451171875e+01,6.12966003417968750e+02,5.70812454223632813e+01,3.34312820434570313e+01,5.57496070861816406e+01,6.33645996093750000e+02,2.53787551879882813e+02,4.74791069030761719e+01,4.03339813232421875e+02,3.72686743736267090e+00,1.24326491355895996e+00,1.89436321258544922e+01,2.74108982086181641e+00,2.81386230468750000e+02,1.97976481914520264e+00,5.90290260314941406e+01,4.05056877136230469e+01],"tree_param":{"num_deleted":"0","num_feature":"168","num_nodes":"31","size_leaf_vector":"0"}},{"base_weights":[9.96079519391059875e-02,2.81796991825103760e-01,-9.29626107215881348e-01,8.33752572536468506e-01,-1.38161525130271912e-01,-1.30133426189422607e+00,-1.79428249597549438e-01,-6.67121410369873047e-01,9.16583299636840820e-01,-8.27913999557495117e-01,5.60228645801544189e-01,-4.73174601793289185e-02,-1.33487617969512939e+00,-8.51730704307556152e-01,4.66529488563537598e-01,-8.87988567352294922e-01,1.95554211735725403e-01,-3.11933189630508423e-01,1.00347101688385010e+00,1.09073960781097412e+00,-1.06843745708465576e+00,-7.05857574939727783e-01,7.64963090419769287e-01,2.18495875597000122e-01,-2.62166529893875122e-01,-1.34280776977539063e+00,2.13005859404802322e-02,-1.01026427745819092e+00,2.86056607961654663e-01,-4.64689582586288452e-01,6.93486392498016357e-01],"default_left":[true,true,true,true,true,true,true,true,true,true,true,true,true,true,true,false,false,false,false,false,false,false,false,false,false,false,false,false,false,false,false],"id":2,"leaf_child_counts":[0,0,0,0,0,0,0,0,0,0,0,0,0,0,0,0,0,0,0,0,0,0,0,0,0,0,0,0,0,0,0],"left_children":[1,3,5,7,9,11,13,15,17,19,21,23,25,27,29,-1,-1,-1,-1,-1,-1,-1,-1,-1,-1,-1,-1,-1,-1,-1,-1],"loss_changes":[4.47422485351562500e+02,4.70174285888671875e+02,9.66575012207031250e+01,1.17995605468750000e+02,5.66018188476562500e+02,9.05410766601562500e+00,6.51973419189453125e+01,1.29822177886962891e+01,9.39213256835937500e+01,2.89729125976562500e+02,1.59897583007812500e+02,2.10112166404724121e+00,2.91415405273437500e+00,1.73485870361328125e+01,2.15843334197998047e+01,0.00000000000000000e+00,0.00000000000000000e+00,0.00000000000000000e+00,0.00000000000000000e+00,0.00000000000000000e+00,0.00000000000000000e+00,0.00000000000000000e+00,0.00000000000000000e+00,0.00000000000000000e+00,0.00000000000000000e+00,0.00000000000000000e+00,0.00000000000000000e+00,0.00000000000000000e+00,0.00000000000000000e+00,0.00000000000000000e+00,0.00000000000000000e+00],"parents":[2147483647,0,0,1,1,2,2,3,3,4,4,5,5,6,6,7,7,8,8,9,9,10,10,11,11,12,12,13,13,14,14],"right_children":[2,4,6,8,10,12,14,16,18,20,22,24,26,28,30,-1,-1,-1,-1,-1,-1,-1,-1,-1,-1,-1,-1,-1,-1,-1,-1],"split_conditions":[2.43500000000000000e+02,1.03631500000000000e+05,7.65000000000000000e+01,8.10166716575622559e-01,6.53350000000000000e+03,1.32475368445739150e-04,1.14500000000000000e+02,1.15000000000000000e+01,2.34500000000000000e+02,1.56500000000000000e+02,3.37400000000000000e+03,2.04500000000000000e+02,1.00000000000000000e+02,4.77000000000000000e+02,2.31500000000000000e+02,-2.66396582126617432e-01,5.86662665009498596e-02,-9.35799628496170044e-02,3.01041305065155029e-01,3.27221900224685669e-01,-3.20531249046325684e-01,-2.11757287383079529e-01,2.29488939046859741e-01,6.55487626791000366e-02,-7.86499604582786560e-02,-4.02842342853546143e-01,6.39017624780535698e-03,-3.03079307079315186e-01,8.58169868588447571e-02,-1.39406874775886536e-01,2.08045929670333862e-01],"split_indices":[62,22,128,91,43,92,50,71,145,58,41,63,70,136,136,0,0,0,0,0,0,0,0,0,0,0,0,0,0,0,0],"sum_hessian":[2.35010449218750000e+03,2.00592114257812500e+03,3.44183441162109375e+02,8.60360778808593750e+02,1.14556030273437500e+03,2.22780364990234375e+02,1.21403060913085938e+02,3.94644012451171875e+01,8.20896362304687500e+02,5.74944641113281250e+02,5.70615661621093750e+02,6.74562311172485352e+00,2.16034744262695313e+02,5.71470260620117188e+01,6.42560348510742188e+01,3.10696392059326172e+01,8.39476490020751953e+00,5.16572151184082031e+01,7.69239196777343750e+02,5.81399307250976563e+01,5.16804748535156250e+02,7.43175735473632813e+01,4.96298095703125000e+02,2.90138864517211914e+00,3.84423446655273438e+00,2.14925628662109375e+02,1.10911405086517334e+00,5.16338272094726563e+01,5.51319980621337891e+00,9.51268196105957031e+00,5.47433509826660156e+01],"tree_param":{"num_deleted":"0","num_feature":"168","num_nodes":"31","size_leaf_vector":"0"}},{"base_weights":[7.16083869338035583e-02,2.74151176214218140e-01,-5.91070532798767090e-01,-2.46980413794517517e-02,8.44638705253601074e-01,-1.07916779816150665e-01,-1.04897999763488770e+00,3.08245271444320679e-01,-6.84153914451599121e-01,-7.46696591377258301e-01,9.49004292488098145e-01,-9.34930682182312012e-01,3.71313601732254028e-01,-1.11414349079132080e+00,-2.18717232346534729e-01,-7.31593608856201172e-01,4.67312365770339966e-01,-9.00262236595153809e-01,1.23652555048465729e-01,-8.74533116817474365e-01,1.03363752365112305e-01,-1.12905062735080719e-01,1.03853619098663330e+00,2.14304894208908081e-01,-1.05130684375762939e+00,-6.44161522388458252e-01,5.42143464088439941e-01,-1.13465285301208496e+00,1.28738000988960266e-01,-5.30905783176422119e-01,3.57001423835754395e-01],"default_left":[true,true,true,true,true,true,true,true,true,true,true,true,true,true,true,false,false,false,false,false,false,false,false,false,false,false,false,false,false,false,false],"id":3,"leaf_child_counts":[0,0,0,0,0,0,0,0,0,0,0,0,0,0,0,0,0,0,0,0,0,0,0,0,0,0,0,0,0,0,0],"left_children":[1,3,5,7,9,11,13,15,17,19,21,23,25,27,29,-1,-1,-1,-1,-1,-1,-1,-1,-1,-1,-1,-1,-1,-1,-1,-1],"loss_changes":[2.96965515136718750e+02,2.88603637695312500e+02,1.13003936767578125e+02,2.50001968383789063e+02,1.07241821289062500e+02,1.11816459655761719e+02,1.06526794433593750e+01,1.30405792236328125e+02,6.83277130126953125e+01,6.15887260437011719e+00,5.42898559570312500e+01,1.71484451293945313e+01,3.66441345214843750e+01,8.34835815429687500e+00,9.65658855438232422e+00,0.00000000000000000e+00,0.00000000000000000e+00,0.00000000000000000e+00,0.00000000000000000e+00,0.00000000000000000e+00,0.00000000000000000e+00,0.00000000000000000e+00,0.00000000000000000e+00,0.00000000000000000e+00,0.00000000000000000e+00,0.00000000000000000e+00,0.00000000000000000e+00,0.00000000000000000e+00,0.00000000000000000e+00,0.00000000000000000e+00,0.00000000000000000e+00],"parents":[2147483647,0,0,1,1,2,2,3,3,4,4,5,5,6,6,7,7,8,8,9,9,10,10,11,11,12,12,13,13,14,14],"right_children":[2,4,6,8,10,12,14,16,18,20,22,24,26,28,30,-1,-1,-1,-1,-1,-1,-1,-1,-1,-1,-1,-1,-1,-1,-1,-1],"split_conditions":[2.13500000000000000e+02,2.62500000000000000e+02,1.93500000000000000e+02,2.22500000000000000e+02,5.55000000000000000e+01,2.54500000000000000e+02,3.87350000000000000e+03,4.25750000000000000e+03,1.00640000000000000e+04,1.09500000000000000e+02,2.85500000000000000e+02,1.45000000000000000e+01,2.07450000000000000e+03,1.47000000000000000e+02,1.41500000000000000e+02,-2.19478085637092590e-01,1.40193715691566467e-01,-2.70078688859939575e-01,3.70957665145397186e-02,-2.62359946966171265e-01,3.10091264545917511e-02,-3.38715203106403351e-02,3.11560869216918945e-01,6.42914697527885437e-02,-3.15392076969146729e-01,-1.93248465657234192e-01,1.62643045186996460e-01,-3.40395867824554443e-01,3.86214032769203186e-02,-1.59271746873855591e-01,1.07100434601306915e-01],"split_indices":[59,100,63,62,117,145,43,42,43,66,109,98,42,101,48,0,0,0,0,0,0,0,0,0,0,0,0,0,0,0,0],"sum_hessian":[2.17940478515625000e+03,1.67595605468750000e+03,5.03448822021484375e+02,1.10923510742187500e+03,5.66720886230468750e+02,2.53990783691406250e+02,2.49458038330078125e+02,7.42402648925781250e+02,3.66832519531250000e+02,2.91980628967285156e+01,5.37522827148437500e+02,8.79503097534179688e+01,1.66040466308593750e+02,2.26548553466796875e+02,2.29094867706298828e+01,9.13365478515625000e+01,6.51066101074218750e+02,2.88054077148437500e+02,7.87784271240234375e+01,2.50057296752929688e+01,4.19233322143554688e+00,4.14913330078125000e+01,4.96031524658203125e+02,6.92659807205200195e+00,8.10237121582031250e+01,1.79251499176025391e+01,1.48115310668945313e+02,2.24155822753906250e+02,2.39272046089172363e+00,1.56115550994873047e+01,7.29793167114257813e+00],"tree_param":{"num_deleted":"0","num_feature":"168","num_nodes":"31","size_leaf_vector":"0"}},{"base_weights":[4.80968616902828217e-02,2.10408985614776611e-01,-5.42656362056732178e-01,6.97241365909576416e-01,-8.34943130612373352e-02,-9.35418605804443359e-01,-1.62703007459640503e-01,-4.07690525054931641e-01,7.94364392757415771e-01,-8.06854188442230225e-01,2.94212400913238525e-01,3.57950508594512939e-01,-1.00110673904418945e+00,-6.42486453056335449e-01,5.36551833152770996e-01,-6.23609781265258789e-01,3.16584408283233643e-01,-4.30638343095779419e-01,8.53465318679809570e-01,5.73937416076660156e-01,-9.36809599399566650e-01,-4.49902683496475220e-01,5.66170573234558105e-01,-1.03309564292430878e-01,4.65033322572708130e-01,-1.07649862766265869e+00,-1.79714977741241455e-01,2.36958175897598267e-01,-9.12499547004699707e-01,-4.62571799755096436e-01,7.16859102249145508e-01],"default_left":[true,true,true,true,true,true,true,true,true,true,true,true,true,true,true,false,false,false,false,false,false,false,false,false,false,false,false,false,false,false,false],"id":4,"leaf_child_counts":[0,0,0,0,0,0,0,0,0,0,0,0,0,0,0,0,0,0,0,0,0,0,0,0,0,0,0,0,0,0,0],"left_children":[1,3,5,7,9,11,13,15,17,19,21,23,25,27,29,-1,-1,-1,-1,-1,-1,-1,-1,-1,-1,-1,-1,-1,-1,-1,-1],"loss_changes":[1.98384918212890625e+02,2.32639938354492188e+02,6.43152160644531250e+01,7.04672851562500000e+01,2.83184295654296875e+02,2.37501068115234375e+01,8.73643188476562500e+01,1.22366094589233398e+01,4.65679016113281250e+01,7.17824707031250000e+01,1.42110610961914063e+02,1.78272700309753418e+00,1.00887756347656250e+01,3.93673324584960938e+01,2.44064884185791016e+01,0.00000000000000000e+00,0.00000000000000000e+00,0.00000000000000000e+00,0.00000000000000000e+00,0.00000000000000000e+00,0.00000000000000000e+00,0.00000000000000000e+00,0.00000000000000000e+00,0.00000000000000000e+00,0.00000000000000000e+00,0.00000000000000000e+00,0.00000000000000000e+00,0.00000000000000000e+00,0.00000000000000000e+00,0.00000000000000000e+00,0.00000000000000000e+00],"parents":[2147483647,0,0,1,1,2,2,3,3,4,4,5,5,6,6,7,7,8,8,9,9,10,10,11,11,12,12,13,13,14,14],"right_children":[2,4,6,8,10,12,14,16,18,20,22,24,26,28,30,-1,-1,-1,-1,-1,-1,-1,-1,-1,-1,-1,-1,-1,-1,-1,-1],"split_conditions":[2.34500000000000000e+02,2.50000000000000000e+00,6.65000000000000000e+01,9.55000000000000000e+01,4.98850000000000000e+03,1.38274568598717451e-04,2.32500000000000000e+02,7.69100000000000000e+03,5.00000000000000000e-01,1.56500000000000000e+02,4.82200000000000000e+03,1.35500000000000000e+03,1.06500000000000000e+02,1.90500000000000000e+02,3.21100000000000000e+03,-1.87082946300506592e-01,9.49753299355506897e-02,-1.29191502928733826e-01,2.56039619445800781e-01,1.72181233763694763e-01,-2.81042903661727905e-01,-1.34970813989639282e-01,1.69851183891296387e-01,-3.09928711503744125e-02,1.39510005712509155e-01,-3.22949588298797607e-01,-5.39144948124885559e-02,7.10874572396278381e-02,-2.73749887943267822e-01,-1.38771548867225647e-01,2.15057745575904846e-01],"split_indices":[62,157,128,50,43,92,56,42,161,58,47,1,162,61,43,0,0,0,0,0,0,0,0,0,0,0,0,0,0,0,0],"sum_hessian":[2.03609582519531250e+03,1.60482141113281250e+03,4.31274475097656250e+02,5.96376281738281250e+02,1.00844512939453125e+03,2.01280014038085938e+02,2.29994445800781250e+02,4.43102684020996094e+01,5.52065979003906250e+02,3.40087768554687500e+02,6.68357360839843750e+02,6.50286197662353516e+00,1.94777160644531250e+02,1.37125534057617188e+02,9.28689117431640625e+01,3.57402687072753906e+01,8.56999874114990234e+00,2.10688190460205078e+01,5.30997192382812500e+02,2.48463211059570313e+01,3.15241455078125000e+02,1.76262954711914063e+02,4.92094390869140625e+02,1.32480478286743164e+00,5.17805671691894531e+00,1.74135360717773438e+02,2.06417999267578125e+01,3.26427993774414063e+01,1.04482742309570313e+02,1.06076364517211914e+01,8.22612762451171875e+01],"tree_param":{"num_deleted":"0","num_feature":"168","num_nodes":"31","size_leaf_vector":"0"}},{"base_weights":[3.32833081483840942e-02,-7.21720457077026367e-01,1.43631309270858765e-01,-9.00995671749114990e-01,2.58067071437835693e-01,-9.40767303109169006e-02,5.78369915485382080e-01,-8.42545479536056519e-02,-9.80472683906555176e-01,-5.95070421695709229e-01,5.92912793159484863e-01,-6.84338808059692383e-01,1.97669118642807007e-01,-5.99816858768463135e-01,6.89362287521362305e-01,-4.99397516250610352e-01,3.87047260999679565e-01,-1.13692188262939453e+00,-3.90689998865127563e-01,2.13083084672689438e-02,-6.46921634674072266e-01,-2.24111467599868774e-01,7.33396351337432861e-01,3.96056890487670898e-01,-8.25550317764282227e-01,-8.48358869552612305e-02,6.72934770584106445e-01,1.30069777369499207e-01,-8.00635218620300293e-01,-7.20852792263031006e-01,7.71840214729309082e-01],"default_left":[true,true,true,true,true,true,true,true,true,true,true,true,true,true,true,false,false,false,false,false,false,false,false,false,false,false,false,false,false,false,false],"id":5,"leaf_child_counts":[0,0,0,0,0,0,0,0,0,0,0,0,0,0,0,0,0,0,0,0,0,0,0,0,0,0,0,0,0,0,0],"left_children":[1,3,5,7,9,11,13,15,17,19,21,23,25,27,29,-1,-1,-1,-1,-1,-1,-1,-1,-1,-1,-1,-1,-1,-1,-1,-1],"loss_changes":[1.59429046630859375e+02,4.63695678710937500e+01,1.72963287353515625e+02,1.23735504150390625e+01,1.94102745056152344e+01,1.89709701538085938e+02,8.34821624755859375e+01,9.74880123138427734e+00,1.08412475585937500e+01,8.91228675842285156e-01,7.40141582489013672e+00,6.04163665771484375e+01,1.00346488952636719e+02,1.01953125000000000e+01,7.19752502441406250e+01,0.00000000000000000e+00,0.00000000000000000e+00,0.00000000000000000e+00,0.00000000000000000e+00,0.00000000000000000e+00,0.00000000000000000e+00,0.00000000000000000e+00,0.00000000000000000e+00,0.00000000000000000e+00,0.00000000000000000e+00,0.00000000000000000e+00,0.00000000000000000e+00,0.00000000000000000e+00,0.00000000000000000e+00,0.00000000000000000e+00,0.00000000000000000e+00],"parents":[2147483647,0,0,1,1,2,2,3,3,4,4,5,5,6,6,7,7,8,8,9,9,10,10,11,11,12,12,13,13,14,14],"right_children":[2,4,6,8,10,12,14,16,18,20,22,24,26,28,30,-1,-1,-1,-1,-1,-1,-1,-1,-1,-1,-1,-1,-1,-1,-1,-1],"split_conditions":[4.15000000000000000e+01,7.58074250000000000e+06,2.30500000000000000e+02,6.25000000000000000e+01,4.07450000000000000e+03,4.78600000000000000e+03,7.55000000000000000e+01,2.75000000000000000e+01,7.15000000000000000e+01,2.15000000000000000e+01,2.55000000000000000e+01,1.05640431866049767e-02,1.24423146247863770e+00,2.55591894531250000e+03,5.15000000000000000e+01,-1.49819254875183105e-01,1.16114184260368347e-01,-3.41076582670211792e-01,-1.17207005620002747e-01,6.39249291270971298e-03,-1.94076493382453918e-01,-6.72334432601928711e-02,2.20018908381462097e-01,1.18817068636417389e-01,-2.47665107250213623e-01,-2.54507679492235184e-02,2.01880440115928650e-01,3.90209332108497620e-02,-2.40190580487251282e-01,-2.16255843639373779e-01,2.31552079319953918e-01],"split_indices":[128,16,56,52,41,43,55,68,126,152,71,92,93,7,117,0,0,0,0,0,0,0,0,0,0,0,0,0,0,0,0],"sum_hessian":[1.87994836425781250e+03,2.29129882812500000e+02,1.65081848144531250e+03,1.94709457397460938e+02,3.44204216003417969e+01,1.07485778808593750e+03,5.75960754394531250e+02,2.00072937011718750e+01,1.74702163696289063e+02,6.41604995727539063e+00,2.80043716430664063e+01,3.48858978271484375e+02,7.25998718261718750e+02,4.38999366760253906e+01,5.32060852050781250e+02,1.01619853973388672e+01,9.84530925750732422e+00,1.27077423095703125e+02,4.76247367858886719e+01,1.18346023559570313e+00,5.23258972167968750e+00,2.79865670204162598e+00,2.52057151794433594e+01,3.71970863342285156e+01,3.11661895751953125e+02,4.63067169189453125e+02,2.62931579589843750e+02,1.06125354766845703e+01,3.32874031066894531e+01,2.29837207794189453e+01,5.09077117919921875e+02],"tree_param":{"num_deleted":"0","num_feature":"168","num_nodes":"31","size_leaf_vector":"0"}},{"base_weights":[2.02451441437005997e-02,1.36307775974273682e-01,-5.95455765724182129e-01,-6.76742911338806152e-01,2.46064260601997375e-01,-9.94260311126708984e-01,4.71098601818084717e-01,-8.67185354232788086e-01,-1.29150927066802979e-01,-4.16529864072799683e-01,3.40250670909881592e-01,2.30847433209419250e-01,-1.15162980556488037e+00,-4.66743588447570801e-01,7.29577422142028809e-01,-1.16764847189188004e-02,-9.66084361076354980e-01,2.48902425169944763e-01,-6.27478361129760742e-01,6.73783779144287109e-01,-7.24748909473419189e-01,3.95355254411697388e-01,-6.14367663860321045e-01,-3.03209632635116577e-01,4.77945804595947266e-01,-1.19660353660583496e+00,1.26577123999595642e-01,-6.07242703437805176e-01,9.62693542242050171e-02,-2.44739130139350891e-01,8.08307468891143799e-01],"default_left":[true,true,true,true,true,true,true,true,true,true,true,true,true,true,true,false,false,false,false,false,false,false,false,false,false,false,false,false,false,false,false],"id":6,"leaf_child_counts":[0,0,0,0,0,0,0,0,0,0,0,0,0,0,0,0,0,0,0,0,0,0,0,0,0,0,0,0,0,0,0],"left_children":[1,3,5,7,9,11,13,15,17,19,21,23,25,27,29,-1,-1,-1,-1,-1,-1,-1,-1,-1,-1,-1,-1,-1,-1,-1,-1],"loss_changes":[1.27613708496093750e+02,1.36393371582031250e+02,1.27540832519531250e+02,1.73476486206054688e+01,8.53136901855468750e+01,4.46761016845703125e+01,2.62676200866699219e+01,1.10627899169921875e+01,1.45330438613891602e+01,6.53422927856445313e+01,6.54706878662109375e+01,6.99296569824218750e+00,1.31670074462890625e+01,3.09234571456909180e+00,8.66530227661132813e+00,0.00000000000000000e+00,0.00000000000000000e+00,0.00000000000000000e+00,0.00000000000000000e+00,0.00000000000000000e+00,0.00000000000000000e+00,0.00000000000000000e+00,0.00000000000000000e+00,0.00000000000000000e+00,0.00000000000000000e+00,0.00000000000000000e+00,0.00000000000000000e+00,0.00000000000000000e+00,0.00000000000000000e+00,0.00000000000000000e+00,0.00000000000000000e+00],"parents":[2147483647,0,0,1,1,2,2,3,3,4,4,5,5,6,6,7,7,8,8,9,9,10,10,11,11,12,12,13,13,14,14],"right_children":[2,4,6,8,10,12,14,16,18,20,22,24,26,28,30,-1,-1,-1,-1,-1,-1,-1,-1,-1,-1,-1,-1,-1,-1,-1,-1],"split_conditions":[3.25000000000000000e+01,2.98450000000000000e+03,9.55000000000000000e+01,8.75000000000000000e+01,9.65000000000000000e+01,1.41000000000000000e+02,4.45000000000000000e+01,7.00466427952051163e-03,4.08400000000000000e+03,2.05000000000000000e+01,1.45115566253662109e+00,7.00000000000000000e+01,8.80396600000000000e+06,4.76664602756500244e-01,1.28540000000000000e+04,-3.50294564850628376e-03,-2.89825320243835449e-01,7.46707320213317871e-02,-1.88243523240089417e-01,2.02135145664215088e-01,-2.17424675822257996e-01,1.18606582283973694e-01,-1.84310302138328552e-01,-9.09628942608833313e-02,1.43383741378784180e-01,-3.58981072902679443e-01,3.79731394350528717e-02,-1.82172819972038269e-01,2.88808066397905350e-02,-7.34217390418052673e-02,2.42492243647575378e-01],"split_indices":[107,42,67,155,49,58,71,93,45,118,92,153,16,72,4,0,0,0,0,0,0,0,0,0,0,0,0,0,0,0,0],"sum_hessian":[1.75377221679687500e+03,1.48543896484375000e+03,2.68333312988281250e+02,1.67458343505859375e+02,1.31798059082031250e+03,1.96045120239257813e+02,7.22881927490234375e+01,1.17751884460449219e+02,4.97064552307128906e+01,1.57642440795898438e+02,1.16033813476562500e+03,2.15188674926757813e+01,1.74526260375976563e+02,1.30073728561401367e+01,5.92808189392089844e+01,1.39397153854370117e+01,1.03812164306640625e+02,3.25331954956054688e+01,1.71732616424560547e+01,3.08215370178222656e+01,1.26820899963378906e+02,1.10532214355468750e+03,5.50160675048828125e+01,5.72947263717651367e+00,1.57893943786621094e+01,1.69519348144531250e+02,5.00691223144531250e+00,9.46660709381103516e+00,3.54076576232910156e+00,2.06737971305847168e+00,5.72134361267089844e+01],"tree_param":{"num_deleted":"0","num_feature":"168","num_nodes":"31","size_leaf_vector":"0"}},{"base_weights":[5.71607658639550209e-03,-1.02025115489959717e+00,6.29216656088829041e-02,2.06891372799873352e-01,-1.14589059352874756e+00,2.60901898145675659e-01,-2.36510351300239563e-01,3.33763271570205688e-01,-1.30160301923751831e-01,-1.15601456165313721e+00,-2.82241795212030411e-02,5.77438473701477051e-01,-2.44556833058595657e-03,-8.84323537349700928e-01,-3.22030745446681976e-02,-1.17239379882812500e+00,-7.38593712449073792e-02,-4.08949166536331177e-01,6.61294281482696533e-01,-4.60624992847442627e-01,7.25758075714111328e-01,2.13357672095298767e-01,-9.79933202266693115e-01,-4.64627921581268311e-01,4.68161702156066895e-01],"default_left":[true,true,true,true,true,true,true,false,false,true,false,true,true,true,true,false,false,false,false,false,false,false,false,false,false],"id":7,"leaf_child_counts":[0,0,0,0,0,0,0,0,0,0,0,0,0,0,0,0,0,0,0,0,0,0,0,0,0],"left_children":[1,3,5,7,9,11,13,-1,-1,15,-1,17,19,21,23,-1,-1,-1,-1,-1,-1,-1,-1,-1,-1],"loss_changes":[9.95423049926757813e+01,1.73669891357421875e+01,9.60757904052734375e+01,1.55073964595794678e+00,4.56001281738281250e-01,8.11580886840820313e+01,8.51670837402343750e+01,0.00000000000000000e+00,0.00000000000000000e+00,1.62117004394531250e-01,0.00000000000000000e+00,4.06241455078125000e+01,1.87268692016601563e+02,1.93498077392578125e+01,1.13010322570800781e+02,0.00000000000000000e+00,0.00000000000000000e+00,0.00000000000000000e+00,0.00000000000000000e+00,0.00000000000000000e+00,0.00000000000000000e+00,0.00000000000000000e+00,0.00000000000000000e+00,0.00000000000000000e+00,0.00000000000000000e+00],"parents":[2147483647,0,0,1,1,2,2,3,3,4,4,5,5,6,6,9,9,11,11,12,12,13,13,14,14],"right_children":[2,4,6,8,10,12,14,-1,-1,16,-1,18,20,22,24,-1,-1,-1,-1,-1,-1,-1,-1,-1,-1],"split_conditions":[3.25000000000000000e+01,9.75000000000000000e+01,2.20500000000000000e+02,5.60000000000000000e+01,1.28000000000000000e+02,6.15350000000000000e+03,3.32250000000000000e+03,1.00128985941410065e-01,-3.90480905771255493e-02,1.26500000000000000e+02,-8.46725422888994217e-03,6.50000000000000000e+00,3.27182812500000000e+03,2.28438526391983032e-04,2.69500000000000000e+02,-3.51718157529830933e-01,-2.21578124910593033e-02,-1.22684754431247711e-01,1.98388293385505676e-01,-1.38187497854232788e-01,2.17727437615394592e-01,6.40073046088218689e-02,-2.93979972600936890e-01,-1.39388382434844971e-01,1.40448510646820068e-01],"split_indices":[55,58,62,163,128,6,43,0,0,50,0,146,82,92,136,0,0,0,0,0,0,0,0,0,0],"sum_hessian":[1.66463171386718750e+03,7.45777206420898438e+01,1.59005395507812500e+03,6.02545547485351563e+00,6.85522613525390625e+01,9.58341918945312500e+02,6.31712036132812500e+02,4.48396253585815430e+00,1.54149317741394043e+00,6.74268341064453125e+01,1.12542772293090820e+00,4.27095001220703125e+02,5.31246948242187500e+02,1.39490982055664063e+02,4.92221069335937500e+02,6.51893310546875000e+01,2.23750376701354980e+00,2.89074535369873047e+01,3.98187530517578125e+02,3.29463256835937500e+02,2.01783676147460938e+02,9.69626617431640625e+00,1.29794723510742188e+02,2.64610717773437500e+02,2.27610351562500000e+02],"tree_param":{"num_deleted":"0","num_feature":"168","num_nodes":"25","size_leaf_vector":"0"}},{"base_weights":[1.10112316906452179e-03,6.39260336756706238e-02,-8.09879183769226074e-01,1.31391718983650208e-01,-6.53672814369201660e-01,-9.40414845943450928e-01,1.18080899119377136e-01,2.40617901086807251e-01,-3.47889184951782227e-01,-7.96978771686553955e-01,7.80887082219123840e-02,-1.05634689331054688e+00,1.70946866273880005e-01,3.16382288932800293e-01,-2.27081149816513062e-01,-1.96173235774040222e-01,3.59178692102432251e-01,-7.61952042579650879e-01,3.02428185939788818e-01,-8.60252380371093750e-01,1.08870550990104675e-01,-3.42363655567169189e-01,3.98667067289352417e-01,-1.78469717502593994e-02,-1.06689798831939697e+00,-1.43528267741203308e-01,3.05302113294601440e-01,-5.30815534293651581e-02,3.71653556823730469e-01,5.26588335633277893e-02,-2.88771718740463257e-01],"default_left":[true,true,true,true,true,true,true,true,true,true,true,true,true,true,true,false,false,false,false,false,false,false,false,false,false,false,false,false,false,false,false],"id":8,"leaf_child_counts":[0,0,0,0,0,0,0,0,0,0,0,0,0,0,0,0,0,0,0,0,0,0,0,0,0,0,0,0,0,0,0],"left_children":[1,3,5,7,9,11,13,15,17,19,21,23,25,27,29,-1,-1,-1,-1,-1,-1,-1,-1,-1,-1,-1,-1,-1,-1,-1,-1],"loss_changes":[8.16543121337890625e+01,7.32872619628906250e+01,1.56235198974609375e+01,7.30725173950195313e+01,1.45988960266113281e+01,1.59397201538085938e+01,2.96245765686035156e+00,5.93740921020507813e+01,7.36688537597656250e+01,7.72743988037109375e+00,6.76521253585815430e+00,7.56225585937500000e-01,1.61264193058013916e+00,7.81048536300659180e-01,5.52191019058227539e-01,0.00000000000000000e+00,0.00000000000000000e+00,0.00000000000000000e+00,0.00000000000000000e+00,0.00000000000000000e+00,0.00000000000000000e+00,0.00000000000000000e+00,0.00000000000000000e+00,0.00000000000000000e+00,0.00000000000000000e+00,0.00000000000000000e+00,0.00000000000000000e+00,0.00000000000000000e+00,0.00000000000000000e+00,0.00000000000000000e+00,0.00000000000000000e+00],"parents":[2147483647,0,0,1,1,2,2,3,3,4,4,5,5,6,6,7,7,8,8,9,9,10,10,11,11,12,12,13,13,14,14],"right_children":[2,4,6,8,10,12,14,16,18,20,22,24,26,28,30,-1,-1,-1,-1,-1,-1,-1,-1,-1,-1,-1,-1,-1,-1,-1,-1],"split_conditions":[1.09500000000000000e+02,2.50500000000000000e+02,2.66500000000000000e+02,1.75000000000000000e+01,9.65000000000000000e+01,1.12641750000000000e+06,-2.54568886011838913e-02,1.09500000000000000e+02,1.00500000000000000e+02,8.50000000000000000e+00,3.34500000000000000e+02,1.60000000000000000e+01,1.38606643676757813e+00,5.70000000000000000e+01,6.65000000000000000e+01,-5.88519722223281860e-02,1.07753612101078033e-01,-2.28585615754127502e-01,9.07284617424011230e-02,-2.58075714111328125e-01,3.26611660420894623e-02,-1.02709099650382996e-01,1.19600124657154083e-01,-5.35409152507781982e-03,-3.20069402456283569e-01,-4.30584810674190521e-02,9.15906354784965515e-02,-1.59244667738676071e-02,1.11496068537235260e-01,1.57976504415273666e-02,-8.66315215826034546e-02],"split_indices":[146,62,100,148,128,21,78,49,67,150,136,101,95,128,135,0,0,0,0,0,0,0,0,0,0,0,0,0,0,0,0],"sum_hessian":[1.57240136718750000e+03,1.47217285156250000e+03,1.00228469848632813e+02,1.35685998535156250e+03,1.15312881469726563e+02,8.76916122436523438e+01,1.25368604660034180e+01,1.11111157226562500e+03,2.45748413085937500e+02,9.53106689453125000e+01,2.00022125244140625e+01,8.00805206298828125e+01,7.61108732223510742e+00,8.75669765472412109e+00,3.78016281127929688e+00,2.35112350463867188e+02,8.75999267578125000e+02,1.48574661254882813e+02,9.71737442016601563e+01,8.97936325073242188e+01,5.51704072952270508e+00,8.21220493316650391e+00,1.17900066375732422e+01,1.21149206161499023e+00,7.88690338134765625e+01,1.97177863121032715e+00,5.63930892944335938e+00,1.21685254573822021e+00,7.53984498977661133e+00,1.07979917526245117e+00,2.70036363601684570e+00],"tree_param":{"num_deleted":"0","num_feature":"168","num_nodes":"31","size_leaf_vector":"0"}},{"base_weights":[-6.47057313472032547e-03,7.56945967674255371e-01,-6.29516094923019409e-02,-3.25886517763137817e-01,9.51703965663909912e-01,-7.81910896301269531e-01,3.65740433335304260e-02,-5.34179866313934326e-01,1.94005280733108521e-01,-2.05622002482414246e-01,1.02881038188934326e+00,-9.14858043193817139e-01,3.49354177713394165e-01,2.44095310568809509e-01,-2.74963319301605225e-01,3.26797515153884888e-02,-6.04968309402465820e-01,-4.78795468807220459e-02,2.48355612158775330e-01,-2.23819985985755920e-01,4.65218769386410713e-03,1.08936870098114014e+00,-1.69778198003768921e-01,-1.30591332912445068e-01,-1.04160630702972412e+00,5.30684590339660645e-01,-2.11354106664657593e-01,-1.52103692293167114e-01,4.39486205577850342e-01,-4.95457291603088379e-01,4.32698339223861694e-01],"default_left":[true,true,true,true,true,true,true,true,true,true,true,true,true,true,true,false,false,false,false,false,false,false,false,false,false,false,false,false,false,false,false],"id":9,"leaf_child_counts":[0,0,0,0,0,0,0,0,0,0,0,0,0,0,0,0,0,0,0,0,0,0,0,0,0,0,0,0,0,0,0],"left_children":[1,3,5,7,9,11,13,15,17,19,21,23,25,27,29,-1,-1,-1,-1,-1,-1,-1,-1,-1,-1,-1,-1,-1,-1,-1,-1],"loss_changes":[6.62704925537109375e+01,2.69825706481933594e+01,1.02714797973632813e+02,4.51247692108154297e+00,1.15231857299804688e+01,3.10372619628906250e+01,8.31119689941406250e+01,1.23946905136108398e+00,4.25745904445648193e-01,8.58215093612670898e-02,9.32318878173828125e+00,1.38927612304687500e+01,4.65177536010742188e+00,6.06256408691406250e+01,8.35422058105468750e+01,0.00000000000000000e+00,0.00000000000000000e+00,0.00000000000000000e+00,0.00000000000000000e+00,0.00000000000000000e+00,0.00000000000000000e+00,0.00000000000000000e+00,0.00000000000000000e+00,0.00000000000000000e+00,0.00000000000000000e+00,0.00000000000000000e+00,0.00000000000000000e+00,0.00000000000000000e+00,0.00000000000000000e+00,0.00000000000000000e+00,0.00000000000000000e+00],"parents":[2147483647,0,0,1,1,2,2,3,3,4,4,5,5,6,6,7,7,8,8,9,9,10,10,11,11,12,12,13,13,14,14],"right_children":[2,4,6,8,10,12,14,16,18,20,22,24,26,28,30,-1,-1,-1,-1,-1,-1,-1,-1,-1,-1,-1,-1,-1,-1,-1,-1],"split_conditions":[2.05000000000000000e+01,5.95000000000000000e+01,5.55000000000000000e+01,2.53798246383666992e-01,2.95000000000000000e+01,1.84115000000000000e+04,-3.54995578527450562e-02,7.50000000000000000e+00,1.02000000000000000e+02,3.60000000000000000e+01,8.45000000000000000e+01,3.45000000000000000e+01,2.37545050000000000e+06,1.10500000000000000e+02,3.65426831054687500e+03,9.80392564088106155e-03,-1.81490495800971985e-01,-1.43638644367456436e-02,7.45066851377487183e-02,-6.71459957957267761e-02,1.39565637800842524e-03,3.26810628175735474e-01,-5.09334616363048553e-02,-3.91774028539657593e-02,-3.12481909990310669e-01,1.59205377101898193e-01,-6.34062364697456360e-02,-4.56311106681823730e-02,1.31845861673355103e-01,-1.48637190461158752e-01,1.29809513688087463e-01],"split_indices":[118,54,55,78,146,42,78,118,154,98,137,117,17,50,83,0,0,0,0,0,0,0,0,0,0,0,0,0,0,0,0],"sum_hessian":[1.50535986328125000e+03,9.08861236572265625e+01,1.41447375488281250e+03,1.23152704238891602e+01,7.85708465576171875e+01,1.59490585327148438e+02,1.25498315429687500e+03,8.49823188781738281e+00,3.81703829765319824e+00,3.34613466262817383e+00,7.52247161865234375e+01,1.45285919189453125e+02,1.42046670913696289e+01,7.55185913085937500e+02,4.99797241210937500e+02,1.83989632129669189e+00,6.65833568572998047e+00,1.02796387672424316e+00,2.78907442092895508e+00,2.19028306007385254e+00,1.15585160255432129e+00,7.29079208374023438e+01,2.31679725646972656e+00,2.44505786895751953e+01,1.20835350036621094e+02,1.13404197692871094e+01,2.86424756050109863e+00,2.50521118164062500e+02,5.04664825439453125e+02,3.84494140625000000e+02,1.15303092956542969e+02],"tree_param":{"num_deleted":"0","num_feature":"168","num_nodes":"31","size_leaf_vector":"0"}},{"base_weights":[-5.15571888536214828e-03,1.02331414818763733e-01,-3.88322561979293823e-01,2.68176048994064331e-01,-1.73432365059852600e-01,-8.39836061000823975e-01,5.55439367890357971e-02,-2.34709054231643677e-01,4.06748563051223755e-01,1.62592038512229919e-01,-5.05425155162811279e-01,2.44969934225082397e-01,-9.04900074005126953e-01,-7.83586740493774414e-01,5.48099279403686523e-01,2.22137808799743652e-01,-7.46811628341674805e-01,4.60952579975128174e-01,-3.92386317253112793e-01,3.17312866449356079e-01,-3.37101340293884277e-01,-4.63024228811264038e-02,-7.50495731830596924e-01,-7.68378525972366333e-02,3.28993141651153564e-01,-9.68598365783691406e-01,1.76573991775512695e-01,-8.70630204677581787e-01,3.12183219939470291e-02,-4.79333549737930298e-01,6.35305821895599365e-01],"default_left":[true,true,true,true,true,true,true,true,true,true,true,true,true,true,true,false,false,false,false,false,false,false,false,false,false,false,false,false,false,false,false],"id":10,"leaf_child_counts":[0,0,0,0,0,0,0,0,0,0,0,0,0,0,0,0,0,0,0,0,0,0,0,0,0,0,0,0,0,0,0],"left_children":[1,3,5,7,9,11,13,15,17,19,21,23,25,27,29,-1,-1,-1,-1,-1,-1,-1,-1,-1,-1,-1,-1,-1,-1,-1,-1],"loss_changes":[6.04971427917480469e+01,5.31853179931640625e+01,6.51816329956054688e+01,5.17843475341796875e+01,5.03308219909667969e+01,1.46485595703125000e+01,7.93173141479492188e+01,4.12319641113281250e+01,2.74880828857421875e+01,1.93925266265869141e+01,2.47992553710937500e+01,9.43825483322143555e-01,1.32119522094726563e+01,5.47083282470703125e+00,1.53132934570312500e+01,0.00000000000000000e+00,0.00000000000000000e+00,0.00000000000000000e+00,0.00000000000000000e+00,0.00000000000000000e+00,0.00000000000000000e+00,0.00000000000000000e+00,0.00000000000000000e+00,0.00000000000000000e+00,0.00000000000000000e+00,0.00000000000000000e+00,0.00000000000000000e+00,0.00000000000000000e+00,0.00000000000000000e+00,0.00000000000000000e+00,0.00000000000000000e+00],"parents":[2147483647,0,0,1,1,2,2,3,3,4,4,5,5,6,6,7,7,8,8,9,9,10,10,11,11,12,12,13,13,14,14],"right_children":[2,4,6,8,10,12,14,16,18,20,22,24,26,28,30,-1,-1,-1,-1,-1,-1,-1,-1,-1,-1,-1,-1,-1,-1,-1,-1],"split_conditions":[2.17500000000000000e+02,7.75000000000000000e+01,3.61500000000000000e+02,3.93300000000000000e+03,-3.41573476791381836e-01,1.91216748046875000e+03,8.05000000000000000e+01,1.35000000000000000e+01,1.10500000000000000e+02,1.15000000000000000e+01,5.57350000000000000e+03,9.02100000000000000e+03,4.25000000000000000e+01,1.01647901535034180e+00,1.15000000000000000e+01,6.66413456201553345e-02,-2.24043503403663635e-01,1.38285785913467407e-01,-1.17715902626514435e-01,9.51938629150390625e-02,-1.01130403578281403e-01,-1.38907274231314659e-02,-2.25148722529411316e-01,-2.30513568967580795e-02,9.86979454755783081e-02,-2.90579527616500854e-01,5.29722012579441071e-02,-2.61189073324203491e-01,9.36549715697765350e-03,-1.43800064921379089e-01,1.90591752529144287e-01],"split_indices":[63,101,109,42,79,4,117,102,135,132,6,42,71,77,144,0,0,0,0,0,0,0,0,0,0,0,0,0,0,0,0],"sum_hessian":[1.43942138671875000e+03,1.13267419433593750e+03,3.06747253417968750e+02,7.07559753417968750e+02,4.25114440917968750e+02,1.45430191040039063e+02,1.61317062377929688e+02,1.50604324340820313e+02,5.56955444335937500e+02,2.15078216552734375e+02,2.10036224365234375e+02,5.88213157653808594e+00,1.39548049926757813e+02,5.63887481689453125e+01,1.04928306579589844e+02,8.40852279663085938e+01,6.65190887451171875e+01,5.27522216796875000e+02,2.94332008361816406e+01,1.68408432006835938e+02,4.66697845458984375e+01,7.93024902343750000e+01,1.30733734130859375e+02,1.48341512680053711e+00,4.39871644973754883e+00,1.33264434814453125e+02,6.28362560272216797e+00,5.00177764892578125e+01,6.37097167968750000e+00,2.93236684799194336e+00,1.01995941162109375e+02],"tree_param":{"num_deleted":"0","num_feature":"168","num_nodes":"31","size_leaf_vector":"0"}},{"base_weights":[-1.27706434577703476e-02,-2.14441239833831787e-01,1.71283751726150513e-01,-4.51408267021179199e-01,-2.48868623748421669e-03,2.43961185216903687e-01,-5.77555894851684570e-01,-5.26138879358768463e-02,-7.43953824043273926e-01,2.84815698862075806e-01,-2.69307792186737061e-01,-6.88312649726867676e-01,2.97859728336334229e-01,-7.83352673053741455e-01,3.20811793208122253e-02,-5.78776001930236816e-01,3.01307618618011475e-01,3.35465908050537109e-01,-8.30301225185394287e-01,4.43694770336151123e-01,-2.41866081953048706e-01,-4.63852137327194214e-01,3.36345285177230835e-01,7.25809931755065918e-02,-7.47651755809783936e-01,3.48965793848037720e-01,-4.82521384954452515e-01,2.46501222252845764e-01,-9.19830441474914551e-01,-3.71880561113357544e-01,3.64277780055999756e-01],"default_left":[true,true,true,true,true,true,true,true,true,true,true,true,true,true,true,false,false,false,false,false,false,false,false,false,false,false,false,false,false,false,false],"id":11,"leaf_child_counts":[0,0,0,0,0,0,0,0,0,0,0,0,0,0,0,0,0,0,0,0,0,0,0,0,0,0,0,0,0,0,0],"left_children":[1,3,5,7,9,11,13,15,17,19,21,23,25,27,29,-1,-1,-1,-1,-1,-1,-1,-1,-1,-1,-1,-1,-1,-1,-1,-1],"loss_changes":[5.18889732360839844e+01,3.34647750854492188e+01,4.19226989746093750e+01,3.61223144531250000e+01,2.92816162109375000e+01,3.71084976196289063e+01,9.05454826354980469e+00,3.04167060852050781e+01,2.09890213012695313e+01,1.70058059692382813e+01,2.56670837402343750e+01,2.68990135192871094e+00,2.84792480468750000e+01,1.07519416809082031e+01,6.30821561813354492e+00,0.00000000000000000e+00,0.00000000000000000e+00,0.00000000000000000e+00,0.00000000000000000e+00,0.00000000000000000e+00,0.00000000000000000e+00,0.00000000000000000e+00,0.00000000000000000e+00,0.00000000000000000e+00,0.00000000000000000e+00,0.00000000000000000e+00,0.00000000000000000e+00,0.00000000000000000e+00,0.00000000000000000e+00,0.00000000000000000e+00,0.00000000000000000e+00],"parents":[2147483647,0,0,1,1,2,2,3,3,4,4,5,5,6,6,7,7,8,8,9,9,10,10,11,11,12,12,13,13,14,14],"right_children":[2,4,6,8,10,12,14,16,18,20,22,24,26,28,30,-1,-1,-1,-1,-1,-1,-1,-1,-1,-1,-1,-1,-1,-1,-1,-1],"split_conditions":[2.43168383836746216e-01,5.00150000000000000e+03,1.44117999076843262e+00,2.47350000000000000e+03,-3.87304127216339111e-01,2.85000000000000000e+01,1.33142340183258057e+00,6.75000000000000000e+01,3.18122445605695248e-04,7.15000000000000000e+01,1.51420000000000000e+04,-1.58272421360015869e+00,1.16500000000000000e+02,4.68100000000000000e+03,1.90500000000000000e+02,-1.73632800579071045e-01,9.03922915458679199e-02,1.00639775395393372e-01,-2.49090373516082764e-01,1.33108437061309814e-01,-7.25598260760307312e-02,-1.39155641198158264e-01,1.00903593003749847e-01,2.17742994427680969e-02,-2.24295541644096375e-01,1.04689739644527435e-01,-1.44756421446800232e-01,7.39503726363182068e-02,-2.75949150323867798e-01,-1.11564174294471741e-01,1.09283335506916046e-01],"split_indices":[77,43,92,45,79,128,93,155,92,162,42,78,108,44,56,0,0,0,0,0,0,0,0,0,0,0,0,0,0,0,0],"sum_hessian":[1.36808959960937500e+03,6.51622558593750000e+02,7.16467102050781250e+02,2.99655517578125000e+02,3.51967041015625000e+02,6.62301635742187500e+02,5.41654129028320313e+01,1.34290344238281250e+02,1.65365173339843750e+02,1.68990447998046875e+02,1.82976577758789063e+02,2.65479774475097656e+01,6.35753662109375000e+02,3.72997894287109375e+01,1.68656234741210938e+01,5.01718482971191406e+01,8.41184997558593750e+01,9.04303741455078125e+00,1.56322143554687500e+02,1.31642578125000000e+02,3.73478698730468750e+01,1.41149353027343750e+02,4.18272285461425781e+01,1.67843127250671387e+00,2.48695468902587891e+01,6.04460815429687500e+02,3.12928924560546875e+01,2.94962573051452637e+00,3.43501625061035156e+01,6.80212831497192383e+00,1.00634956359863281e+01],"tree_param":{"num_deleted":"0","num_feature":"168","num_nodes":"31","size_leaf_vector":"0"}},{"base_weights":[-1.73742137849330902e-02,-3.75428557395935059e-01,7.40351751446723938e-02,6.81773945689201355e-02,-7.10189104080200195e-01,-5.48688769340515137e-01,1.57325446605682373e-01,-5.02959132194519043e-01,2.52247959375381470e-01,2.70496934652328491e-01,-8.52955758571624756e-01,2.85119593143463135e-01,-6.87227427959442139e-01,8.28744918107986450e-02,7.40032613277435303e-01,-6.37744724750518799e-01,5.31760789453983307e-03,3.96891236305236816e-01,-3.91865491867065430e-01,-1.88215285539627075e-01,4.24193650484085083e-01,-1.01689922809600830e+00,-1.11091703176498413e-01,-1.89893171191215515e-01,4.72334176301956177e-01,-8.84293079376220703e-01,6.13062977790832520e-02,2.48274877667427063e-01,-4.10893619060516357e-01,-2.24085122346878052e-01,8.93040239810943604e-01],"default_left":[true,true,true,true,true,true,true,true,true,true,true,true,true,true,true,false,false,false,false,false,false,false,false,false,false,false,false,false,false,false,false],"id":12,"leaf_child_counts":[0,0,0,0,0,0,0,0,0,0,0,0,0,0,0,0,0,0,0,0,0,0,0,0,0,0,0,0,0,0,0],"left_children":[1,3,5,7,9,11,13,15,17,19,21,23,25,27,29,-1,-1,-1,-1,-1,-1,-1,-1,-1,-1,-1,-1,-1,-1,-1,-1],"loss_changes":[4.41137123107910156e+01,4.14147796630859375e+01,5.71084594726562500e+01,1.57302494049072266e+01,2.55077896118164063e+01,1.79897842407226563e+01,4.07626380920410156e+01,2.59030628204345703e+00,1.25307483673095703e+01,3.41131925582885742e+00,1.54627761840820313e+01,3.93905591964721680e+00,1.79430694580078125e+01,7.24880752563476563e+01,1.87801933288574219e+01,0.00000000000000000e+00,0.00000000000000000e+00,0.00000000000000000e+00,0.00000000000000000e+00,0.00000000000000000e+00,0.00000000000000000e+00,0.00000000000000000e+00,0.00000000000000000e+00,0.00000000000000000e+00,0.00000000000000000e+00,0.00000000000000000e+00,0.00000000000000000e+00,0.00000000000000000e+00,0.00000000000000000e+00,0.00000000000000000e+00,0.00000000000000000e+00],"parents":[2147483647,0,0,1,1,2,2,3,3,4,4,5,5,6,6,7,7,8,8,9,9,10,10,11,11,12,12,13,13,14,14],"right_children":[2,4,6,8,10,12,14,16,18,20,22,24,26,28,30,-1,-1,-1,-1,-1,-1,-1,-1,-1,-1,-1,-1,-1,-1,-1,-1],"split_conditions":[5.35000000000000000e+01,2.01500000000000000e+02,1.89500000000000000e+02,5.00000000000000000e-01,1.34500000000000000e+02,1.85000000000000000e+01,5.59396435546875000e+03,6.35000000000000000e+01,4.85500000000000000e+02,4.75000000000000000e+01,1.03500000000000000e+02,7.50000000000000000e+01,2.45725000000000000e+04,1.75000000000000000e+01,4.50000000000000000e+00,-1.91323429346084595e-01,1.59528246149420738e-03,1.19067378342151642e-01,-1.17559649050235748e-01,-5.64645864069461823e-02,1.27258107066154480e-01,-3.05069774389266968e-01,-3.33275124430656433e-02,-5.69679550826549530e-02,1.41700252890586853e-01,-2.65287935733795166e-01,1.83918904513120651e-02,7.44824633002281189e-02,-1.23268090188503265e-01,-6.72255381941795349e-02,2.67912089824676514e-01],"split_indices":[164,61,56,106,58,117,82,126,163,128,126,135,3,133,65,0,0,0,0,0,0,0,0,0,0,0,0,0,0,0,0],"sum_hessian":[1.32008764648437500e+03,2.58993347167968750e+02,1.06109436035156250e+03,1.16525444030761719e+02,1.42467895507812500e+02,1.15292098999023438e+02,9.45802185058593750e+02,2.20675544738769531e+01,9.44578857421875000e+01,1.63991851806640625e+01,1.26068717956542969e+02,1.41654176712036133e+01,1.01126678466796875e+02,8.53842346191406250e+02,9.19598464965820313e+01,1.44222507476806641e+01,7.64530324935913086e+00,8.18375625610351563e+01,1.26203241348266602e+01,3.27023720741271973e+00,1.31289472579956055e+01,9.86968231201171875e+01,2.73718986511230469e+01,3.94395232200622559e+00,1.02214651107788086e+01,7.78980484008789063e+01,2.32286338806152344e+01,6.45180297851562500e+02,2.08662063598632813e+02,1.16409463882446289e+01,8.03189010620117188e+01],"tree_param":{"num_deleted":"0","num_feature":"168","num_nodes":"31","size_leaf_vector":"0"}},{"base_weights":[-1.88359785825014114e-02,-1.08471944928169250e-01,3.15531969070434570e-01,-6.31484150886535645e-01,-3.25902812182903290e-02,4.70528185367584229e-01,-9.30325463414192200e-02,-7.78332829475402832e-01,-9.55415330827236176e-03,-2.84702777862548828e-01,1.20331630110740662e-01,-3.05670648813247681e-01,5.33937811851501465e-01,-4.88409876823425293e-01,1.91668033599853516e-01,1.22830206528306007e-02,-8.21343302726745605e-01,-4.76727277040481567e-01,3.73010486364364624e-01,-5.05611300468444824e-01,2.51062572002410889e-01,2.15981841087341309e-01,-3.58238816261291504e-01,-4.46939408779144287e-01,1.43288493156433105e-01,1.15055993199348450e-01,6.74414277076721191e-01,1.36321514844894409e-01,-6.18781089782714844e-01,3.92454087734222412e-01,-2.52612233161926270e-01],"default_left":[true,true,true,true,true,true,true,true,true,true,true,true,true,true,true,false,false,false,false,false,false,false,false,false,false,false,false,false,false,false,false],"id":13,"leaf_child_counts":[0,0,0,0,0,0,0,0,0,0,0,0,0,0,0,0,0,0,0,0,0,0,0,0,0,0,0,0,0,0,0],"left_children":[1,3,5,7,9,11,13,15,17,19,21,23,25,27,29,-1,-1,-1,-1,-1,-1,-1,-1,-1,-1,-1,-1,-1,-1,-1,-1],"loss_changes":[3.91575851440429688e+01,4.04877624511718750e+01,1.81608448028564453e+01,1.17091255187988281e+01,3.57335205078125000e+01,1.24330215454101563e+01,1.13713169097900391e+01,3.70548629760742188e+00,9.80011272430419922e+00,4.32527084350585938e+01,2.76720886230468750e+01,2.53735423088073730e+00,1.01932563781738281e+01,4.62869548797607422e+00,7.04017066955566406e+00,0.00000000000000000e+00,0.00000000000000000e+00,0.00000000000000000e+00,0.00000000000000000e+00,0.00000000000000000e+00,0.00000000000000000e+00,0.00000000000000000e+00,0.00000000000000000e+00,0.00000000000000000e+00,0.00000000000000000e+00,0.00000000000000000e+00,0.00000000000000000e+00,0.00000000000000000e+00,0.00000000000000000e+00,0.00000000000000000e+00,0.00000000000000000e+00],"parents":[2147483647,0,0,1,1,2,2,3,3,4,4,5,5,6,6,7,7,8,8,9,9,10,10,11,11,12,12,13,13,14,14],"right_children":[2,4,6,8,10,12,14,16,18,20,22,24,26,28,30,-1,-1,-1,-1,-1,-1,-1,-1,-1,-1,-1,-1,-1,-1,-1,-1],"split_conditions":[6.52916193008422852e-01,1.02777862548828125e+00,3.05000000000000000e+01,9.85000000000000000e+01,9.75000000000000000e+01,1.15000000000000000e+01,1.65000000000000000e+01,9.14760341402143240e-04,3.96000000000000000e+02,1.53213691711425781e+00,3.45000000000000000e+01,1.09500000000000000e+02,1.27500000000000000e+02,4.80000000000000000e+01,8.15000000000000000e+01,3.68490628898143768e-03,-2.46402993798255920e-01,-1.43018186092376709e-01,1.11903153359889984e-01,-1.51683390140533447e-01,7.53187760710716248e-02,6.47945553064346313e-02,-1.07471652328968048e-01,-1.34081825613975525e-01,4.29865494370460510e-02,3.45168001949787140e-02,2.02324286103248596e-01,4.08964566886425018e-02,-1.85634329915046692e-01,1.17736227810382843e-01,-7.57836699485778809e-02],"split_indices":[72,91,134,155,54,108,166,93,109,95,134,126,49,99,117,0,0,0,0,0,0,0,0,0,0,0,0,0,0,0,0],"sum_hessian":[1.27436914062500000e+03,1.01295440673828125e+03,2.61414764404296875e+02,1.14428680419921875e+02,8.98525756835937500e+02,1.87868545532226563e+02,7.35462112426757813e+01,8.95193634033203125e+01,2.49093132019042969e+01,3.34360626220703125e+02,5.64165161132812500e+02,9.86026763916015625e+00,1.78008270263671875e+02,2.62955303192138672e+01,4.72506790161132813e+01,5.17159557342529297e+00,8.43477706909179688e+01,9.55233860015869141e+00,1.53569746017456055e+01,2.37342880249023438e+02,9.70177383422851563e+01,4.77049346923828125e+02,8.71157913208007813e+01,7.55158090591430664e+00,2.30868721008300781e+00,5.15572204589843750e+01,1.26451057434082031e+02,4.42181873321533203e+00,2.18737125396728516e+01,3.37483711242675781e+01,1.35023078918457031e+01],"tree_param":{"num_deleted":"0","num_feature":"168","num_nodes":"31","size_leaf_vector":"0"}},{"base_weights":[-1.74940563738346100e-02,1.75249740481376648e-01,-1.85244232416152954e-01,-1.09002947807312012e-01,3.99827867746353149e-01,1.21389806270599365e-01,-3.75207185745239258e-01,3.07539671659469604e-01,-2.82693743705749512e-01,-2.71067976951599121e-01,4.89719599485397339e-01,-3.23992758989334106e-01,2.59319514036178589e-01,-5.11033117771148682e-01,3.60602065920829773e-02,-2.85530954599380493e-01,5.00773608684539795e-01,-4.60823237895965576e-01,3.48107606172561646e-01,3.64678561687469482e-01,-5.27440071105957031e-01,5.98985314369201660e-01,-7.26426169276237488e-02,-6.43864691257476807e-01,9.30497050285339355e-02,4.41286444664001465e-01,-2.88400501012802124e-01,-6.45272552967071533e-01,1.10545910894870758e-01,2.71475732326507568e-01,-5.34641087055206299e-01],"default_left":[true,true,true,true,true,true,true,true,true,true,true,true,true,true,true,false,false,false,false,false,false,false,false,false,false,false,false,false,false,false,false],"id":14,"leaf_child_counts":[0,0,0,0,0,0,0,0,0,0,0,0,0,0,0,0,0,0,0,0,0,0,0,0,0,0,0,0,0,0,0],"left_children":[1,3,5,7,9,11,13,15,17,19,21,23,25,27,29,-1,-1,-1,-1,-1,-1,-1,-1,-1,-1,-1,-1,-1,-1,-1,-1],"loss_changes":[4.08923149108886719e+01,3.82678909301757813e+01,4.00274505615234375e+01,2.09720840454101563e+01,2.20361366271972656e+01,1.78290824890136719e+01,2.37790641784667969e+01,1.21359577178955078e+01,2.48414249420166016e+01,1.08598155975341797e+01,1.89913864135742188e+01,1.02959747314453125e+01,2.32644119262695313e+01,2.75430603027343750e+01,1.80933666229248047e+01,0.00000000000000000e+00,0.00000000000000000e+00,0.00000000000000000e+00,0.00000000000000000e+00,0.00000000000000000e+00,0.00000000000000000e+00,0.00000000000000000e+00,0.00000000000000000e+00,0.00000000000000000e+00,0.00000000000000000e+00,0.00000000000000000e+00,0.00000000000000000e+00,0.00000000000000000e+00,0.00000000000000000e+00,0.00000000000000000e+00,0.00000000000000000e+00],"parents":[2147483647,0,0,1,1,2,2,3,3,4,4,5,5,6,6,7,7,8,8,9,9,10,10,11,11,12,12,13,13,14,14],"right_children":[2,4,6,8,10,12,14,16,18,20,22,24,26,28,30,-1,-1,-1,-1,-1,-1,-1,-1,-1,-1,-1,-1,-1,-1,-1,-1],"split_conditions":[2.11500000000000000e+02,7.25000000000000000e+01,-1.66023224592208862e-01,1.01121211051940918e+00,8.05000000000000000e+01,8.55000000000000000e+01,2.38500000000000000e+02,6.50000000000000000e+00,7.33615550000000000e+06,2.00000000000000000e+01,3.35000000000000000e+01,1.41647911071777344e+00,2.50500000000000000e+02,7.45000000000000000e+01,3.03500000000000000e+02,-8.56592878699302673e-02,1.50232091546058655e-01,-1.38246983289718628e-01,1.04432284832000732e-01,1.09403572976589203e-01,-1.58232033252716064e-01,1.79695606231689453e-01,-2.17927861958742142e-02,-1.93159416317939758e-01,2.79149133712053299e-02,1.32385939359664917e-01,-8.65201503038406372e-02,-1.93581774830818176e-01,3.31637747585773468e-02,8.14427211880683899e-02,-1.60392329096794128e-01],"split_indices":[62,153,76,90,49,55,56,146,16,118,138,95,127,71,127,0,0,0,0,0,0,0,0,0,0,0,0,0,0,0,0],"sum_hessian":[1.23467053222656250e+03,5.74222412109375000e+02,6.60448181152343750e+02,2.56846496582031250e+02,3.17375885009765625e+02,2.54712142944335938e+02,4.05736022949218750e+02,7.21818466186523438e+01,1.84664657592773438e+02,3.39277725219726563e+01,2.83448120117187500e+02,5.54444465637207031e+01,1.99267700195312500e+02,3.02269287109375000e+02,1.03466735839843750e+02,1.59779434204101563e+01,5.62039070129394531e+01,1.47152740478515625e+02,3.75119209289550781e+01,7.92892122268676758e+00,2.59988517761230469e+01,2.36516632080078125e+02,4.69314880371093750e+01,2.67607116699218750e+01,2.86837348937988281e+01,1.51762908935546875e+02,4.75047988891601563e+01,2.48113601684570313e+02,5.41556701660156250e+01,7.88185806274414063e+01,2.46481571197509766e+01],"tree_param":{"num_deleted":"0","num_feature":"168","num_nodes":"31","size_leaf_vector":"0"}},{"base_weights":[-1.44381113350391388e-02,-7.86247909069061279e-01,2.29974929243326187e-02,-9.69717621803283691e-01,7.01010376214981079e-02,-6.34695291519165039e-02,3.62737953662872314e-01,-1.03530645370483398e+00,-3.18051762878894806e-02,-2.94305980205535889e-01,3.38172644376754761e-01,1.48915156722068787e-01,-2.95429080724716187e-01,-5.68073868751525879e-01,4.72206801176071167e-01,-1.09304034709930420e+00,-6.04099873453378677e-03,1.15295596420764923e-01,-1.56461328268051147e-01,-3.58854264020919800e-01,2.91490554809570313e-01,2.52638220787048340e-01,-4.44730520248413086e-01,6.11506700515747070e-02,-6.25119030475616455e-01,-3.77715498208999634e-01,5.31483352184295654e-01],"default_left":[true,true,true,true,true,true,true,true,true,false,false,true,true,true,true,false,false,false,false,false,false,false,false,false,false,false,false],"id":15,"leaf_child_counts":[0,0,0,0,0,0,0,0,0,0,0,0,0,0,0,0,0,0,0,0,0,0,0,0,0,0,0],"left_children":[1,3,5,7,9,11,13,15,17,-1,-1,19,21,23,25,-1,-1,-1,-1,-1,-1,-1,-1,-1,-1,-1,-1],"loss_changes":[3.51205902099609375e+01,9.85300827026367188e+00,3.45665206909179688e+01,2.41665267944335938e+00,3.82848238945007324e+00,4.70354385375976563e+01,2.83325881958007813e+01,2.50048065185546875e+00,6.11068129539489746e-01,0.00000000000000000e+00,0.00000000000000000e+00,3.78670501708984375e+01,3.89142379760742188e+01,1.71890068054199219e+00,1.41782989501953125e+01,0.00000000000000000e+00,0.00000000000000000e+00,0.00000000000000000e+00,0.00000000000000000e+00,0.00000000000000000e+00,0.00000000000000000e+00,0.00000000000000000e+00,0.00000000000000000e+00,0.00000000000000000e+00,0.00000000000000000e+00,0.00000000000000000e+00,0.00000000000000000e+00],"parents":[2147483647,0,0,1,1,2,2,3,3,4,4,5,5,6,6,7,7,8,8,11,11,12,12,13,13,14,14],"right_children":[2,4,6,8,10,12,14,16,18,-1,-1,20,22,24,26,-1,-1,-1,-1,-1,-1,-1,-1,-1,-1,-1,-1],"split_conditions":[9.89086328125000000e+03,9.55000000000000000e+01,2.42500000000000000e+02,4.08411145210266113e-01,8.15000000000000000e+01,2.02500000000000000e+02,5.45000000000000000e+01,7.99220740795135498e-01,1.37500000000000000e+02,-8.82917940616607666e-02,1.01451799273490906e-01,9.45000000000000000e+01,2.13300000000000000e+03,-2.83215427398681641e+00,9.45000000000000000e+01,-3.27912122011184692e-01,-1.81229971349239349e-03,3.45886796712875366e-02,-4.69384007155895233e-02,-1.07656285166740417e-01,8.74471664428710938e-02,7.57914707064628601e-02,-1.33419156074523926e-01,1.83452013880014420e-02,-1.87535718083381653e-01,-1.13314650952816010e-01,1.59445017576217651e-01],"split_indices":[21,66,56,93,51,58,117,72,54,0,0,49,45,76,50,0,0,0,0,0,0,0,0,0,0,0,0],"sum_hessian":[1.19114538574218750e+03,4.12224311828613281e+01,1.14992297363281250e+03,3.23135719299316406e+01,8.90885925292968750e+00,9.26355041503906250e+02,2.23567993164062500e+02,2.87457427978515625e+01,3.56783008575439453e+00,3.15377759933471680e+00,5.75508117675781250e+00,4.86385437011718750e+02,4.39969573974609375e+02,1.69133720397949219e+01,2.06654617309570313e+02,2.63389091491699219e+01,2.40683388710021973e+00,2.15324926376342773e+00,1.41458082199096680e+00,1.01642105102539063e+02,3.84743316650390625e+02,9.19714736938476563e+01,3.47998107910156250e+02,1.31616246700286865e+00,1.55972099304199219e+01,8.21952915191650391e+00,1.98435089111328125e+02],"tree_param":{"num_deleted":"0","num_feature":"168","num_nodes":"27","size_leaf_vector":"0"}},{"base_weights":[-1.64128169417381287e-02,2.29821242392063141e-02,-6.23137176036834717e-01,-4.93662536144256592e-01,7.35723152756690979e-02,-7.06580996513366699e-01,1.94671303033828735e-01,-9.51452016830444336e-01,-2.18956887722015381e-01,-3.70366781949996948e-01,1.26073345541954041e-01,-7.90334582328796387e-01,1.14104442298412323e-01,-9.97674345970153809e-01,6.57640444114804268e-03,-6.26572608947753906e-01,1.17380835115909576e-01,-5.55609107017517090e-01,2.33266338706016541e-01,-2.51204967498779297e-01,1.95944905281066895e-01,-8.22319924831390381e-01,1.05073153972625732e-02,-7.30639696121215820e-02,1.87139615416526794e-01],"default_left":[true,true,true,true,true,true,false,true,true,true,true,true,true,false,false,false,false,false,false,false,false,false,false,false,false],"id":16,"leaf_child_counts":[0,0,0,0,0,0,0,0,0,0,0,0,0,0,0,0,0,0,0,0,0,0,0,0,0],"left_children":[1,3,5,7,9,11,-1,13,15,17,19,21,23,-1,-1,-1,-1,-1,-1,-1,-1,-1,-1,-1,-1],"loss_changes":[2.80961780548095703e+01,2.95527591705322266e+01,6.95318031311035156e+00,9.56764984130859375e+00,2.45648803710937500e+01,6.04472732543945313e+00,0.00000000000000000e+00,1.57599639892578125e+00,1.24221267700195313e+01,1.44780960083007813e+01,2.51701202392578125e+01,1.76470947265625000e+00,4.70687478780746460e-01,0.00000000000000000e+00,0.00000000000000000e+00,0.00000000000000000e+00,0.00000000000000000e+00,0.00000000000000000e+00,0.00000000000000000e+00,0.00000000000000000e+00,0.00000000000000000e+00,0.00000000000000000e+00,0.00000000000000000e+00,0.00000000000000000e+00,0.00000000000000000e+00],"parents":[2147483647,0,0,1,1,2,2,3,3,4,4,5,5,7,7,8,8,9,9,10,10,11,11,12,12],"right_children":[2,4,6,8,10,12,-1,14,16,18,20,22,24,-1,-1,-1,-1,-1,-1,-1,-1,-1,-1,-1,-1],"split_conditions":[1.10500000000000000e+02,5.00000000000000000e-01,3.69500000000000000e+02,7.69088592529296875e+01,1.86500000000000000e+02,1.12641750000000000e+06,5.84013946354389191e-02,2.50000000000000000e+00,2.75500000000000000e+02,1.32500000000000000e+02,4.75000000000000000e+01,8.90056848526000977e-01,1.32275000000000000e+04,-2.99302309751510620e-01,1.97292142547667027e-03,-1.87971785664558411e-01,3.52142527699470520e-02,-1.66682735085487366e-01,6.99799060821533203e-02,-7.53614902496337891e-02,5.87834753096103668e-02,-2.46695980429649353e-01,3.15219466574490070e-03,-2.19191908836364746e-02,5.61418868601322174e-02],"split_indices":[146,147,136,84,56,21,0,143,136,66,128,77,44,0,0,0,0,0,0,0,0,0,0,0,0],"sum_hessian":[1.15149279785156250e+03,1.09483630371093750e+03,5.66565055847167969e+01,8.59289474487304688e+01,1.00890740966796875e+03,5.32620887756347656e+01,3.39441537857055664e+00,1.83673191070556641e+01,6.75616302490234375e+01,9.70926742553710938e+01,9.11814758300781250e+02,4.88332366943359375e+01,4.42885160446166992e+00,1.69297599792480469e+01,1.43755769729614258e+00,2.46924095153808594e+01,4.28692207336425781e+01,7.52066955566406250e+01,2.18859748840332031e+01,1.36397018432617188e+02,7.75417724609375000e+02,4.65709228515625000e+01,2.26231670379638672e+00,1.24145126342773438e+00,3.18740034103393555e+00],"tree_param":{"num_deleted":"0","num_feature":"168","num_nodes":"25","size_leaf_vector":"0"}},{"base_weights":[-2.17079557478427887e-02,1.37940019369125366e-01,-1.64212852716445923e-01,-3.76194477081298828e-01,2.23136022686958313e-01,-4.66786205768585205e-01,-5.59721514582633972e-03,1.91454708576202393e-01,-6.94093644618988037e-01,2.84799784421920776e-01,-3.33742171525955200e-01,-4.64810151606798172e-03,-6.68586552143096924e-01,-4.68866229057312012e-01,2.02075004577636719e-01,-3.38738203048706055e-01,4.30406898260116577e-01,-9.08175587654113770e-01,1.19535990059375763e-01,-3.25080126523971558e-01,3.49301487207412720e-01,-5.22146642208099365e-01,2.53905057907104492e-01,-5.57893991470336914e-01,2.29826450347900391e-01,2.52066344022750854e-01,-8.18695247173309326e-01,-6.79454445838928223e-01,1.66654944419860840e-01,-2.18719542026519775e-01,4.36009109020233154e-01],"default_left":[true,true,true,true,true,true,true,true,true,true,true,true,true,true,true,false,false,false,false,false,false,false,false,false,false,false,false,false,false,false,false],"id":17,"leaf_child_counts":[0,0,0,0,0,0,0,0,0,0,0,0,0,0,0,0,0,0,0,0,0,0,0,0,0,0,0,0,0,0,0],"left_children":[1,3,5,7,9,11,13,15,17,19,21,23,25,27,29,-1,-1,-1,-1,-1,-1,-1,-1,-1,-1,-1,-1,-1,-1,-1,-1],"loss_changes":[2.63782653808593750e+01,2.52602653503417969e+01,2.93120384216308594e+01,1.70569629669189453e+01,1.78902702331542969e+01,1.95524063110351563e+01,4.14841156005859375e+01,7.47292995452880859e+00,1.15136871337890625e+01,1.90027465820312500e+01,8.04539394378662109e+00,1.21688060760498047e+01,2.32965545654296875e+01,1.95531387329101563e+01,3.07660255432128906e+01,0.00000000000000000e+00,0.00000000000000000e+00,0.00000000000000000e+00,0.00000000000000000e+00,0.00000000000000000e+00,0.00000000000000000e+00,0.00000000000000000e+00,0.00000000000000000e+00,0.00000000000000000e+00,0.00000000000000000e+00,0.00000000000000000e+00,0.00000000000000000e+00,0.00000000000000000e+00,0.00000000000000000e+00,0.00000000000000000e+00,0.00000000000000000e+00],"parents":[2147483647,0,0,1,1,2,2,3,3,4,4,5,5,6,6,7,7,8,8,9,9,10,10,11,11,12,12,13,13,14,14],"right_children":[2,4,6,8,10,12,14,16,18,20,22,24,26,28,30,-1,-1,-1,-1,-1,-1,-1,-1,-1,-1,-1,-1,-1,-1,-1,-1],"split_conditions":[2.11500000000000000e+02,7.65000000000000000e+01,4.29200000000000000e+03,9.95000000000000000e+01,1.95000000000000000e+01,6.50000000000000000e+00,8.25000000000000000e+01,2.00000000000000000e+01,2.67340000000000000e+04,5.00000000000000000e-01,7.55000000000000000e+01,1.84450000000000000e+03,9.50000000000000000e+00,5.03971484375000000e+03,1.13500000000000000e+02,-1.01621463894844055e-01,1.29122078418731689e-01,-2.72452682256698608e-01,3.58607992529869080e-02,-9.75240394473075867e-02,1.04790449142456055e-01,-1.56644001603126526e-01,7.61715173721313477e-02,-1.67368203401565552e-01,6.89479410648345947e-02,7.56199061870574951e-02,-2.45608583092689514e-01,-2.03836336731910706e-01,4.99964840710163116e-02,-6.56158626079559326e-02,1.30802735686302185e-01],"split_indices":[62,154,43,136,140,98,55,65,40,139,135,40,135,82,48,0,0,0,0,0,0,0,0,0,0,0,0,0,0,0,0],"sum_hessian":[1.12951818847656250e+03,5.32943237304687500e+02,5.96574890136718750e+02,6.84758453369140625e+01,4.64467407226562500e+02,1.95155441284179688e+02,4.01419433593750000e+02,2.67236480712890625e+01,4.17521972656250000e+01,4.24761749267578125e+02,3.97056694030761719e+01,6.39805755615234375e+01,1.31174865722656250e+02,1.18409416198730469e+02,2.83010009765625000e+02,6.35625648498535156e+00,2.03673915863037109e+01,3.16748752593994141e+01,1.00773229598999023e+01,3.48307037353515625e+01,3.89931030273437500e+02,3.13322372436523438e+01,8.37343406677246094e+00,1.28859491348266602e+01,5.10946273803710938e+01,1.69609375000000000e+01,1.14213928222656250e+02,8.81596298217773438e+01,3.02497863769531250e+01,1.01467857360839844e+02,1.81542160034179688e+02],"tree_param":{"num_deleted":"0","num_feature":"168","num_nodes":"31","size_leaf_vector":"0"}},{"base_weights":[-2.46362164616584778e-02,2.51133982092142105e-02,-4.20104146003723145e-01,7.75126516819000244e-02,-3.86847198009490967e-01,-9.88088697195053101e-02,-7.53922939300537109e-01,1.20319925248622894e-01,-5.16376197338104248e-01,-6.03117883205413818e-01,2.67595380544662476e-01,2.42041125893592834e-01,-4.09894943237304688e-01,-4.97538521885871887e-02,-8.20491611957550049e-01,-5.11983036994934082e-01,1.61053791642189026e-01,9.45763364434242249e-02,-6.86822116374969482e-01,-6.93319380283355713e-01,1.58319905400276184e-01,-2.23414584994316101e-01,4.60259199142456055e-01,4.01593506336212158e-01,-9.77791324257850647e-02,-5.43057024478912354e-01,1.74333587288856506e-01,-1.54905170202255249e-01,9.10382792353630066e-02,-8.62787485122680664e-01,3.75334583222866058e-02],"default_left":[true,true,true,true,true,true,true,true,true,true,true,true,true,true,true,false,false,false,false,false,false,false,false,false,false,false,false,false,false,false,false],"id":18,"leaf_child_counts":[0,0,0,0,0,0,0,0,0,0,0,0,0,0,0,0,0,0,0,0,0,0,0,0,0,0,0,0,0,0,0],"left_children":[1,3,5,7,9,11,13,15,17,19,21,23,25,27,29,-1,-1,-1,-1,-1,-1,-1,-1,-1,-1,-1,-1,-1,-1,-1,-1],"loss_changes":[2.19005661010742188e+01,2.19450035095214844e+01,1.22178878784179688e+01,2.37083530426025391e+01,1.86790599822998047e+01,1.00363426208496094e+01,2.14000320434570313e+00,2.30738449096679688e+01,7.54205322265625000e+00,7.89301300048828125e+00,5.22440910339355469e+00,3.18608093261718750e+00,5.13241958618164063e+00,5.23014783859252930e-01,2.39741897583007813e+00,0.00000000000000000e+00,0.00000000000000000e+00,0.00000000000000000e+00,0.00000000000000000e+00,0.00000000000000000e+00,0.00000000000000000e+00,0.00000000000000000e+00,0.00000000000000000e+00,0.00000000000000000e+00,0.00000000000000000e+00,0.00000000000000000e+00,0.00000000000000000e+00,0.00000000000000000e+00,0.00000000000000000e+00,0.00000000000000000e+00,0.00000000000000000e+00],"parents":[2147483647,0,0,1,1,2,2,3,3,4,4,5,5,6,6,7,7,8,8,9,9,10,10,11,11,12,12,13,13,14,14],"right_children":[2,4,6,8,10,12,14,16,18,20,22,24,26,28,30,-1,-1,-1,-1,-1,-1,-1,-1,-1,-1,-1,-1,-1,-1,-1,-1],"split_conditions":[7.02323079109191895e-01,4.85000000000000000e+01,1.26500000000000000e+02,1.14500000000000000e+02,7.34391500000000000e+06,2.95000000000000000e+01,-4.26281154155731201e-01,1.35000000000000000e+01,1.75000000000000000e+01,4.04380000000000000e+04,7.75000000000000000e+01,2.95000000000000000e+01,1.43319000000000000e+06,1.14050984382629395e+00,1.34438514709472656e+00,-1.53594911098480225e-01,4.83161397278308868e-02,2.83729024231433868e-02,-2.06046640872955322e-01,-2.07995817065238953e-01,4.74959723651409149e-02,-6.70243799686431885e-02,1.38077765703201294e-01,1.20478056371212006e-01,-2.93337404727935791e-02,-1.62917107343673706e-01,5.23000769317150116e-02,-4.64715510606765747e-02,2.73114852607250214e-02,-2.58836269378662109e-01,1.12600382417440414e-02],"split_indices":[74,120,53,108,16,102,78,108,116,4,136,152,17,92,93,0,0,0,0,0,0,0,0,0,0,0,0,0,0,0,0],"sum_hessian":[1.09010815429687500e+03,9.80774719238281250e+02,1.09333389282226563e+02,8.80905761718750000e+02,9.98689880371093750e+01,6.56175079345703125e+01,4.37158737182617188e+01,8.32836303710937500e+02,4.80694580078125000e+01,7.59473724365234375e+01,2.39216156005859375e+01,3.28994979858398438e+01,3.27180137634277344e+01,6.03959798812866211e+00,3.76762771606445313e+01,3.99025802612304688e+01,7.92933715820312500e+02,1.19417772293090820e+01,3.61276817321777344e+01,6.91031723022460938e+01,6.84419918060302734e+00,6.06659030914306641e+00,1.78550262451171875e+01,2.05323944091796875e+01,1.23671016693115234e+01,2.75057525634765625e+01,5.21226119995117188e+00,2.59666347503662109e+00,3.44293427467346191e+00,3.58269538879394531e+01,1.84932410717010498e+00],"tree_param":{"num_deleted":"0","num_feature":"168","num_nodes":"31","size_leaf_vector":"0"}},{"base_weights":[-2.70226970314979553e-02,-9.06922519207000732e-02,2.70577996969223022e-01,2.97125354409217834e-02,-4.86378401517868042e-01,-5.78113257884979248e-01,4.48477506637573242e-01,-2.99158662557601929e-01,1.37133747339248657e-01,-6.48549854755401611e-01,1.06700852513313293e-01,1.25323951244354248e-01,-7.32489109039306641e-01,-3.03864300251007080e-01,5.99562048912048340e-01,-6.63236826658248901e-02,-6.93360567092895508e-01,3.22239428758621216e-01,-1.85155928134918213e-01,-1.91983520984649658e-01,-8.12828600406646729e-01,-4.30559039115905762e-01,4.10050690174102783e-01,3.14786732196807861e-01,-1.69239670038223267e-01,-7.88067936897277832e-01,-2.91114347055554390e-03,1.11079514026641846e-01,-5.65211713314056396e-01,7.39025771617889404e-01,-1.40229225158691406e-01],"default_left":[true,true,true,true,true,true,true,true,true,true,true,true,true,true,true,false,false,false,false,false,false,false,false,false,false,false,false,false,false,false,false],"id":19,"leaf_child_counts":[0,0,0,0,0,0,0,0,0,0,0,0,0,0,0,0,0,0,0,0,0,0,0,0,0,0,0,0,0,0,0],"left_children":[1,3,5,7,9,11,13,15,17,19,21,23,25,27,29,-1,-1,-1,-1,-1,-1,-1,-1,-1,-1,-1,-1,-1,-1,-1,-1],"loss_changes":[2.09631576538085938e+01,4.34093551635742188e+01,3.33791389465332031e+01,2.56706371307373047e+01,2.14642753601074219e+01,5.76422691345214844e+00,2.20472946166992188e+01,1.57703208923339844e+01,3.34017105102539063e+01,1.03267974853515625e+01,1.21796789169311523e+01,1.91971373558044434e+00,1.39783859252929688e+00,5.10294485092163086e+00,1.66746444702148438e+01,0.00000000000000000e+00,0.00000000000000000e+00,0.00000000000000000e+00,0.00000000000000000e+00,0.00000000000000000e+00,0.00000000000000000e+00,0.00000000000000000e+00,0.00000000000000000e+00,0.00000000000000000e+00,0.00000000000000000e+00,0.00000000000000000e+00,0.00000000000000000e+00,0.00000000000000000e+00,0.00000000000000000e+00,0.00000000000000000e+00,0.00000000000000000e+00],"parents":[2147483647,0,0,1,1,2,2,3,3,4,4,5,5,6,6,7,7,8,8,9,9,10,10,11,11,12,12,13,13,14,14],"right_children":[2,4,6,8,10,12,14,16,18,20,22,24,26,28,30,-1,-1,-1,-1,-1,-1,-1,-1,-1,-1,-1,-1,-1,-1,-1,-1],"split_conditions":[4.12747265625000000e+03,3.05000000000000000e+01,3.50000000000000000e+00,5.00000000000000000e-01,4.53665350000000000e+06,-5.25075912475585938e-01,8.33078125000000000e+05,1.31500000000000000e+02,1.55000000000000000e+01,6.15000000000000000e+01,2.50000000000000000e+00,7.20000000000000000e+01,2.88400000000000000e+03,9.21650000000000000e+03,2.55154500000000000e+06,-1.98971051722764969e-02,-2.08008185029029846e-01,9.66718345880508423e-02,-5.55467791855335236e-02,-5.75950592756271362e-02,-2.43848592042922974e-01,-1.29167720675468445e-01,1.23015210032463074e-01,9.44360271096229553e-02,-5.07719032466411591e-02,-2.36420392990112305e-01,-8.73343087732791901e-04,3.33238542079925537e-02,-1.69563516974449158e-01,2.21707746386528015e-01,-4.20687682926654816e-02],"split_indices":[82,134,65,132,16,73,20,53,97,110,105,155,41,6,21,0,0,0,0,0,0,0,0,0,0,0,0,0,0,0,0],"sum_hessian":[1.07191979980468750e+03,8.91597595214843750e+02,1.80322128295898438e+02,6.94223449707031250e+02,1.97374160766601563e+02,2.54005889892578125e+01,1.54921539306640625e+02,1.64335342407226563e+02,5.29888122558593750e+02,1.53891220092773438e+02,4.34829330444335938e+01,5.07921218872070313e+00,2.03213768005371094e+01,2.33716430664062500e+01,1.31549896240234375e+02,1.14330101013183594e+02,5.00052413940429688e+01,3.36578216552734375e+02,1.93309890747070313e+02,4.93279075622558594e+01,1.04563316345214844e+02,1.34216880798339844e+01,3.00612430572509766e+01,2.46433734893798828e+00,2.61487483978271484e+00,1.77654705047607422e+01,2.55590724945068359e+00,1.23646993637084961e+01,1.10069437026977539e+01,1.10697074890136719e+02,2.08528289794921875e+01],"tree_param":{"num_deleted":"0","num_feature":"168","num_nodes":"31","size_leaf_vector":"0"}},{"base_weights":[-2.81812679022550583e-02,2.33872630633413792e-03,-5.84587752819061279e-01,-5.80619096755981445e-01,3.04683428257703781e-02,-6.49853944778442383e-01,5.15943020582199097e-02,1.18148684501647949e-01,-6.97799444198608398e-01,-2.51567155122756958e-01,9.72595438361167908e-02,-6.93352282047271729e-01,2.50918809324502945e-02,-1.17767326533794403e-01,1.71344786882400513e-01,-1.05038397014141083e-01,2.15457513928413391e-01,-7.24299430847167969e-01,2.39328648895025253e-02,-1.20736220851540565e-02,-8.85494470596313477e-01,-4.04932886362075806e-01,1.67656987905502319e-01,-7.21075415611267090e-01,-2.42760926485061646e-02,-9.86567139625549316e-02,1.28142520785331726e-01],"default_left":[true,true,true,true,true,true,true,true,true,true,true,true,true,false,false,false,false,false,false,false,false,false,false,false,false,false,false],"id":20,"leaf_child_counts":[0,0,0,0,0,0,0,0,0,0,0,0,0,0,0,0,0,0,0,0,0,0,0,0,0,0,0],"left_children":[1,3,5,7,9,11,13,15,17,19,21,23,25,-1,-1,-1,-1,-1,-1,-1,-1,-1,-1,-1,-1,-1,-1],"loss_changes":[1.79369010925292969e+01,1.69118461608886719e+01,2.78336524963378906e+00,5.12412071228027344e+00,1.88777408599853516e+01,1.75578498840332031e+00,6.88164234161376953e-01,7.66147732734680176e-01,1.07918357849121094e+00,2.90401916503906250e+01,2.94888401031494141e+01,6.34384155273437500e-01,4.13548052310943604e-01,0.00000000000000000e+00,0.00000000000000000e+00,0.00000000000000000e+00,0.00000000000000000e+00,0.00000000000000000e+00,0.00000000000000000e+00,0.00000000000000000e+00,0.00000000000000000e+00,0.00000000000000000e+00,0.00000000000000000e+00,0.00000000000000000e+00,0.00000000000000000e+00,0.00000000000000000e+00,0.00000000000000000e+00],"parents":[2147483647,0,0,1,1,2,2,3,3,4,4,5,5,6,6,7,7,8,8,9,9,10,10,11,11,12,12],"right_children":[2,4,6,8,10,12,14,16,18,20,22,24,26,-1,-1,-1,-1,-1,-1,-1,-1,-1,-1,-1,-1,-1,-1],"split_conditions":[2.57500000000000000e+02,3.55000000000000000e+01,4.95500000000000000e+02,8.60000000000000000e+01,1.13850891590118408e+00,2.75000000000000000e+01,7.71000000000000000e+03,5.50000000000000000e+00,5.70000000000000000e+01,3.25000000000000000e+01,3.81550000000000000e+03,2.76500000000000000e+02,2.20000000000000000e+02,-3.53301987051963806e-02,5.14034368097782135e-02,-3.15115191042423248e-02,6.46372586488723755e-02,-2.17289835214614868e-01,7.17985955998301506e-03,-3.62208671867847443e-03,-2.65648365020751953e-01,-1.21479868888854980e-01,5.02971000969409943e-02,-2.16322630643844604e-01,-7.28282798081636429e-03,-2.95970160514116287e-02,3.84427569806575775e-02],"split_indices":[62,55,145,58,91,148,42,96,98,66,42,60,56,0,0,0,0,0,0,0,0,0,0,0,0,0,0],"sum_hessian":[1.04005224609375000e+03,1.00013012695312500e+03,3.99221611022949219e+01,3.24764289855957031e+01,9.67653686523437500e+02,3.59152412414550781e+01,4.00692081451416016e+00,4.64622163772583008e+00,2.78302059173583984e+01,1.77334793090820313e+02,7.90318908691406250e+02,3.33564491271972656e+01,2.55879235267639160e+00,1.76256191730499268e+00,2.24435901641845703e+00,1.04892158508300781e+00,3.59730005264282227e+00,2.67930870056152344e+01,1.03711795806884766e+00,1.39803604125976563e+02,3.75311927795410156e+01,8.84025421142578125e+01,7.01916381835937500e+02,3.09099292755126953e+01,2.44652009010314941e+00,1.45324146747589111e+00,1.10555088520050049e+00],"tree_param":{"num_deleted":"0","num_feature":"168","num_nodes":"27","size_leaf_vector":"0"}},{"base_weights":[-3.14978919923305511e-02,2.12945770472288132e-02,-3.58515053987503052e-01,6.38946145772933960e-02,-4.28331851959228516e-01,-4.79956537485122681e-01,3.14730107784271240e-01,1.05722904205322266e-01,-4.23469871282577515e-01,-5.79417467117309570e-01,2.33757391571998596e-01,3.08208405971527100e-01,-5.82819879055023193e-01,-2.01595515012741089e-01,4.59401935338973999e-01,1.50668367743492126e-01,-3.91414850950241089e-01,3.30572992563247681e-01,-5.73836386203765869e-01,-6.38648808002471924e-01,1.55252292752265930e-01,-1.51772722601890564e-01,3.55841994285583496e-01,-1.51324793696403503e-01,4.63460028171539307e-01,-6.41592502593994141e-01,1.90484389662742615e-01,5.20949780941009521e-01,-7.02704936265945435e-02],"default_left":[true,true,true,true,true,true,true,true,true,true,true,true,true,false,true,false,false,false,false,false,false,false,false,false,false,false,false,false,false],"id":21,"leaf_child_counts":[0,0,0,0,0,0,0,0,0,0,0,0,0,0,0,0,0,0,0,0,0,0,0,0,0,0,0,0,0],"left_children":[1,3,5,7,9,11,13,15,17,19,21,23,25,-1,27,-1,-1,-1,-1,-1,-1,-1,-1,-1,-1,-1,-1,-1,-1],"loss_changes":[1.79665145874023438e+01,1.77351150512695313e+01,1.40860385894775391e+01,1.77803649902343750e+01,1.00568523406982422e+01,1.31058464050292969e+01,3.71621346473693848e+00,1.84230422973632813e+01,1.07066049575805664e+01,4.51736450195312500e+00,2.01474142074584961e+00,2.80965542793273926e+00,7.23177719116210938e+00,0.00000000000000000e+00,1.49154663085937500e+00,0.00000000000000000e+00,0.00000000000000000e+00,0.00000000000000000e+00,0.00000000000000000e+00,0.00000000000000000e+00,0.00000000000000000e+00,0.00000000000000000e+00,0.00000000000000000e+00,0.00000000000000000e+00,0.00000000000000000e+00,0.00000000000000000e+00,0.00000000000000000e+00,0.00000000000000000e+00,0.00000000000000000e+00],"parents":[2147483647,0,0,1,1,2,2,3,3,4,4,5,5,6,6,7,7,8,8,9,9,10,10,11,11,12,12,14,14],"right_children":[2,4,6,8,10,12,14,16,18,20,22,24,26,-1,28,-1,-1,-1,-1,-1,-1,-1,-1,-1,-1,-1,-1,-1,-1],"split_conditions":[3.65000000000000000e+01,1.55500000000000000e+02,8.15544800000000000e+06,1.44117999076843262e+00,1.45000000000000000e+01,5.35000000000000000e+01,4.65000000000000000e+01,1.03500000000000000e+02,4.94550000000000000e+03,1.32500000000000000e+02,2.67750000000000000e+03,8.95000000000000000e+01,1.07290120000000000e+07,-6.04786574840545654e-02,3.45000000000000000e+01,4.52005118131637573e-02,-1.17424458265304565e-01,9.91718992590904236e-02,-1.72150924801826477e-01,-1.91594645380973816e-01,4.65756878256797791e-02,-4.55318167805671692e-02,1.06752604246139526e-01,-4.53974381089210510e-02,1.39038011431694031e-01,-1.92477762699127197e-01,5.71453198790550232e-02,1.56284943222999573e-01,-2.10811495780944824e-02],"split_indices":[138,52,16,92,138,52,66,146,44,101,1,50,20,0,160,0,0,0,0,0,0,0,0,0,0,0,0,0,0],"sum_hessian":[1.01905670166015625e+03,8.89484741210937500e+02,1.29571960449218750e+02,8.24258422851562500e+02,6.52262878417968750e+01,1.13419578552246094e+02,1.61523780822753906e+01,7.69925292968750000e+02,5.43331298828125000e+01,5.46324081420898438e+01,1.05938768386840820e+01,9.63666439056396484e+00,1.03782913208007813e+02,2.24348616600036621e+00,1.39088926315307617e+01,7.15676086425781250e+02,5.42492408752441406e+01,6.04459285736083984e+00,4.82885398864746094e+01,5.23706169128417969e+01,2.26179313659667969e+00,1.67061293125152588e+00,8.92326354980468750e+00,2.52935624122619629e+00,7.10730838775634766e+00,9.88267364501953125e+01,4.95617341995239258e+00,1.26822385787963867e+01,1.22665452957153320e+00],"tree_param":{"num_deleted":"0","num_feature":"168","num_nodes":"29","size_leaf_vector":"0"}},{"base_weights":[-2.50926874577999115e-02,-5.94262361526489258e-01,2.05713673494756222e-03,-7.53771781921386719e-01,6.85539096593856812e-02,-6.54045641422271729e-02,2.79573291540145874e-01,-8.29113543033599854e-01,-2.85810921341180801e-02,2.78532534837722778e-01,-2.30903685092926025e-01,-2.30745613574981689e-01,1.38365894556045532e-01,-4.16467636823654175e-01,3.70403766632080078e-01,2.19920184463262558e-02,-8.72117638587951660e-01,1.10874608159065247e-01,-1.43427506089210510e-01,9.48126148432493210e-03,2.86572754383087158e-01,4.65942220762372017e-03,-4.98175948858261108e-01,-3.54538738727569580e-01,2.66230791807174683e-01,-4.65458095073699951e-01,6.04797527194023132e-02,4.67644214630126953e-01,-1.41810253262519836e-01],"default_left":[true,true,true,true,true,true,true,true,true,true,false,true,true,true,true,false,false,false,false,false,false,false,false,false,false,false,false,false,false],"id":22,"leaf_child_counts":[0,0,0,0,0,0,0,0,0,0,0,0,0,0,0,0,0,0,0,0,0,0,0,0,0,0,0,0,0],"left_children":[1,3,5,7,9,11,13,15,17,19,-1,21,23,25,27,-1,-1,-1,-1,-1,-1,-1,-1,-1,-1,-1,-1,-1,-1],"loss_changes":[1.57888393402099609e+01,5.69310379028320313e+00,1.87907867431640625e+01,1.76140975952148438e+00,2.39664101600646973e+00,2.76944961547851563e+01,1.47214450836181641e+01,1.55270767211914063e+00,5.45754492282867432e-01,2.90870666503906250e-03,0.00000000000000000e+00,2.84629039764404297e+01,2.48119907379150391e+01,1.11657905578613281e+00,1.00368347167968750e+01,0.00000000000000000e+00,0.00000000000000000e+00,0.00000000000000000e+00,0.00000000000000000e+00,0.00000000000000000e+00,0.00000000000000000e+00,0.00000000000000000e+00,0.00000000000000000e+00,0.00000000000000000e+00,0.00000000000000000e+00,0.00000000000000000e+00,0.00000000000000000e+00,0.00000000000000000e+00,0.00000000000000000e+00],"parents":[2147483647,0,0,1,1,2,2,3,3,4,4,5,5,6,6,7,7,8,8,9,9,11,11,12,12,13,13,14,14],"right_children":[2,4,6,8,10,12,14,16,18,20,-1,22,24,26,28,-1,-1,-1,-1,-1,-1,-1,-1,-1,-1,-1,-1,-1,-1],"split_conditions":[9.89086328125000000e+03,9.55000000000000000e+01,2.42500000000000000e+02,6.75000000000000000e+01,1.75000000000000000e+01,1.37207126617431641e+00,5.45000000000000000e+01,3.25000000000000000e+01,2.22000000000000000e+02,1.36000000000000000e+02,-6.92711099982261658e-02,5.31550000000000000e+03,4.87650000000000000e+03,4.85000000000000000e+01,7.55000000000000000e+01,6.59760599955916405e-03,-2.61635303497314453e-01,3.32623831927776337e-02,-4.30282540619373322e-02,2.84437858499586582e-03,8.59718322753906250e-02,1.39782670885324478e-03,-1.49452790617942810e-01,-1.06361627578735352e-01,7.98692405223846436e-02,-1.39637440443038940e-01,1.81439258158206940e-02,1.40293270349502563e-01,-4.25430759787559509e-02],"split_indices":[21,66,56,135,123,95,126,54,62,49,0,6,42,165,110,0,0,0,0,0,0,0,0,0,0,0,0,0,0],"sum_hessian":[1.00555578613281250e+03,3.15166206359863281e+01,9.74039184570312500e+02,2.37441139221191406e+01,7.77250671386718750e+00,7.92785034179687500e+02,1.81254135131835938e+02,1.95621910095214844e+01,4.18192243576049805e+00,5.18497133255004883e+00,2.58753561973571777e+00,4.36566009521484375e+02,3.56219024658203125e+02,1.47150382995605469e+01,1.66539093017578125e+02,1.29339468479156494e+00,1.82687969207763672e+01,2.12289166450500488e+00,2.05903053283691406e+00,1.09895205497741699e+00,4.08601903915405273e+00,2.40024002075195313e+02,1.96542007446289063e+02,6.78960571289062500e+01,2.88322967529296875e+02,1.36720314025878906e+01,1.04300630092620850e+00,1.41064208984375000e+02,2.54748897552490234e+01],"tree_param":{"num_deleted":"0","num_feature":"168","num_nodes":"29","size_leaf_vector":"0"}},{"base_weights":[-2.42793504148721695e-02,-2.06728845834732056e-01,5.64980432391166687e-02,-4.54499304294586182e-01,2.10869498550891876e-02,1.61159306764602661e-01,-2.73092538118362427e-01,4.83414866030216217e-02,-6.54185473918914795e-01,2.99027949571609497e-01,-2.14410156011581421e-01,-9.72300246357917786e-02,2.90839374065399170e-01,-5.08603274822235107e-01,3.05781662464141846e-01,-4.10775810480117798e-01,3.07591795921325684e-01,-8.31880152225494385e-01,1.14640288054943085e-01,-3.02054494619369507e-01,4.08865481615066528e-01,-5.18244862556457520e-01,3.57295900583267212e-01,1.55075341463088989e-01,-4.70859885215759277e-01,4.37310338020324707e-01,-6.23237937688827515e-02,1.80811330676078796e-01,-6.82940721511840820e-01,5.25389730930328369e-01,-4.90362823009490967e-01],"default_left":[true,true,true,true,true,true,true,true,true,true,true,true,true,true,true,false,false,false,false,false,false,false,false,false,false,false,false,false,false,false,false],"id":23,"leaf_child_counts":[0,0,0,0,0,0,0,0,0,0,0,0,0,0,0,0,0,0,0,0,0,0,0,0,0,0,0,0,0,0,0],"left_children":[1,3,5,7,9,11,13,15,17,19,21,23,25,27,29,-1,-1,-1,-1,-1,-1,-1,-1,-1,-1,-1,-1,-1,-1,-1,-1],"loss_changes":[1.47869529724121094e+01,1.74991531372070313e+01,2.47717113494873047e+01,1.53299827575683594e+01,1.23847856521606445e+01,1.85167198181152344e+01,2.60587081909179688e+01,8.56322479248046875e+00,1.60386352539062500e+01,7.55082702636718750e+00,2.07053871154785156e+01,1.91642227172851563e+01,1.92002716064453125e+01,1.73972015380859375e+01,1.43016624450683594e+01,0.00000000000000000e+00,0.00000000000000000e+00,0.00000000000000000e+00,0.00000000000000000e+00,0.00000000000000000e+00,0.00000000000000000e+00,0.00000000000000000e+00,0.00000000000000000e+00,0.00000000000000000e+00,0.00000000000000000e+00,0.00000000000000000e+00,0.00000000000000000e+00,0.00000000000000000e+00,0.00000000000000000e+00,0.00000000000000000e+00,0.00000000000000000e+00],"parents":[2147483647,0,0,1,1,2,2,3,3,4,4,5,5,6,6,7,7,8,8,9,9,10,10,11,11,12,12,13,13,14,14],"right_children":[2,4,6,8,10,12,14,16,18,20,22,24,26,28,30,-1,-1,-1,-1,-1,-1,-1,-1,-1,-1,-1,-1,-1,-1,-1,-1],"split_conditions":[6.65000000000000000e+01,6.45000000000000000e+01,1.21883356571197510e+00,6.25000000000000000e+01,1.88500000000000000e+02,1.00462031364440918e+00,5.85000000000000000e+01,6.50000000000000000e+00,1.06883120000000000e+07,2.46700000000000000e+03,4.10500000000000000e+02,1.80029213428497314e-01,1.15000000000000000e+01,4.05000000000000000e+01,1.16913154296875000e+04,-1.23232744634151459e-01,9.22775417566299438e-02,-2.49564051628112793e-01,3.43920886516571045e-02,-9.06163528561592102e-02,1.22659645974636078e-01,-1.55473470687866211e-01,1.07188776135444641e-01,4.65226024389266968e-02,-1.41257971525192261e-01,1.31193101406097412e-01,-1.86971388757228851e-02,5.42434006929397583e-02,-2.04882219433784485e-01,1.57616928219795227e-01,-1.47108852863311768e-01],"split_indices":[164,126,88,52,63,92,71,103,20,41,109,74,132,50,45,0,0,0,0,0,0,0,0,0,0,0,0,0,0,0,0],"sum_hessian":[9.76447937011718750e+02,2.92468780517578125e+02,6.83979125976562500e+02,1.32949081420898438e+02,1.59519699096679688e+02,5.24947814941406250e+02,1.59031341552734375e+02,4.10208587646484375e+01,9.19282150268554688e+01,7.13103713989257813e+01,8.82093200683593750e+01,1.76674652099609375e+02,3.48273162841796875e+02,1.14335609436035156e+02,4.46957283020019531e+01,1.16399841308593750e+01,2.93808727264404297e+01,7.36708526611328125e+01,1.82573680877685547e+01,6.96182489395141602e+00,6.43485488891601563e+01,5.85143737792968750e+01,2.96949443817138672e+01,1.10697143554687500e+02,6.59775009155273438e+01,2.43648391723632813e+02,1.04624778747558594e+02,2.29647731781005859e+01,9.13708419799804688e+01,3.90307426452636719e+01,5.66498422622680664e+00],"tree_param":{"num_deleted":"0","num_feature":"168","num_nodes":"31","size_leaf_vector":"0"}},{"base_weights":[-2.29451153427362442e-02,2.93291490525007248e-02,-3.37152183055877686e-01,8.91193747520446777e-02,-2.66519397497177124e-01,-6.19977176189422607e-01,2.02555969357490540e-01,-1.10789008438587189e-01,2.37033873796463013e-01,-6.73061728477478027e-01,1.22004374861717224e-02,9.44262072443962097e-02,-8.73298585414886475e-01,3.95663291215896606e-01,-2.20374047756195068e-01,3.60354721546173096e-01,-1.98762774467468262e-01,-1.35802149772644043e-01,3.38268935680389404e-01,-7.98048079013824463e-01,-2.24047601222991943e-02,3.80502969026565552e-01,-3.65143239498138428e-01,2.81088352203369141e-01,-2.91714012622833252e-01,8.72671678662300110e-02,-9.10908758640289307e-01,-1.84607595205307007e-01,5.47559618949890137e-01,1.46936953067779541e-01,-3.38882595300674438e-01],"default_left":[true,true,true,true,true,true,true,true,true,true,true,true,true,true,true,false,false,false,false,false,false,false,false,false,false,false,false,false,false,false,false],"id":24,"leaf_child_counts":[0,0,0,0,0,0,0,0,0,0,0,0,0,0,0,0,0,0,0,0,0,0,0,0,0,0,0,0,0,0,0],"left_children":[1,3,5,7,9,11,13,15,17,19,21,23,25,27,29,-1,-1,-1,-1,-1,-1,-1,-1,-1,-1,-1,-1,-1,-1,-1,-1],"loss_changes":[1.60004253387451172e+01,1.52371950149536133e+01,2.30803108215332031e+01,2.14197158813476563e+01,1.65750789642333984e+01,1.83950424194335938e+01,6.13090038299560547e+00,1.40315017700195313e+01,1.62946605682373047e+01,4.55602645874023438e+00,1.61026859283447266e+01,3.99448847770690918e+00,3.77385330200195313e+00,5.56267213821411133e+00,1.97207677364349365e+00,0.00000000000000000e+00,0.00000000000000000e+00,0.00000000000000000e+00,0.00000000000000000e+00,0.00000000000000000e+00,0.00000000000000000e+00,0.00000000000000000e+00,0.00000000000000000e+00,0.00000000000000000e+00,0.00000000000000000e+00,0.00000000000000000e+00,0.00000000000000000e+00,0.00000000000000000e+00,0.00000000000000000e+00,0.00000000000000000e+00,0.00000000000000000e+00],"parents":[2147483647,0,0,1,1,2,2,3,3,4,4,5,5,6,6,7,7,8,8,9,9,10,10,11,11,12,12,13,13,14,14],"right_children":[2,4,6,8,10,12,14,16,18,20,22,24,26,28,30,-1,-1,-1,-1,-1,-1,-1,-1,-1,-1,-1,-1,-1,-1,-1,-1],"split_conditions":[9.75000000000000000e+01,1.65000000000000000e+01,1.10700106620788574e+00,1.65228977799415588e-01,4.20150000000000000e+03,1.97750000000000000e+03,2.03500000000000000e+02,-8.35853636264801025e-01,5.67414164543151855e-01,1.12500000000000000e+02,7.05000000000000000e+01,4.30791005492210388e-02,-1.59290647506713867e+00,2.05000000000000000e+01,2.88600000000000000e+03,1.08106419444084167e-01,-5.96288330852985382e-02,-4.07406464219093323e-02,1.01480685174465179e-01,-2.39414438605308533e-01,-6.72142812982201576e-03,1.14150896668434143e-01,-1.09542973339557648e-01,8.43265056610107422e-02,-8.75142067670822144e-02,2.61801518499851227e-02,-2.73272633552551270e-01,-5.53822815418243408e-02,1.64267897605895996e-01,4.40810881555080414e-02,-1.01664781570434570e-01],"split_indices":[135,140,94,77,41,41,58,75,93,50,101,78,76,69,1,0,0,0,0,0,0,0,0,0,0,0,0,0,0,0,0],"sum_hessian":[9.50123474121093750e+02,8.26259460449218750e+02,1.23863975524902344e+02,6.96067565917968750e+02,1.30191940307617188e+02,7.98099899291992188e+01,4.40539855957031250e+01,2.97609436035156250e+02,3.98458129882812500e+02,4.43216476440429688e+01,8.58702926635742188e+01,2.33547840118408203e+01,5.64552040100097656e+01,3.09084415435791016e+01,1.31455450057983398e+01,3.95196189880371094e+01,2.58089813232421875e+02,8.39946365356445313e+01,3.14463470458984375e+02,3.43293418884277344e+01,9.99230766296386719e+00,4.33921890258789063e+01,4.24780998229980469e+01,1.84950332641601563e+01,4.85975027084350586e+00,1.38095414638519287e+00,5.50742492675781250e+01,5.74214458465576172e+00,2.51662960052490234e+01,2.32891654968261719e+00,1.08166284561157227e+01],"tree_param":{"num_deleted":"0","num_feature":"168","num_nodes":"31","size_leaf_vector":"0"}},{"base_weights":[-2.15582866221666336e-02,1.53283346444368362e-02,-4.19616401195526123e-01,-5.22039771080017090e-01,4.89607118070125580e-02,-7.10447430610656738e-01,3.93368862569332123e-02,-6.43629729747772217e-01,1.63937926292419434e-01,-1.07131496071815491e-01,1.71863183379173279e-01,-8.51358294486999512e-01,2.11542382836341858e-01,-3.31784725189208984e-01,3.70370596647262573e-01,-7.44640290737152100e-01,1.11393302679061890e-01,-6.63086622953414917e-02,2.32689827680587769e-01,-6.14498913288116455e-01,-2.83275684341788292e-03,2.29283809661865234e-01,-4.20602768659591675e-01,-9.11413788795471191e-01,1.60836912691593170e-02,-4.70216929912567139e-01,1.53193026781082153e-01,-1.43817335367202759e-01,4.74045842885971069e-01],"default_left":[true,true,true,true,true,true,true,true,true,true,true,true,false,true,true,false,false,false,false,false,false,false,false,false,false,false,false,false,false],"id":25,