{"learner":{"attributes":{"best_iteration":"437","best_msg":"[437]\tvalidation_0-error:0.00073\tvalidation_1-error:0.02611","best_score":"0.026112","scikit_learn":"{\"n_estimators\": 1000, \"objective\": \"binary:logistic\", \"max_depth\": 4, \"learning_rate\": 0.3, \"verbosity\": null, \"booster\": null, \"tree_method\": null, \"gamma\": null, \"min_child_weight\": null, \"max_delta_step\": null, \"subsample\": null, \"colsample_bytree\": null, \"colsample_bylevel\": null, \"colsample_bynode\": null, \"reg_alpha\": null, \"reg_lambda\": 15, \"scale_pos_weight\": null, \"base_score\": null, \"missing\": NaN, \"num_parallel_tree\": null, \"kwargs\": {\"silent\": true, \"eval_metrics\": \"error\", \"seed\": 100, \"sub_sabsample\": 0.8}, \"random_state\": null, \"n_jobs\": null, \"monotone_constraints\": null, \"interaction_constraints\": null, \"importance_type\": \"gain\", \"gpu_id\": null, \"validate_parameters\": null, \"classes_\": [0, 1], \"n_classes_\": 2, \"_le\": {\"classes_\": [0, 1]}, \"_features_count\": 168, \"evals_result_\": {\"validation_0\": {\"error\": [0.235777, 0.194127, 0.149542, 0.146971, 0.143627, 0.133414, 0.129046, 0.123723, 0.12229, 0.1179, 0.112645, 0.109119, 0.106322, 0.105685, 0.102932, 0.100202, 0.098519, 0.096995, 0.096586, 0.095653, 0.09356, 0.092468, 0.091809, 0.091149, 0.090194, 0.088783, 0.087077, 0.085166, 0.084211, 0.083256, 0.081641, 0.081299, 0.080185, 0.079434, 0.078206, 0.076864, 0.07559, 0.075158, 0.074225, 0.073019, 0.072473, 0.072155, 0.071313, 0.070631, 0.069493, 0.068515, 0.06806, 0.067241, 0.066946, 0.066764, 0.066104, 0.065695, 0.065171, 0.064739, 0.064307, 0.063647, 0.06301, 0.062715, 0.061691, 0.06069, 0.06044, 0.059871, 0.059325, 0.059143, 0.058188, 0.05771, 0.056323, 0.05605, 0.055595, 0.055208, 0.05489, 0.054594, 0.053798, 0.053138, 0.052456, 0.052228, 0.051978, 0.051386, 0.051113, 0.050681, 0.05009, 0.049316, 0.049316, 0.048702, 0.048293, 0.047929, 0.04736, 0.046769, 0.046564, 0.046041, 0.045381, 0.045245, 0.044972, 0.044403, 0.044016, 0.04388, 0.043766, 0.043379, 0.04322, 0.042697, 0.042378, 0.041764, 0.041196, 0.040718, 0.040013, 0.039626, 0.039285, 0.038784, 0.038511, 0.038216, 0.037943, 0.037238, 0.037147, 0.036942, 0.036714, 0.036487, 0.035964, 0.03585, 0.035486, 0.035304, 0.035236, 0.034804, 0.034303, 0.03428, 0.034167, 0.03403, 0.033643, 0.033484, 0.03312, 0.033029, 0.032643, 0.032574, 0.032097, 0.032233, 0.032301, 0.032006, 0.03146, 0.031164, 0.030891, 0.030436, 0.030095, 0.029867, 0.029799, 0.029663, 0.02939, 0.029139, 0.028685, 0.028616, 0.028571, 0.028139, 0.028139, 0.028002, 0.027456, 0.02691, 0.026796, 0.026728, 0.026433, 0.026182, 0.025909, 0.025454, 0.025363, 0.025181, 0.025113, 0.024954, 0.024886, 0.024726, 0.024567, 0.024181, 0.023817, 0.02368, 0.023407, 0.023043, 0.022907, 0.022702, 0.02277, 0.022543, 0.022292, 0.022042, 0.021997, 0.021769, 0.021656, 0.021474, 0.021178, 0.021132, 0.021087, 0.021019, 0.020768, 0.020723, 0.020541, 0.02045, 0.019927, 0.019881, 0.01995, 0.019449, 0.019085, 0.018789, 0.018403, 0.018221, 0.018084, 0.017811, 0.017652, 0.017243, 0.016879, 0.016765, 0.016742, 0.016446, 0.016401, 0.01631, 0.016082, 0.016105, 0.015696, 0.015764, 0.015718, 0.015673, 0.015536, 0.015468, 0.015355, 0.0154, 0.01515, 0.015082, 0.014809, 0.014581, 0.014627, 0.014263, 0.014263, 0.014058, 0.013967, 0.013762, 0.013648, 0.013444, 0.013466, 0.013285, 0.012943, 0.012807, 0.012693, 0.012602, 0.012511, 0.012466, 0.012215, 0.012056, 0.011942, 0.011783, 0.011715, 0.011783, 0.011669, 0.011647, 0.011305, 0.011237, 0.011101, 0.01101, 0.010873, 0.010737, 0.010646, 0.010714, 0.01076, 0.010509, 0.010418, 0.010259, 0.010077, 0.010009, 0.009759, 0.00985, 0.009622, 0.009531, 0.009486, 0.009213, 0.00919, 0.009099, 0.008962, 0.00869, 0.008667, 0.00853, 0.008417, 0.008303, 0.008303, 0.008189, 0.00803, 0.007939, 0.007939, 0.007757, 0.007757, 0.007666, 0.00762, 0.007552, 0.007529, 0.007438, 0.007188, 0.007006, 0.007052, 0.006961, 0.006915, 0.006847, 0.006688, 0.00671, 0.006688, 0.006483, 0.006369, 0.006415, 0.006392, 0.006278, 0.006096, 0.005983, 0.005869, 0.005937, 0.005869, 0.005732, 0.00555, 0.005482, 0.005346, 0.005391, 0.005391, 0.0053, 0.005209, 0.005209, 0.005164, 0.005255, 0.005095, 0.004868, 0.004777, 0.004777, 0.004777, 0.004709, 0.004686, 0.004731, 0.004413, 0.004413, 0.004322, 0.004299, 0.004277, 0.004231, 0.00414, 0.004163, 0.004117, 0.004026, 0.004049, 0.003958, 0.00389, 0.003867, 0.003844, 0.003776, 0.003753, 0.003571, 0.003571, 0.003503, 0.003503, 0.003458, 0.003458, 0.00348, 0.003389, 0.003344, 0.003367, 0.003367, 0.003367, 0.003185, 0.003185, 0.003185, 0.003185, 0.003003, 0.00298, 0.002912, 0.002889, 0.002866, 0.002821, 0.00273, 0.002639, 0.002593, 0.00257, 0.002548, 0.002525, 0.002502, 0.002502, 0.002502, 0.002434, 0.002434, 0.002502, 0.002411, 0.002366, 0.002343, 0.002343, 0.002275, 0.002343, 0.002275, 0.002184, 0.002138, 0.002002, 0.001979, 0.002002, 0.002002, 0.002025, 0.002002, 0.002002, 0.002002, 0.002002, 0.001956, 0.001865, 0.001911, 0.00182, 0.00182, 0.001661, 0.001706, 0.001615, 0.001524, 0.00157, 0.001547, 0.001524, 0.00157, 0.001456, 0.001479, 0.001456, 0.001456, 0.001433, 0.001388, 0.001342, 0.001342, 0.001206, 0.001206, 0.001297, 0.001297, 0.001274, 0.001183, 0.001183, 0.00116, 0.00116, 0.001183, 0.00116, 0.001137, 0.001137, 0.001001, 0.001001, 0.000887, 0.000933, 0.000887, 0.000819, 0.000819, 0.000819, 0.000864, 0.000796, 0.000728, 0.000728, 0.000728, 0.000751, 0.000773, 0.000773, 0.000751, 0.000751, 0.000773, 0.000728, 0.000682, 0.000682, 0.000682, 0.000682, 0.000637, 0.000637, 0.000682, 0.00066, 0.000614, 0.000569, 0.000523, 0.000546, 0.0005, 0.0005, 0.0005, 0.000523, 0.000478, 0.000478, 0.000432, 0.000478]}, \"validation_1\": {\"error\": [0.237194, 0.194614, 0.148576, 0.150214, 0.144118, 0.131744, 0.129015, 0.124465, 0.123283, 0.119552, 0.114639, 0.112183, 0.111091, 0.10918, 0.108543, 0.105723, 0.105086, 0.104813, 0.103994, 0.103266, 0.102538, 0.10081, 0.099172, 0.099172, 0.098899, 0.098808, 0.097079, 0.094623, 0.09435, 0.093895, 0.092621, 0.092894, 0.091438, 0.091256, 0.090893, 0.090256, 0.088527, 0.088254, 0.087617, 0.087344, 0.085706, 0.084797, 0.084069, 0.083887, 0.083432, 0.083614, 0.083614, 0.083341, 0.082249, 0.082704, 0.081976, 0.08143, 0.081066, 0.081976, 0.080884, 0.080884, 0.080429, 0.079702, 0.07861, 0.077882, 0.07679, 0.075789, 0.076153, 0.075607, 0.075425, 0.07497, 0.075061, 0.074606, 0.073424, 0.073606, 0.073424, 0.073515, 0.073424, 0.072514, 0.071604, 0.071422, 0.071422, 0.07124, 0.07215, 0.071149, 0.070694, 0.068966, 0.069147, 0.068784, 0.068875, 0.068238, 0.067419, 0.06751, 0.067237, 0.066145, 0.065781, 0.064598, 0.064507, 0.063779, 0.063507, 0.063961, 0.06387, 0.063597, 0.06287, 0.06287, 0.062597, 0.06196, 0.061596, 0.06196, 0.061596, 0.061232, 0.061323, 0.060686, 0.059776, 0.060231, 0.06014, 0.059503, 0.059503, 0.059321, 0.05923, 0.059594, 0.058957, 0.05832, 0.057502, 0.05832, 0.057775, 0.057684, 0.057593, 0.05732, 0.05732, 0.056592, 0.056956, 0.057229, 0.056683, 0.056046, 0.055773, 0.055864, 0.05641, 0.056501, 0.055591, 0.055136, 0.054954, 0.054681, 0.054863, 0.054499, 0.054135, 0.053953, 0.054499, 0.053589, 0.053589, 0.053953, 0.053407, 0.053043, 0.052679, 0.052679, 0.052588, 0.051588, 0.051315, 0.050951, 0.050678, 0.049586, 0.049586, 0.048949, 0.048858, 0.048858, 0.049222, 0.048403, 0.048767, 0.048494, 0.048039, 0.048039, 0.047766, 0.047493, 0.046857, 0.045947, 0.046675, 0.047038, 0.047038, 0.046766, 0.047311, 0.047311, 0.047129, 0.046766, 0.046129, 0.046493, 0.046311, 0.046311, 0.045947, 0.045765, 0.046129, 0.045947, 0.045674, 0.045128, 0.044946, 0.044764, 0.0444, 0.044491, 0.044127, 0.043581, 0.044036, 0.044218, 0.043672, 0.043854, 0.043308, 0.043399, 0.043308, 0.042853, 0.043308, 0.042762, 0.042853, 0.042125, 0.041943, 0.042034, 0.042489, 0.041579, 0.041488, 0.041488, 0.040761, 0.040852, 0.040943, 0.04067, 0.040579, 0.040488, 0.040124, 0.040306, 0.040124, 0.039578, 0.039396, 0.039487, 0.039396, 0.03885, 0.038759, 0.038304, 0.038213, 0.038122, 0.037758, 0.03794, 0.038122, 0.038304, 0.037576, 0.03703, 0.037394, 0.03703, 0.037121, 0.037849, 0.037758, 0.037394, 0.037394, 0.037394, 0.037576, 0.037485, 0.037394, 0.037303, 0.037212, 0.036939, 0.037303, 0.037667, 0.037212, 0.03703, 0.036757, 0.036575, 0.036393, 0.036393, 0.03612, 0.035848, 0.035666, 0.035666, 0.035666, 0.035666, 0.035757, 0.03512, 0.035484, 0.035211, 0.035757, 0.035484, 0.035848, 0.035211, 0.035302, 0.035302, 0.035029, 0.034756, 0.034847, 0.034574, 0.034119, 0.034028, 0.033937, 0.034028, 0.034028, 0.033755, 0.033846, 0.033937, 0.033937, 0.033937, 0.033573, 0.033482, 0.033846, 0.033482, 0.033482, 0.0333, 0.033118, 0.033118, 0.032845, 0.032845, 0.03239, 0.03239, 0.03239, 0.032117, 0.03239, 0.033209, 0.032936, 0.032481, 0.032572, 0.03239, 0.032208, 0.032208, 0.031753, 0.032026, 0.031753, 0.031571, 0.031571, 0.031389, 0.031207, 0.030934, 0.031025, 0.031025, 0.031116, 0.031298, 0.031025, 0.030934, 0.03057, 0.030661, 0.030479, 0.030298, 0.030389, 0.030207, 0.03057, 0.030298, 0.030298, 0.030389, 0.030479, 0.030207, 0.030389, 0.030207, 0.029752, 0.029843, 0.029843, 0.029843, 0.030025, 0.029752, 0.02957, 0.029388, 0.029388, 0.029388, 0.029388, 0.029388, 0.02957, 0.029661, 0.02957, 0.029297, 0.029115, 0.029297, 0.029206, 0.029297, 0.029206, 0.029115, 0.029297, 0.029115, 0.028842, 0.02866, 0.02866, 0.028569, 0.02866, 0.028478, 0.028569, 0.028751, 0.028751, 0.02866, 0.02866, 0.028751, 0.028933, 0.028751, 0.02866, 0.028933, 0.02866, 0.028387, 0.028205, 0.028478, 0.028478, 0.028296, 0.028114, 0.028114, 0.028023, 0.028023, 0.027932, 0.028114, 0.027841, 0.02775, 0.028114, 0.028023, 0.028569, 0.028842, 0.028751, 0.028478, 0.028296, 0.028387, 0.028478, 0.028387, 0.028114, 0.028114, 0.028296, 0.028296, 0.028023, 0.027932, 0.02775, 0.02775, 0.027477, 0.027659, 0.027295, 0.027204, 0.027295, 0.027113, 0.026931, 0.027113, 0.027113, 0.02684, 0.026931, 0.027113, 0.027295, 0.027022, 0.027022, 0.026749, 0.026749, 0.02684, 0.02684, 0.026567, 0.02684, 0.026749, 0.026203, 0.026476, 0.026476, 0.026476, 0.026385, 0.026112, 0.026294, 0.026203, 0.026203, 0.026203, 0.026203, 0.026203, 0.026112, 0.026294, 0.026476, 0.026931, 0.026658, 0.026476, 0.026294, 0.026385, 0.026385, 0.026567, 0.026476, 0.026476, 0.026658, 0.026476, 0.026658, 0.02684, 0.026476, 0.026567, 0.026476, 0.026476, 0.026385, 0.026203, 0.026294]}}, \"best_score\": 0.026112, \"best_iteration\": 437, \"best_ntree_limit\": 438, \"type\": \"XGBClassifier\"}"},"gradient_booster":{"model":{"gbtree_model_param":{"num_trees":"468","size_leaf_vector":"0"},"tree_info":[0,0,0,0,0,0,0,0,0,0,0,0,0,0,0,0,0,0,0,0,0,0,0,0,0,0,0,0,0,0,0,0,0,0,0,0,0,0,0,0,0,0,0,0,0,0,0,0,0,0,0,0,0,0,0,0,0,0,0,0,0,0,0,0,0,0,0,0,0,0,0,0,0,0,0,0,0,0,0,0,0,0,0,0,0,0,0,0,0,0,0,0,0,0,0,0,0,0,0,0,0,0,0,0,0,0,0,0,0,0,0,0,0,0,0,0,0,0,0,0,0,0,0,0,0,0,0,0,0,0,0,0,0,0,0,0,0,0,0,0,0,0,0,0,0,0,0,0,0,0,0,0,0,0,0,0,0,0,0,0,0,0,0,0,0,0,0,0,0,0,0,0,0,0,0,0,0,0,0,0,0,0,0,0,0,0,0,0,0,0,0,0,0,0,0,0,0,0,0,0,0,0,0,0,0,0,0,0,0,0,0,0,0,0,0,0,0,0,0,0,0,0,0,0,0,0,0,0,0,0,0,0,0,0,0,0,0,0,0,0,0,0,0,0,0,0,0,0,0,0,0,0,0,0,0,0,0,0,0,0,0,0,0,0,0,0,0,0,0,0,0,0,0,0,0,0,0,0,0,0,0,0,0,0,0,0,0,0,0,0,0,0,0,0,0,0,0,0,0,0,0,0,0,0,0,0,0,0,0,0,0,0,0,0,0,0,0,0,0,0,0,0,0,0,0,0,0,0,0,0,0,0,0,0,0,0,0,0,0,0,0,0,0,0,0,0,0,0,0,0,0,0,0,0,0,0,0,0,0,0,0,0,0,0,0,0,0,0,0,0,0,0,0,0,0,0,0,0,0,0,0,0,0,0,0,0,0,0,0,0,0,0,0,0,0,0,0,0,0,0,0,0,0,0,0,0,0,0,0,0,0,0,0,0,0,0,0,0,0,0,0,0,0,0,0,0,0,0,0,0,0,0,0,0,0,0,0,0,0,0,0,0,0,0,0,0,0,0,0,0,0,0,0,0,0,0,0,0,0,0,0,0,0,0,0,0,0,0],"trees":[{"base_weights":[2.50198781490325928e-01,-1.58363544940948486e+00,5.27267038822174072e-01,-1.99623346328735352e-01,-1.70387077331542969e+00,1.79372206330299377e-02,1.26778614521026611e+00,-1.31092441082000732e+00,5.83569407463073730e-01,-1.88143229484558105e+00,-9.73390579223632813e-01,-3.84891629219055176e-01,9.95192289352416992e-01,1.44987809658050537e+00,-2.56410270929336548e-01,-1.41125535964965820e+00,2.08955228328704834e-01,9.77443635463714600e-01,-3.67346942424774170e-01,1.25000000000000000e-01,-1.88511753082275391e+00,-1.63133645057678223e+00,-1.25435546040534973e-01,-1.21921920776367188e+00,-4.60685826838016510e-02,-6.34441077709197998e-01,1.26751708984375000e+00,-1.03883492946624756e+00,1.51890540122985840e+00,9.09687995910644531e-01,-8.51756632328033447e-01],"default_left":[true,true,true,true,true,true,true,true,true,true,true,true,true,true,true,false,false,false,false,false,false,false,false,false,false,false,false,false,false,false,false],"id":0,"leaf_child_counts":[0,0,0,0,0,0,0,0,0,0,0,0,0,0,0,0,0,0,0,0,0,0,0,0,0,0,0,0,0,0,0],"left_children":[1,3,5,7,9,11,13,15,17,19,21,23,25,27,29,-1,-1,-1,-1,-1,-1,-1,-1,-1,-1,-1,-1,-1,-1,-1,-1],"loss_changes":[5.60426220703125000e+03,2.35897216796875000e+02,3.60991552734375000e+03,1.27015907287597656e+02,1.45102294921875000e+02,2.24433056640625000e+03,1.08813623046875000e+03,1.34965667724609375e+01,3.84391937255859375e+01,1.13298339843750000e+01,1.59421417236328125e+02,1.14051599121093750e+03,7.50528198242187500e+02,6.22611328125000000e+02,3.09448181152343750e+02,0.00000000000000000e+00,0.00000000000000000e+00,0.00000000000000000e+00,0.00000000000000000e+00,0.00000000000000000e+00,0.00000000000000000e+00,0.00000000000000000e+00,0.00000000000000000e+00,0.00000000000000000e+00,0.00000000000000000e+00,0.00000000000000000e+00,0.00000000000000000e+00,0.00000000000000000e+00,0.00000000000000000e+00,0.00000000000000000e+00,0.00000000000000000e+00],"parents":[2147483647,0,0,1,1,2,2,3,3,4,4,5,5,6,6,7,7,8,8,9,9,10,10,11,11,12,12,13,13,14,14],"right_children":[2,4,6,8,10,12,14,16,18,20,22,24,26,28,30,-1,-1,-1,-1,-1,-1,-1,-1,-1,-1,-1,-1,-1,-1,-1,-1],"split_conditions":[1.30650000000000000e+03,3.71840503066778183e-03,1.25500000000000000e+02,1.15000000000000000e+01,4.85000000000000000e+01,4.15000000000000000e+01,2.09400500000000000e+05,1.29429565429687500e+03,1.55000000000000000e+01,-7.19685459136962891e+00,3.75000000000000000e+01,8.65000000000000000e+01,1.91223706054687500e+03,9.45000000000000000e+01,2.55000000000000000e+01,-4.23376619815826416e-01,6.26865699887275696e-02,2.93233096599578857e-01,-1.10204085707664490e-01,3.75000014901161194e-02,-5.65535306930541992e-01,-4.89400953054428101e-01,-3.76306660473346710e-02,-3.65765780210494995e-01,-1.38205755501985550e-02,-1.90332338213920593e-01,3.80255132913589478e-01,-3.11650484800338745e-01,4.55671638250350952e-01,2.72906422615051270e-01,-2.55526989698410034e-01],"split_indices":[42,92,100,108,155,71,18,5,152,79,162,109,80,154,61,0,0,0,0,0,0,0,0,0,0,0,0,0,0,0,0],"sum_hessian":[1.09902500000000000e+04,1.43325000000000000e+03,9.55700000000000000e+03,1.17750000000000000e+02,1.31550000000000000e+03,5.67150000000000000e+03,3.88550000000000000e+03,4.45000000000000000e+01,7.32500000000000000e+01,1.03925000000000000e+03,2.76250000000000000e+02,4.02250000000000000e+03,1.64900000000000000e+03,3.47150000000000000e+03,4.14000000000000000e+02,4.27500000000000000e+01,1.75000000000000000e+00,5.15000000000000000e+01,2.17500000000000000e+01,1.00000000000000000e+00,1.03825000000000000e+03,1.47750000000000000e+02,1.28500000000000000e+02,1.15050000000000000e+03,2.87200000000000000e+03,2.33250000000000000e+02,1.41575000000000000e+03,8.80000000000000000e+01,3.38350000000000000e+03,1.37250000000000000e+02,2.76750000000000000e+02],"tree_param":{"num_deleted":"0","num_feature":"168","num_nodes":"31","size_leaf_vector":"0"}},{"base_weights":[1.80269792675971985e-01,-1.04339265823364258e+00,4.15527939796447754e-01,-1.40682208538055420e+00,-5.11282682418823242e-01,3.52457053959369659e-02,9.97911155223846436e-01,-4.91624057292938232e-01,-1.47644793987274170e+00,-1.44928646087646484e+00,3.12742829322814941e-01,-8.12283337116241455e-01,4.04521346092224121e-01,-4.74992036819458008e-01,1.14088141918182373e+00,-1.04846143722534180e+00,4.96754497289657593e-01,-1.53173780441284180e+00,-9.02311861515045166e-01,2.05348036251962185e-03,-1.54587507247924805e+00,8.41132521629333496e-01,-4.96675014495849609e-01,-1.26079547405242920e+00,9.21113342046737671e-02,-1.55980244278907776e-01,8.75297605991363525e-01,-8.01101624965667725e-01,9.69293534755706787e-01,-1.43866956233978271e+00,1.18611943721771240e+00],"default_left":[true,true,true,true,true,true,true,true,true,true,true,true,true,true,true,false,false,false,false,false,false,false,false,false,false,false,false,false,false,false,false],"id":1,"leaf_child_counts":[0,0,0,0,0,0,0,0,0,0,0,0,0,0,0,0,0,0,0,0,0,0,0,0,0,0,0,0,0,0,0],"left_children":[1,3,5,7,9,11,13,15,17,19,21,23,25,27,29,-1,-1,-1,-1,-1,-1,-1,-1,-1,-1,-1,-1,-1,-1,-1,-1],"loss_changes":[3.07130224609375000e+03,3.22031005859375000e+02,1.97945776367187500e+03,5.37279052734375000e+01,5.64856872558593750e+02,1.70251818847656250e+03,7.51713378906250000e+02,5.96453018188476563e+01,8.94433593750000000e+00,4.77530517578125000e+01,1.75924636840820313e+02,6.71476928710937500e+02,1.00159222412109375e+03,1.63787460327148438e+02,4.01709472656250000e+02,0.00000000000000000e+00,0.00000000000000000e+00,0.00000000000000000e+00,0.00000000000000000e+00,0.00000000000000000e+00,0.00000000000000000e+00,0.00000000000000000e+00,0.00000000000000000e+00,0.00000000000000000e+00,0.00000000000000000e+00,0.00000000000000000e+00,0.00000000000000000e+00,0.00000000000000000e+00,0.00000000000000000e+00,0.00000000000000000e+00,0.00000000000000000e+00],"parents":[2147483647,0,0,1,1,2,2,3,3,4,4,5,5,6,6,7,7,8,8,9,9,10,10,11,11,12,12,13,13,14,14],"right_children":[2,4,6,8,10,12,14,16,18,20,22,24,26,28,30,-1,-1,-1,-1,-1,-1,-1,-1,-1,-1,-1,-1,-1,-1,-1,-1],"split_conditions":[1.48750000000000000e+03,1.11050000000000000e+03,1.14500000000000000e+02,1.04639213532209396e-02,1.19500000000000000e+02,2.33650000000000000e+03,1.01500000000000000e+02,1.10000000000000000e+01,2.25000000000000000e+01,2.10550000000000000e+03,3.84835000000000000e+04,1.40500000000000000e+02,1.65000000000000000e+01,5.87050000000000000e+03,6.83838009834289551e-01,-3.14538449048995972e-01,1.49026349186897278e-01,-4.59521353244781494e-01,-2.70693570375442505e-01,6.16044155322015285e-04,-4.63762551546096802e-01,2.52339780330657959e-01,-1.49002507328987122e-01,-3.78238648176193237e-01,2.76334006339311600e-02,-4.67940755188465118e-02,2.62589305639266968e-01,-2.40330502390861511e-01,2.90788084268569946e-01,-4.31600898504257202e-01,3.55835855007171631e-01],"split_indices":[42,42,56,93,136,43,145,68,161,44,18,136,71,43,91,0,0,0,0,0,0,0,0,0,0,0,0,0,0,0,0],"sum_hessian":[1.06312265625000000e+04,1.70602893066406250e+03,8.92519824218750000e+03,9.99033935546875000e+02,7.06994934082031250e+02,5.40909619140625000e+03,3.51610180664062500e+03,7.91789093017578125e+01,9.19855041503906250e+02,3.25308441162109375e+02,3.81686523437500000e+02,1.63609020996093750e+03,3.77300561523437500e+03,3.08017883300781250e+02,3.20808398437500000e+03,5.00625801086425781e+01,2.91163311004638672e+01,8.16232482910156250e+02,1.03622497558593750e+02,2.12148799896240234e+01,3.04093536376953125e+02,2.30577377319335938e+02,1.51109146118164063e+02,1.08974645996093750e+03,5.46343872070312500e+02,1.72694824218750000e+03,2.04605749511718750e+03,2.56730010986328125e+02,5.12878875732421875e+01,4.73278503417968750e+01,3.16075610351562500e+03],"tree_param":{"num_deleted":"0","num_feature":"168","num_nodes":"31","size_leaf_vector":"0"}},{"base_weights":[1.32313191890716553e-01,3.32585364580154419e-01,-7.75268137454986572e-01,7.67555594444274902e-01,-6.31600469350814819e-02,-1.16110205650329590e+00,-1.92008391022682190e-01,-4.22481596469879150e-01,9.26050722599029541e-01,-7.82944560050964355e-01,6.05252087116241455e-01,-1.47108638286590576e+00,-5.65313220024108887e-01,-1.04970157146453857e+00,4.71282601356506348e-01,-1.23399829864501953e+00,1.53839096426963806e-01,-7.90210843086242676e-01,1.00717830657958984e+00,9.14772808551788330e-01,-1.01397728919982910e+00,-5.44090330600738525e-01,8.65724980831146240e-01,-1.47587513923645020e+00,9.73355919122695923e-02,-1.12838912010192871e+00,-1.35908022522926331e-01,2.65878766775131226e-01,-1.17120480537414551e+00,-9.49513733386993408e-01,7.25844204425811768e-01],"default_left":[true,true,true,true,true,true,true,true,true,true,true,true,true,true,true,false,false,false,false,false,false,false,false,false,false,false,false,false,false,false,false],"id":2,"leaf_child_counts":[0,0,0,0,0,0,0,0,0,0,0,0,0,0,0,0,0,0,0,0,0,0,0,0,0,0,0,0,0,0,0],"left_children":[1,3,5,7,9,11,13,15,17,19,21,23,25,27,29,-1,-1,-1,-1,-1,-1,-1,-1,-1,-1,-1,-1,-1,-1,-1,-1],"loss_changes":[1.83380236816406250e+03,1.42227185058593750e+03,4.07241088867187500e+02,7.48119628906250000e+02,2.09413867187500000e+03,1.89777343750000000e+02,4.30893737792968750e+02,2.23982116699218750e+02,4.96125488281250000e+02,8.35724121093750000e+02,6.82955200195312500e+02,7.49487304687500000e+00,9.42080688476562500e+01,5.73027954101562500e+01,1.65899658203125000e+02,0.00000000000000000e+00,0.00000000000000000e+00,0.00000000000000000e+00,0.00000000000000000e+00,0.00000000000000000e+00,0.00000000000000000e+00,0.00000000000000000e+00,0.00000000000000000e+00,0.00000000000000000e+00,0.00000000000000000e+00,0.00000000000000000e+00,0.00000000000000000e+00,0.00000000000000000e+00,0.00000000000000000e+00,0.00000000000000000e+00,0.00000000000000000e+00],"parents":[2147483647,0,0,1,1,2,2,3,3,4,4,5,5,6,6,7,7,8,8,9,9,10,10,11,11,12,12,13,13,14,14],"right_children":[2,4,6,8,10,12,14,16,18,20,22,24,26,28,30,-1,-1,-1,-1,-1,-1,-1,-1,-1,-1,-1,-1,-1,-1,-1,-1],"split_conditions":[1.21500000000000000e+02,5.85125000000000000e+04,3.75000000000000000e+01,9.45000000000000000e+01,2.65000000000000000e+01,1.02450000000000000e+03,1.37500000000000000e+02,2.06750000000000000e+03,4.36154479980468750e+01,7.85000000000000000e+01,1.75350000000000000e+03,1.76698672771453857e+00,5.35000000000000000e+01,1.25750000000000000e+03,1.57650000000000000e+03,-3.70199501514434814e-01,4.61517311632633209e-02,-2.37063258886337280e-01,3.02153497934341431e-01,2.74431854486465454e-01,-3.04193198680877686e-01,-1.63227111101150513e-01,2.59717494249343872e-01,-4.42762553691864014e-01,2.92006786912679672e-02,-3.38516741991043091e-01,-4.07724082469940186e-02,7.97636359930038452e-02,-3.51361453533172607e-01,-2.84854143857955933e-01,2.17753276228904724e-01],"split_indices":[62,22,128,136,67,46,136,47,83,58,41,90,54,40,43,0,0,0,0,0,0,0,0,0,0,0,0,0,0,0,0],"sum_hessian":[1.00526816406250000e+04,8.24319335937500000e+03,1.80948767089843750e+03,3.92026928710937500e+03,4.32292431640625000e+03,1.08011608886718750e+03,7.29371643066406250e+02,4.57819000244140625e+02,3.46245019531250000e+03,2.08023632812500000e+03,2.24268823242187500e+03,6.95970825195312500e+02,3.84145233154296875e+02,3.14263305664062500e+02,4.15108367919921875e+02,1.83008041381835938e+02,2.74810974121093750e+02,1.50364852905273438e+02,3.31208520507812500e+03,2.43860794067382813e+02,1.83637561035156250e+03,4.11334136962890625e+02,1.83135400390625000e+03,6.94734680175781250e+02,1.23611712455749512e+00,1.55639419555664063e+02,2.28505813598632813e+02,2.50635070800781250e+01,2.89199798583984375e+02,5.68513526916503906e+01,3.58257019042968750e+02],"tree_param":{"num_deleted":"0","num_feature":"168","num_nodes":"31","size_leaf_vector":"0"}},{"base_weights":[9.81401801109313965e-02,-9.82211232185363770e-01,2.15165317058563232e-01,-6.07305169105529785e-02,-1.07807350158691406e+00,-8.87421146035194397e-02,6.39070808887481689e-01,-6.91930651664733887e-01,7.12487339973449707e-01,-1.19610679149627686e+00,-4.68892425298690796e-01,-3.63252013921737671e-01,5.20332217216491699e-01,-6.26974582672119141e-01,7.62293696403503418e-01,-9.27108645439147949e-01,2.63752967119216919e-01,9.04378592967987061e-01,-2.59688347578048706e-01,-1.20440185070037842e+00,8.65985080599784851e-02,-9.53748524188995361e-01,3.50149393081665039e-01,-5.57385087013244629e-01,8.39249193668365479e-01,-2.45025694370269775e-01,8.77445340156555176e-01,-1.26815259456634521e+00,-1.25843852758407593e-01,-8.35973799228668213e-01,8.48635733127593994e-01],"default_left":[true,true,true,true,true,true,true,true,true,true,true,true,true,true,true,false,false,false,false,false,false,false,false,false,false,false,false,false,false,false,false],"id":3,"leaf_child_counts":[0,0,0,0,0,0,0,0,0,0,0,0,0,0,0,0,0,0,0,0,0,0,0,0,0,0,0,0,0,0,0],"left_children":[1,3,5,7,9,11,13,15,17,19,21,23,25,27,29,-1,-1,-1,-1,-1,-1,-1,-1,-1,-1,-1,-1,-1,-1,-1,-1],"loss_changes":[1.19374621582031250e+03,8.05569458007812500e+01,1.09704125976562500e+03,5.76030273437500000e+01,5.16405029296875000e+01,8.33653320312500000e+02,5.61745727539062500e+02,1.81080532073974609e+01,1.35268440246582031e+01,8.90570068359375000e+00,6.86395721435546875e+01,8.08701354980468750e+02,4.26857635498046875e+02,1.01561553955078125e+02,4.58625122070312500e+02,0.00000000000000000e+00,0.00000000000000000e+00,0.00000000000000000e+00,0.00000000000000000e+00,0.00000000000000000e+00,0.00000000000000000e+00,0.00000000000000000e+00,0.00000000000000000e+00,0.00000000000000000e+00,0.00000000000000000e+00,0.00000000000000000e+00,0.00000000000000000e+00,0.00000000000000000e+00,0.00000000000000000e+00,0.00000000000000000e+00,0.00000000000000000e+00],"parents":[2147483647,0,0,1,1,2,2,3,3,4,4,5,5,6,6,7,7,8,8,9,9,10,10,11,11,12,12,13,13,14,14],"right_children":[2,4,6,8,10,12,14,16,18,20,22,24,26,28,30,-1,-1,-1,-1,-1,-1,-1,-1,-1,-1,-1,-1,-1,-1,-1,-1],"split_conditions":[1.21650000000000000e+03,3.89406247995793819e-03,1.16500000000000000e+02,1.35000000000000000e+01,5.15000000000000000e+01,5.02150000000000000e+03,1.25500000000000000e+02,6.85412963867187500e+02,1.23500000000000000e+02,9.30000000000000000e+01,2.05000000000000000e+01,1.55382099609375000e+04,2.73050000000000000e+03,2.50000000000000000e+00,7.84174621105194092e-01,-2.78132617473602295e-01,7.91258960962295532e-02,2.71313577890396118e-01,-7.79065042734146118e-02,-3.61320555210113525e-01,2.59795542806386948e-02,-2.86124557256698608e-01,1.05044819414615631e-01,-1.67215526103973389e-01,2.51774758100509644e-01,-7.35077112913131714e-02,2.63233602046966553e-01,-3.80445808172225952e-01,-3.77531573176383972e-02,-2.50792145729064941e-01,2.54590719938278198e-01],"split_indices":[42,92,100,68,155,43,109,5,57,99,161,82,46,71,91,0,0,0,0,0,0,0,0,0,0,0,0,0,0,0,0],"sum_hessian":[9.40200878906250000e+03,9.08063232421875000e+02,8.49394531250000000e+03,8.78739013671875000e+01,8.20189331054687500e+02,4.95409912109375000e+03,3.53984594726562500e+03,4.92481422424316406e+01,3.86257591247558594e+01,6.74959045410156250e+02,1.45230316162109375e+02,3.41914428710937500e+03,1.53495495605468750e+03,3.08532104492187500e+02,3.23131396484375000e+03,3.98822746276855469e+01,9.36586761474609375e+00,3.31320991516113281e+01,5.49365949630737305e+00,6.71532043457031250e+02,3.42697978019714355e+00,8.96765747070312500e+01,5.55537452697753906e+01,2.95080957031250000e+03,4.68334625244140625e+02,4.89842376708984375e+02,1.04511254882812500e+03,1.25281013488769531e+02,1.83251083374023438e+02,1.58941101074218750e+02,3.07237280273437500e+03],"tree_param":{"num_deleted":"0","num_feature":"168","num_nodes":"31","size_leaf_vector":"0"}},{"base_weights":[7.48289898037910461e-02,-1.11541414260864258e+00,1.56291842460632324e-01,4.98939424753189087e-01,-1.37067306041717529e+00,-8.28257203102111816e-01,2.52975493669509888e-01,-5.78151941299438477e-01,7.67238676548004150e-01,1.60345554351806641e-01,-1.40475273132324219e+00,-1.42392635345458984e-01,-1.19714868068695068e+00,-4.08811718225479126e-02,5.49325108528137207e-01,-7.09306001663208008e-01,1.57068550586700439e-01,-4.14306879043579102e-01,9.30866599082946777e-01,-2.66099721193313599e-01,4.47565883398056030e-01,-1.42105543613433838e+00,8.12681391835212708e-02,-7.98170387744903564e-01,3.21240335702896118e-01,-1.20363807678222656e+00,7.14645013213157654e-02,-5.64007580280303955e-01,2.27716073393821716e-01,-1.05275899171829224e-01,7.11278319358825684e-01],"default_left":[true,true,true,true,true,true,true,true,true,true,true,true,true,true,true,false,false,false,false,false,false,false,false,false,false,false,false,false,false,false,false],"id":4,"leaf_child_counts":[0,0,0,0,0,0,0,0,0,0,0,0,0,0,0,0,0,0,0,0,0,0,0,0,0,0,0,0,0,0,0],"left_children":[1,3,5,7,9,11,13,15,17,19,21,23,25,27,29,-1,-1,-1,-1,-1,-1,-1,-1,-1,-1,-1,-1,-1,-1,-1,-1],"loss_changes":[8.54471313476562500e+02,2.42929992675781250e+02,7.87122436523437500e+02,3.21090927124023438e+01,2.90258178710937500e+01,1.84662017822265625e+02,6.54426635742187500e+02,4.18985271453857422e+00,2.06650695800781250e+01,4.74646186828613281e+00,1.34185180664062500e+01,8.77070999145507813e+01,5.23480224609375000e+00,5.33803100585937500e+02,3.97689575195312500e+02,0.00000000000000000e+00,0.00000000000000000e+00,0.00000000000000000e+00,0.00000000000000000e+00,0.00000000000000000e+00,0.00000000000000000e+00,0.00000000000000000e+00,0.00000000000000000e+00,0.00000000000000000e+00,0.00000000000000000e+00,0.00000000000000000e+00,0.00000000000000000e+00,0.00000000000000000e+00,0.00000000000000000e+00,0.00000000000000000e+00,0.00000000000000000e+00],"parents":[2147483647,0,0,1,1,2,2,3,3,4,4,5,5,6,6,7,7,8,8,9,9,10,10,11,11,12,12,13,13,14,14],"right_children":[2,4,6,8,10,12,14,16,18,20,22,24,26,28,30,-1,-1,-1,-1,-1,-1,-1,-1,-1,-1,-1,-1,-1,-1,-1,-1],"split_conditions":[1.75000000000000000e+01,6.05000000000000000e+01,1.05850000000000000e+03,5.00000000000000000e-01,7.83704101562500000e+02,9.25000000000000000e+01,1.09500000000000000e+02,2.34094810485839844e+00,2.50000000000000000e+00,1.50000000000000000e+00,6.86000000000000000e+03,1.51500000000000000e+02,7.92225488281250000e+03,7.50000000000000000e+00,1.22500000000000000e+02,-2.12791815400123596e-01,4.71205674111843109e-02,-1.24292068183422089e-01,2.79259979724884033e-01,-7.98299163579940796e-02,1.34269773960113525e-01,-4.26316648721694946e-01,2.43804436177015305e-02,-2.39451125264167786e-01,9.63721051812171936e-02,-3.61091434955596924e-01,2.14393511414527893e-02,-1.69202283024787903e-01,6.83148279786109924e-02,-3.15827727317810059e-02,2.13383510708808899e-01],"split_indices":[55,58,43,65,7,63,56,77,133,161,47,145,87,71,145,0,0,0,0,0,0,0,0,0,0,0,0,0,0,0,0],"sum_hessian":[8.77059277343750000e+03,5.49630310058593750e+02,8.22096191406250000e+03,7.30861663818359375e+01,4.76544158935546875e+02,7.24967956542968750e+02,7.49599414062500000e+03,1.11203174591064453e+01,6.19658470153808594e+01,9.16650867462158203e+00,4.67377655029296875e+02,2.60822204589843750e+02,4.64145751953125000e+02,3.77032080078125000e+03,3.72567333984375000e+03,9.88556575775146484e+00,1.23475146293640137e+00,4.74225902557373047e+00,5.72235870361328125e+01,4.13305187225341797e+00,5.03345680236816406e+00,4.62954467773437500e+02,4.42318630218505859e+00,1.03543510437011719e+02,1.57278701782226563e+02,4.62547943115234375e+02,1.59781694412231445e+00,1.27350830078125000e+03,2.49681250000000000e+03,7.39981384277343750e+02,2.98569213867187500e+03],"tree_param":{"num_deleted":"0","num_feature":"168","num_nodes":"31","size_leaf_vector":"0"}},{"base_weights":[5.31533546745777130e-02,2.01847434043884277e-01,-5.28711259365081787e-01,5.07032811641693115e-01,-8.03813040256500244e-02,-1.11652624607086182e+00,-2.79393136501312256e-01,6.71490371227264404e-01,-2.09916040301322937e-01,-6.69447124004364014e-01,3.31877052783966064e-01,-1.17216706275939941e+00,3.01750123500823975e-01,-1.06400918960571289e+00,1.39145419001579285e-01,-1.30100560188293457e+00,7.19355523586273193e-01,7.40192949771881104e-01,-5.01598417758941650e-01,5.59049010276794434e-01,-8.54633033275604248e-01,-4.17932868003845215e-01,5.69148898124694824e-01,-1.20402264595031738e+00,-1.91110268235206604e-01,7.04402506351470947e-01,-3.80773395299911499e-01,-1.10359954833984375e+00,3.74196827411651611e-01,-4.76695597171783447e-01,4.27530914545059204e-01],"default_left":[true,true,true,true,true,true,true,true,true,true,true,true,true,true,true,false,false,false,false,false,false,false,false,false,false,false,false,false,false,false,false],"id":5,"leaf_child_counts":[0,0,0,0,0,0,0,0,0,0,0,0,0,0,0,0,0,0,0,0,0,0,0,0,0,0,0,0,0,0,0],"left_children":[1,3,5,7,9,11,13,15,17,19,21,23,25,27,29,-1,-1,-1,-1,-1,-1,-1,-1,-1,-1,-1,-1,-1,-1,-1,-1],"loss_changes":[7.21129272460937500e+02,5.72057495117187500e+02,2.43993072509765625e+02,3.78201721191406250e+02,8.43549255371093750e+02,4.47897338867187500e+01,4.00056365966796875e+02,2.59335205078125000e+02,1.73669311523437500e+02,3.32364562988281250e+02,3.67465393066406250e+02,1.16909790039062500e+01,1.24924497604370117e+01,3.02891235351562500e+01,1.45722976684570313e+02,0.00000000000000000e+00,0.00000000000000000e+00,0.00000000000000000e+00,0.00000000000000000e+00,0.00000000000000000e+00,0.00000000000000000e+00,0.00000000000000000e+00,0.00000000000000000e+00,0.00000000000000000e+00,0.00000000000000000e+00,0.00000000000000000e+00,0.00000000000000000e+00,0.00000000000000000e+00,0.00000000000000000e+00,0.00000000000000000e+00,0.00000000000000000e+00],"parents":[2147483647,0,0,1,1,2,2,3,3,4,4,5,5,6,6,7,7,8,8,9,9,10,10,11,11,12,12,13,13,14,14],"right_children":[2,4,6,8,10,12,14,16,18,20,22,24,26,28,30,-1,-1,-1,-1,-1,-1,-1,-1,-1,-1,-1,-1,-1,-1,-1,-1],"split_conditions":[1.19500000000000000e+02,6.93165000000000000e+04,1.64400000000000000e+03,4.86250000000000000e+03,2.15000000000000000e+01,1.54157781600952148e+00,4.85000000000000000e+01,1.06712579727172852e+01,9.86579060554504395e-03,7.95000000000000000e+01,1.89350000000000000e+03,1.50821661949157715e+00,2.52868603515625000e+03,1.39515000000000000e+04,4.85000000000000000e+01,-3.90301704406738281e-01,2.15806663036346436e-01,2.22057893872261047e-01,-1.50479525327682495e-01,1.67714715003967285e-01,-2.56389915943145752e-01,-1.25379860401153564e-01,1.70744672417640686e-01,-3.61206799745559692e-01,-5.73330819606781006e-02,2.11320757865905762e-01,-1.14232026040554047e-01,-3.31079870462417603e-01,1.12259052693843842e-01,-1.43008679151535034e-01,1.28259286284446716e-01],"split_indices":[62,22,43,2,67,95,54,85,95,58,41,77,5,42,55,0,0,0,0,0,0,0,0,0,0,0,0,0,0,0,0],"sum_hessian":[8.30134277343750000e+03,6.61953369140625000e+03,1.68180908203125000e+03,3.17467797851562500e+03,3.44485571289062500e+03,4.85343780517578125e+02,1.19646533203125000e+03,2.58310302734375000e+03,5.91574890136718750e+02,1.41443981933593750e+03,2.03041601562500000e+03,4.69526550292968750e+02,1.58172369003295898e+01,4.08164367675781250e+02,7.88300964355468750e+02,5.18934783935546875e+01,2.53120947265625000e+03,1.33536361694335938e+02,4.58038513183593750e+02,1.81318252563476563e+02,1.23312158203125000e+03,4.85320037841796875e+02,1.54509594726562500e+03,4.51458312988281250e+02,1.80682430267333984e+01,9.64585685729980469e+00,6.17138004302978516e+00,4.00625915527343750e+02,7.53846883773803711e+00,2.48289459228515625e+02,5.40011474609375000e+02],"tree_param":{"num_deleted":"0","num_feature":"168","num_nodes":"31","size_leaf_vector":"0"}},{"base_weights":[3.81408594548702240e-02,-4.80269879102706909e-01,1.59608140587806702e-01,-7.67944574356079102e-01,2.57555544376373291e-01,-9.01410818099975586e-01,2.29005098342895508e-01,-2.21344940364360809e-02,-9.37678754329681396e-01,-9.04063582420349121e-01,6.39005959033966064e-01,-9.65291440486907959e-01,-4.96678538620471954e-02,3.78465056419372559e-01,-1.88119500875473022e-01,2.59890139102935791e-01,-9.68796789646148682e-01,2.85072773694992065e-01,-9.66374337673187256e-01,-1.14575970172882080e+00,-7.85512924194335938e-02,-7.34500169754028320e-01,7.58178055286407471e-01,-1.68463170528411865e-01,-1.04962348937988281e+00,-6.20379805564880371e-01,4.92851912975311279e-01,5.24405419826507568e-01,-3.68922799825668335e-02,-3.80927294492721558e-01,6.22699379920959473e-01],"default_left":[true,true,true,true,true,true,true,true,true,true,true,true,true,true,true,false,false,false,false,false,false,false,false,false,false,false,false,false,false,false,false],"id":6,"leaf_child_counts":[0,0,0,0,0,0,0,0,0,0,0,0,0,0,0,0,0,0,0,0,0,0,0,0,0,0,0,0,0,0,0],"left_children":[1,3,5,7,9,11,13,15,17,19,21,23,25,27,29,-1,-1,-1,-1,-1,-1,-1,-1,-1,-1,-1,-1,-1,-1,-1,-1],"loss_changes":[4.89245269775390625e+02,3.16073150634765625e+02,4.66319030761718750e+02,1.34519958496093750e+02,1.97002639770507813e+02,2.04600830078125000e+01,3.69944122314453125e+02,6.05970344543457031e+01,3.45631103515625000e+01,2.08536376953125000e+01,6.21659393310546875e+01,2.16251525878906250e+01,1.78910655975341797e+01,2.64643371582031250e+02,2.49129302978515625e+02,0.00000000000000000e+00,0.00000000000000000e+00,0.00000000000000000e+00,0.00000000000000000e+00,0.00000000000000000e+00,0.00000000000000000e+00,0.00000000000000000e+00,0.00000000000000000e+00,0.00000000000000000e+00,0.00000000000000000e+00,0.00000000000000000e+00,0.00000000000000000e+00,0.00000000000000000e+00,0.00000000000000000e+00,0.00000000000000000e+00,0.00000000000000000e+00],"parents":[2147483647,0,0,1,1,2,2,3,3,4,4,5,5,6,6,7,7,8,8,9,9,10,10,11,11,12,12,13,13,14,14],"right_children":[2,4,6,8,10,12,14,16,18,20,22,24,26,28,30,-1,-1,-1,-1,-1,-1,-1,-1,-1,-1,-1,-1,-1,-1,-1,-1],"split_conditions":[4.95000000000000000e+01,7.26024707031250000e+03,1.06750000000000000e+03,7.37757720947265625e+01,4.50000000000000000e+00,2.45000000000000000e+01,1.55000000000000000e+01,3.50000000000000000e+00,2.45000000000000000e+01,2.65000000000000000e+01,2.53927000000000000e+05,2.60623777285218239e-03,1.45000000000000000e+02,1.68686777353286743e-01,5.91662060546875000e+03,7.79670476913452148e-02,-2.90639042854309082e-01,8.55218321084976196e-02,-2.89912313222885132e-01,-3.43727916479110718e-01,-2.35653892159461975e-02,-2.20350056886672974e-01,2.27453425526618958e-01,-5.05389533936977386e-02,-3.14887046813964844e-01,-1.86113953590393066e-01,1.47855579853057861e-01,1.57321631908416748e-01,-1.10676847398281097e-02,-1.14278189837932587e-01,1.86809822916984558e-01],"split_indices":[49,82,42,81,65,161,134,70,61,70,20,93,127,78,82,0,0,0,0,0,0,0,0,0,0,0,0,0,0,0,0],"sum_hessian":[7.73624511718750000e+03,1.46015112304687500e+03,6.27609423828125000e+03,1.05010693359375000e+03,4.10044128417968750e+02,3.74253051757812500e+02,5.90184082031250000e+03,1.97824478149414063e+02,8.52282531738281250e+02,9.62836151123046875e+01,3.13760528564453125e+02,3.46282226562500000e+02,2.79708271026611328e+01,4.34601123046875000e+03,1.55582958984375000e+03,1.60801376342773438e+02,3.70230941772460938e+01,1.64698143005371094e+01,8.35812683105468750e+02,6.99765853881835938e+01,2.63070297241210938e+01,1.88664760589599609e+01,2.94894042968750000e+02,3.74444999694824219e+01,3.08837707519531250e+02,1.25821313858032227e+01,1.53886966705322266e+01,3.21311108398437500e+03,1.13290026855468750e+03,1.26336267089843750e+03,2.92467010498046875e+02],"tree_param":{"num_deleted":"0","num_feature":"168","num_nodes":"31","size_leaf_vector":"0"}},{"base_weights":[2.54379678517580032e-02,1.09454110264778137e-01,-6.26428067684173584e-01,1.71701937913894653e-01,-7.21438527107238770e-01,-9.54260468482971191e-01,-3.24169844388961792e-01,2.38821014761924744e-01,-5.50390362739562988e-01,-8.96220028400421143e-01,3.59208226203918457e-01,-1.04524803161621094e+00,1.14842563867568970e-01,-9.71472144126892090e-01,5.51826832816004753e-03,-2.07643121480941772e-01,3.42084914445877075e-01,-8.42300772666931152e-01,2.15996280312538147e-01,-1.04258310794830322e+00,2.19607185572385788e-02,6.26196861267089844e-01,-4.26092714071273804e-01,-1.10724091529846191e+00,1.21935635805130005e-01,-3.45767080783843994e-01,4.88200604915618896e-01,-1.01669895648956299e+00,1.02055050432682037e-01,-3.41249048709869385e-01,5.88155031204223633e-01],"default_left":[true,true,true,true,true,true,true,true,true,true,true,true,true,true,true,false,false,false,false,false,false,false,false,false,false,false,false,false,false,false,false],"id":7,"leaf_child_counts":[0,0,0,0,0,0,0,0,0,0,0,0,0,0,0,0,0,0,0,0,0,0,0,0,0,0,0,0,0,0,0],"left_children":[1,3,5,7,9,11,13,15,17,19,21,23,25,27,29,-1,-1,-1,-1,-1,-1,-1,-1,-1,-1,-1,-1,-1,-1,-1,-1],"loss_changes":[4.05833740234375000e+02,3.41163208007812500e+02,7.92008056640625000e+01,2.98350036621093750e+02,9.17320709228515625e+01,4.05322570800781250e+01,9.88760070800781250e+01,2.59501708984375000e+02,1.20092239379882813e+02,5.41442260742187500e+01,1.96777954101562500e+01,2.86831054687500000e+01,1.02267580032348633e+01,9.14540100097656250e+00,6.79938735961914063e+01,0.00000000000000000e+00,0.00000000000000000e+00,0.00000000000000000e+00,0.00000000000000000e+00,0.00000000000000000e+00,0.00000000000000000e+00,0.00000000000000000e+00,0.00000000000000000e+00,0.00000000000000000e+00,0.00000000000000000e+00,0.00000000000000000e+00,0.00000000000000000e+00,0.00000000000000000e+00,0.00000000000000000e+00,0.00000000000000000e+00,0.00000000000000000e+00],"parents":[2147483647,0,0,1,1,2,2,3,3,4,4,5,5,6,6,7,7,8,8,9,9,10,10,11,11,12,12,13,13,14,14],"right_children":[2,4,6,8,10,12,14,16,18,20,22,24,26,28,30,-1,-1,-1,-1,-1,-1,-1,-1,-1,-1,-1,-1,-1,-1,-1,-1],"split_conditions":[1.25500000000000000e+02,5.75000000000000000e+01,5.45000000000000000e+01,1.35000000000000000e+01,1.61500000000000000e+02,1.77526950836181641e+00,1.59150000000000000e+03,3.65000000000000000e+01,5.45000000000000000e+01,1.32244042968750000e+03,3.15000000000000000e+01,2.55000000000000000e+01,1.38350000000000000e+03,1.26547789573669434e+00,1.87500000000000000e+02,-6.22929371893405914e-02,1.02625481784343719e-01,-2.52690255641937256e-01,6.47988840937614441e-02,-3.12774956226348877e-01,6.58821593970060349e-03,1.87859073281288147e-01,-1.27827823162078857e-01,-3.32172274589538574e-01,3.65806929767131805e-02,-1.03730127215385437e-01,1.46460190415382385e-01,-3.05009692907333374e-01,3.06165162473917007e-02,-1.02374717593193054e-01,1.76446512341499329e-01],"split_indices":[62,146,50,148,136,77,43,54,71,85,110,70,47,72,136,0,0,0,0,0,0,0,0,0,0,0,0,0,0,0,0],"sum_hessian":[7.37637255859375000e+03,6.54526367187500000e+03,8.31108825683593750e+02,6.10015917968750000e+03,4.45104217529296875e+02,3.83166198730468750e+02,4.47942596435546875e+02,5.59055175781250000e+03,5.09607482910156250e+02,3.85340087890625000e+02,5.97641258239746094e+01,3.53422363281250000e+02,2.97438449859619141e+01,1.41305984497070313e+02,3.06636627197265625e+02,1.04731152343750000e+03,4.54324023437500000e+03,3.67966308593750000e+02,1.41641189575195313e+02,3.30607177734375000e+02,5.47329254150390625e+01,4.68686408996582031e+01,1.28954820632934570e+01,3.36329223632812500e+02,1.70931453704833984e+01,1.38122472763061523e+01,1.59315977096557617e+01,1.36355484008789063e+02,4.95050525665283203e+00,1.96124145507812500e+02,1.10512466430664063e+02],"tree_param":{"num_deleted":"0","num_feature":"168","num_nodes":"31","size_leaf_vector":"0"}},{"base_weights":[1.50340311229228973e-02,-4.74798053503036499e-01,1.10878519713878632e-01,-1.07714629173278809e+00,-1.73515051603317261e-01,-8.16230714321136475e-01,1.65674433112144470e-01,-1.11567711830139160e+00,-1.86491676140576601e-03,-9.02056753635406494e-01,1.65829986333847046e-01,3.05847972631454468e-01,-1.08452558517456055e+00,-3.72925013303756714e-01,2.60269284248352051e-01,3.60009521245956421e-02,-1.12411117553710938e+00,-4.48816895484924316e-01,4.48452383279800415e-01,-1.05609142780303955e+00,-1.40378028154373169e-01,-8.82014155387878418e-01,3.55396360158920288e-01,-2.59878188371658325e-01,6.63507819175720215e-01,2.07934796810150146e-01,-1.11283147335052490e+00,2.60091334581375122e-01,-9.31504905223846436e-01,7.43165671825408936e-01,1.57649263739585876e-01],"default_left":[true,true,true,true,true,true,true,true,true,true,true,true,true,true,true,false,false,false,false,false,false,false,false,false,false,false,false,false,false,false,false],"id":8,"leaf_child_counts":[0,0,0,0,0,0,0,0,0,0,0,0,0,0,0,0,0,0,0,0,0,0,0,0,0,0,0,0,0,0,0],"left_children":[1,3,5,7,9,11,13,15,17,19,21,23,25,27,29,-1,-1,-1,-1,-1,-1,-1,-1,-1,-1,-1,-1,-1,-1,-1,-1],"loss_changes":[3.35024841308593750e+02,2.09143157958984375e+02,3.05132873535156250e+02,1.59825439453125000e+01,1.99131469726562500e+02,1.05974334716796875e+02,2.89108367919921875e+02,4.23120117187500000e+00,8.73435974121093750e+00,2.77407989501953125e+01,1.15140785217285156e+02,1.80528850555419922e+01,1.34969177246093750e+01,3.04053955078125000e+02,2.36665466308593750e+02,0.00000000000000000e+00,0.00000000000000000e+00,0.00000000000000000e+00,0.00000000000000000e+00,0.00000000000000000e+00,0.00000000000000000e+00,0.00000000000000000e+00,0.00000000000000000e+00,0.00000000000000000e+00,0.00000000000000000e+00,0.00000000000000000e+00,0.00000000000000000e+00,0.00000000000000000e+00,0.00000000000000000e+00,0.00000000000000000e+00,0.00000000000000000e+00],"parents":[2147483647,0,0,1,1,2,2,3,3,4,4,5,5,6,6,7,7,8,8,9,9,10,10,11,11,12,12,13,13,14,14],"right_children":[2,4,6,8,10,12,14,16,18,20,22,24,26,28,30,-1,-1,-1,-1,-1,-1,-1,-1,-1,-1,-1,-1,-1,-1,-1,-1],"split_conditions":[1.63750000000000000e+03,1.01500000000000000e+02,1.75000000000000000e+01,1.28500000000000000e+02,5.08815407752990723e-01,6.15000000000000000e+01,1.59950000000000000e+03,1.75000000000000000e+01,2.05000000000000000e+01,1.55550000000000000e+03,8.85000000000000000e+01,3.97461175918579102e-01,-2.29067372856661677e-04,8.61410000000000000e+04,9.73500000000000000e+02,1.08002861961722374e-02,-3.37233364582061768e-01,-1.34645074605941772e-01,1.34535714983940125e-01,-3.16827446222305298e-01,-4.21134084463119507e-02,-2.64604270458221436e-01,1.06618911027908325e-01,-7.79634565114974976e-02,1.99052348732948303e-01,6.23804405331611633e-02,-3.33849459886550903e-01,7.80274048447608948e-02,-2.79451489448547363e-01,2.22949713468551636e-01,4.72947806119918823e-02],"split_indices":[42,136,55,56,89,58,43,52,165,46,127,77,93,18,1,0,0,0,0,0,0,0,0,0,0,0,0,0,0,0,0],"sum_hessian":[7.10430761718750000e+03,1.15289636230468750e+03,5.95141113281250000e+03,3.71512329101562500e+02,7.81384094238281250e+02,3.20490753173828125e+02,5.63092041015625000e+03,3.58116333007812500e+02,1.33959808349609375e+01,2.40398269653320313e+02,5.40985778808593750e+02,6.14387054443359375e+01,2.59052062988281250e+02,8.34627014160156250e+02,4.79629345703125000e+03,2.24706768989562988e+00,3.55869262695312500e+02,6.74819421768188477e+00,6.64778614044189453e+00,1.95137542724609375e+02,4.52607231140136719e+01,7.44829635620117188e+01,4.66502838134765625e+02,2.53857879638671875e+01,3.60529174804687500e+01,3.51179385185241699e+00,2.55540267944335938e+02,3.95002258300781250e+02,4.39624755859375000e+02,8.24208374023437500e+02,3.97208496093750000e+03],"tree_param":{"num_deleted":"0","num_feature":"168","num_nodes":"31","size_leaf_vector":"0"}},{"base_weights":[7.07311555743217468e-03,1.13110542297363281e-01,-4.44587886333465576e-01,-4.09052014350891113e-01,1.97006687521934509e-01,-9.01056528091430664e-01,-3.05476058274507523e-02,-7.03939914703369141e-01,2.59945005178451538e-01,-3.24812889099121094e-01,2.86596536636352539e-01,-1.08628273010253906e+00,-8.03345888853073120e-02,-1.07211303710937500e+00,4.64869618415832520e-01,-8.99995744228363037e-01,-9.55765619874000549e-02,-8.15289616584777832e-01,4.79924440383911133e-01,3.08181017637252808e-01,-9.49705541133880615e-01,-2.88556039333343506e-01,3.49438518285751343e-01,1.65115401148796082e-01,-1.15994369983673096e+00,-3.75948160886764526e-01,5.68331837654113770e-01,-7.39577353000640869e-01,-1.57898080348968506e+00,-7.13560760021209717e-01,6.37886166572570801e-01],"default_left":[true,true,true,true,true,true,true,true,true,true,true,true,true,true,true,false,false,false,false,false,false,false,false,false,false,false,false,false,false,false,false],"id":9,"leaf_child_counts":[0,0,0,0,0,0,0,0,0,0,0,0,0,0,0,0,0,0,0,0,0,0,0,0,0,0,0,0,0,0,0],"left_children":[1,3,5,7,9,11,13,15,17,19,21,23,25,27,29,-1,-1,-1,-1,-1,-1,-1,-1,-1,-1,-1,-1,-1,-1,-1,-1],"loss_changes":[3.26408752441406250e+02,2.42970825195312500e+02,2.44504302978515625e+02,1.54419067382812500e+02,2.24154907226562500e+02,9.23096618652343750e+01,3.66127349853515625e+02,6.28384399414062500e+01,6.40952606201171875e+01,2.83347961425781250e+02,1.48786651611328125e+02,4.90770874023437500e+01,2.80548286437988281e+01,2.10095825195312500e+01,1.04994674682617188e+02,0.00000000000000000e+00,0.00000000000000000e+00,0.00000000000000000e+00,0.00000000000000000e+00,0.00000000000000000e+00,0.00000000000000000e+00,0.00000000000000000e+00,0.00000000000000000e+00,0.00000000000000000e+00,0.00000000000000000e+00,0.00000000000000000e+00,0.00000000000000000e+00,0.00000000000000000e+00,0.00000000000000000e+00,0.00000000000000000e+00,0.00000000000000000e+00],"parents":[2147483647,0,0,1,1,2,2,3,3,4,4,5,5,6,6,7,7,8,8,9,9,10,10,11,11,12,12,13,13,14,14],"right_children":[2,4,6,8,10,12,14,16,18,20,22,24,26,28,30,-1,-1,-1,-1,-1,-1,-1,-1,-1,-1,-1,-1,-1,-1,-1,-1],"split_conditions":[1.13500000000000000e+02,4.45000000000000000e+01,1.74500000000000000e+02,5.68950000000000000e+03,1.08860485839843750e+03,1.50850000000000000e+03,1.72950000000000000e+03,5.35000000000000000e+01,2.63401500000000000e+05,1.84100000000000000e+03,9.15000000000000000e+01,2.45000000000000000e+01,8.76900000000000000e+03,7.22475000000000000e+04,1.02500000000000000e+02,-2.69998729228973389e-01,-2.86729689687490463e-02,-2.44586899876594543e-01,1.43977344036102295e-01,9.24543067812919617e-02,-2.84911662340164185e-01,-8.65668132901191711e-02,1.04831561446189880e-01,4.95346225798130035e-02,-3.47983121871948242e-01,-1.12784452736377716e-01,1.70499563217163086e-01,-2.21873208880424500e-01,-4.73694264888763428e-01,-2.14068233966827393e-01,1.91365852952003479e-01],"split_indices":[63,49,109,42,46,47,43,50,20,7,56,61,44,18,56,0,0,0,0,0,0,0,0,0,0,0,0,0,0,0,0],"sum_hessian":[6.78462841796875000e+03,5.50374609375000000e+03,1.28088281250000000e+03,7.53830810546875000e+02,4.74991503906250000e+03,6.00834533691406250e+02,6.80048217773437500e+02,5.22662414550781250e+02,2.31168411254882813e+02,6.90234436035156250e+02,4.05968066406250000e+03,4.86242462158203125e+02,1.14592086791992188e+02,2.13572463989257813e+02,4.66475769042968750e+02,3.89839233398437500e+02,1.32823165893554688e+02,3.23673477172851563e+01,1.98801055908203125e+02,3.46671264648437500e+02,3.43563201904296875e+02,3.94568634033203125e+02,3.66511206054687500e+03,2.59952983856201172e+01,4.60247161865234375e+02,8.30503845214843750e+01,3.15417041778564453e+01,1.51237976074218750e+02,6.23344917297363281e+01,5.37201004028320313e+01,4.12755645751953125e+02],"tree_param":{"num_deleted":"0","num_feature":"168","num_nodes":"31","size_leaf_vector":"0"}},{"base_weights":[1.18735115393064916e-04,1.38277187943458557e-01,-2.53564864397048950e-01,-3.39016079902648926e-01,2.37207874655723572e-01,-7.92049169540405273e-01,-9.99077111482620239e-02,-1.12129235267639160e+00,-5.80898672342300415e-02,1.45132914185523987e-01,6.30385696887969971e-01,4.92257654666900635e-01,-9.47706818580627441e-01,-6.92836821079254150e-01,7.68163353204727173e-02,-1.19517552852630615e+00,-8.00938233733177185e-02,-1.04967856407165527e+00,3.14594298601150513e-01,3.59917402267456055e-01,-2.55781412124633789e-01,-4.62395250797271729e-01,8.02428424358367920e-01,7.71098077297210693e-01,-4.70106303691864014e-01,-1.18018901348114014e+00,-6.20191991329193115e-01,-9.36935424804687500e-01,-2.60932017117738724e-02,-5.05654275417327881e-01,2.54582256078720093e-01],"default_left":[true,true,true,true,true,true,true,true,true,true,true,true,true,true,true,false,false,false,false,false,false,false,false,false,false,false,false,false,false,false,false],"id":10,"leaf_child_counts":[0,0,0,0,0,0,0,0,0,0,0,0,0,0,0,0,0,0,0,0,0,0,0,0,0,0,0,0,0,0,0],"left_children":[1,3,5,7,9,11,13,15,17,19,21,23,25,27,29,-1,-1,-1,-1,-1,-1,-1,-1,-1,-1,-1,-1,-1,-1,-1,-1],"loss_changes":[2.28313323974609375e+02,2.00346176147460938e+02,1.88857009887695313e+02,1.59503387451171875e+02,1.25411010742187500e+02,1.08500366210937500e+02,1.89839691162109375e+02,1.33441772460937500e+01,2.09356948852539063e+02,2.47405944824218750e+02,1.29654418945312500e+02,2.28149070739746094e+01,2.38919372558593750e+01,6.72960815429687500e+01,1.47238342285156250e+02,0.00000000000000000e+00,0.00000000000000000e+00,0.00000000000000000e+00,0.00000000000000000e+00,0.00000000000000000e+00,0.00000000000000000e+00,0.00000000000000000e+00,0.00000000000000000e+00,0.00000000000000000e+00,0.00000000000000000e+00,0.00000000000000000e+00,0.00000000000000000e+00,0.00000000000000000e+00,0.00000000000000000e+00,0.00000000000000000e+00,0.00000000000000000e+00],"parents":[2147483647,0,0,1,1,2,2,3,3,4,4,5,5,6,6,7,7,8,8,9,9,10,10,11,11,12,12,13,13,14,14],"right_children":[2,4,6,8,10,12,14,16,18,20,22,24,26,28,30,-1,-1,-1,-1,-1,-1,-1,-1,-1,-1,-1,-1,-1,-1,-1,-1],"split_conditions":[1.11500000000000000e+02,4.35000000000000000e+01,1.63950000000000000e+03,7.09400000000000000e+03,3.94536962890625000e+03,1.04639213532209396e-02,3.75000000000000000e+01,4.82546550000000000e+06,2.28450000000000000e+03,3.40250000000000000e+03,1.35950000000000000e+03,8.35000000000000000e+01,3.05000000000000000e+01,5.22320800781250000e+03,6.15000000000000000e+01,-3.58552664518356323e-01,-2.40281485021114349e-02,-3.14903587102890015e-01,9.43782925605773926e-02,1.07975222170352936e-01,-7.67344236373901367e-02,-1.38718575239181519e-01,2.40728542208671570e-01,2.31329426169395447e-01,-1.41031891107559204e-01,-3.54056715965270996e-01,-1.86057597398757935e-01,-2.81080633401870728e-01,-7.82796088606119156e-03,-1.51696294546127319e-01,7.63746798038482666e-02],"split_indices":[62,154,43,4,82,93,55,16,45,6,41,51,155,82,118,0,0,0,0,0,0,0,0,0,0,0,0,0,0,0,0],"sum_hessian":[6.48419921875000000e+03,4.20237207031250000e+03,2.28182714843750000e+03,7.15246765136718750e+02,3.48712548828125000e+03,4.92736206054687500e+02,1.78909106445312500e+03,1.77130966186523438e+02,5.38115844726562500e+02,2.84209619140625000e+03,6.45029296875000000e+02,4.97575836181640625e+01,4.42978607177734375e+02,4.00743774414062500e+02,1.38834729003906250e+03,1.63323318481445313e+02,1.38076400756835938e+01,1.39555892944335938e+02,3.98559936523437500e+02,1.85163916015625000e+03,9.90456970214843750e+02,8.42941970825195313e+01,5.60735107421875000e+02,4.08908462524414063e+01,8.86673927307128906e+00,2.36236892700195313e+02,2.06741714477539063e+02,2.88897979736328125e+02,1.11845794677734375e+02,3.18167419433593750e+02,1.07017980957031250e+03],"tree_param":{"num_deleted":"0","num_feature":"168","num_nodes":"31","size_leaf_vector":"0"}},{"base_weights":[-3.66612337529659271e-03,-1.53567075729370117e-01,2.11862966418266296e-01,-3.71549457311630249e-01,3.43665443360805511e-02,-4.97374147176742554e-01,2.58534431457519531e-01,-7.04421699047088623e-02,-7.12928354740142822e-01,2.32703626155853271e-01,-4.37826275825500488e-01,-6.57318711280822754e-01,4.19113636016845703e-01,3.01272988319396973e-01,-4.85499680042266846e-01,-2.94748008251190186e-01,4.19379144906997681e-01,-1.15121412277221680e+00,-5.25474548339843750e-01,-5.85356205701828003e-02,4.40058201551437378e-01,-6.76180958747863770e-01,7.61733129620552063e-02,-9.27744567394256592e-01,4.38146144151687622e-02,6.27518415451049805e-01,-2.72954195737838745e-01,3.37833046913146973e-01,-6.40858471393585205e-01,1.79403007030487061e-01,-7.01285779476165771e-01],"default_left":[true,true,true,true,true,true,true,true,true,true,true,true,true,true,true,false,false,false,false,false,false,false,false,false,false,false,false,false,false,false,false],"id":11,"leaf_child_counts":[0,0,0,0,0,0,0,0,0,0,0,0,0,0,0,0,0,0,0,0,0,0,0,0,0,0,0,0,0,0,0],"left_children":[1,3,5,7,9,11,13,15,17,19,21,23,25,27,29,-1,-1,-1,-1,-1,-1,-1,-1,-1,-1,-1,-1,-1,-1,-1,-1],"loss_changes":[2.01810165405273438e+02,1.51107498168945313e+02,8.67479705810546875e+01,1.74698883056640625e+02,1.88089538574218750e+02,2.80759277343750000e+01,7.89593811035156250e+01,1.03327117919921875e+02,5.65127563476562500e+01,8.56933822631835938e+01,7.35992584228515625e+01,2.80853271484375000e+01,7.39087295532226563e+00,8.22010955810546875e+01,2.15263214111328125e+01,0.00000000000000000e+00,0.00000000000000000e+00,0.00000000000000000e+00,0.00000000000000000e+00,0.00000000000000000e+00,0.00000000000000000e+00,0.00000000000000000e+00,0.00000000000000000e+00,0.00000000000000000e+00,0.00000000000000000e+00,0.00000000000000000e+00,0.00000000000000000e+00,0.00000000000000000e+00,0.00000000000000000e+00,0.00000000000000000e+00,0.00000000000000000e+00],"parents":[2147483647,0,0,1,1,2,2,3,3,4,4,5,5,6,6,7,7,8,8,9,9,10,10,11,11,12,12,13,13,14,14],"right_children":[2,4,6,8,10,12,14,16,18,20,22,24,26,28,30,-1,-1,-1,-1,-1,-1,-1,-1,-1,-1,-1,-1,-1,-1,-1,-1],"split_conditions":[4.07303482294082642e-01,5.45000000000000000e+01,1.95000000000000000e+01,1.05500000000000000e+02,9.10029709339141846e-02,9.35000000000000000e+01,6.25000000000000000e+01,5.35000000000000000e+01,2.75000000000000000e+01,3.75000000000000000e+01,1.25036931037902832e+00,2.35500000000000000e+02,6.15000000000000000e+01,6.75000000000000000e+01,9.55000000000000000e+01,-8.84244069457054138e-02,1.25813752412796021e-01,-3.45364242792129517e-01,-1.57642364501953125e-01,-1.75606869161128998e-02,1.32017463445663452e-01,-2.02854290604591370e-01,2.28519942611455917e-02,-2.78323382139205933e-01,1.31443850696086884e-02,1.88255533576011658e-01,-8.18862617015838623e-02,1.01349920034408569e-01,-1.92257553339004517e-01,5.38209043443202972e-02,-2.10385739803314209e-01],"split_indices":[77,50,54,61,78,66,108,71,153,155,95,163,48,110,62,0,0,0,0,0,0,0,0,0,0,0,0,0,0,0,0],"sum_hessian":[6.21633691406250000e+03,3.66891259765625000e+03,2.54742456054687500e+03,1.69187182617187500e+03,1.97704089355468750e+03,1.48339996337890625e+02,2.39908447265625000e+03,9.08574707031250000e+02,7.83297119140625000e+02,1.39760632324218750e+03,5.79434509277343750e+02,1.29910003662109375e+02,1.84299945831298828e+01,2.27720434570312500e+03,1.21880226135253906e+02,6.27290710449218750e+02,2.81283966064453125e+02,2.11550689697265625e+02,5.71746398925781250e+02,5.85711914062500000e+02,8.11894409179687500e+02,3.92629394531250000e+02,1.86805130004882813e+02,9.02518997192382813e+01,3.96580963134765625e+01,1.52398271560668945e+01,3.19016718864440918e+00,2.20139868164062500e+03,7.58055419921875000e+01,3.04827384948730469e+01,9.13974838256835938e+01],"tree_param":{"num_deleted":"0","num_feature":"168","num_nodes":"31","size_leaf_vector":"0"}},{"base_weights":[-4.96127828955650330e-03,-3.51469248533248901e-01,7.94312655925750732e-02,-9.71298962831497192e-02,-9.74488198757171631e-01,1.13074079155921936e-01,-1.04266011714935303e+00,2.25007727742195129e-01,-6.59769177436828613e-01,-1.14252817630767822e+00,2.96116203069686890e-01,1.57014444470405579e-01,-6.37832522392272949e-01,9.11440476775169373e-02,-1.08499300479888916e+00,-4.40095990896224976e-01,5.49516797065734863e-01,3.29697191715240479e-01,-9.06098783016204834e-01,-1.50212538242340088e+00,-6.72016918659210205e-01,-4.88734602928161621e-01,6.69688582420349121e-01,1.87477633357048035e-01,-8.69439840316772461e-01,-1.01918566226959229e+00,5.29603600502014160e-01,-1.03607088327407837e-01,1.88292250037193298e-01,8.74363929033279419e-02,-1.12948369979858398e+00],"default_left":[true,true,true,true,true,true,true,true,true,true,true,true,true,true,true,false,false,false,false,false,false,false,false,false,false,false,false,false,false,false,false],"id":12,"leaf_child_counts":[0,0,0,0,0,0,0,0,0,0,0,0,0,0,0,0,0,0,0,0,0,0,0,0,0,0,0,0,0,0,0],"left_children":[1,3,5,7,9,11,13,15,17,19,21,23,25,27,29,-1,-1,-1,-1,-1,-1,-1,-1,-1,-1,-1,-1,-1,-1,-1,-1],"loss_changes":[1.77696060180664063e+02,1.87156906127929688e+02,1.86262039184570313e+02,1.58414779663085938e+02,7.83804321289062500e+01,1.58508590698242188e+02,8.38208007812500000e+00,1.24315567016601563e+02,8.18826599121093750e+01,3.66852722167968750e+01,2.01602916717529297e+01,1.43388946533203125e+02,1.26529502868652344e+02,6.52307748794555664e-01,8.76948547363281250e+00,0.00000000000000000e+00,0.00000000000000000e+00,0.00000000000000000e+00,0.00000000000000000e+00,0.00000000000000000e+00,0.00000000000000000e+00,0.00000000000000000e+00,0.00000000000000000e+00,0.00000000000000000e+00,0.00000000000000000e+00,0.00000000000000000e+00,0.00000000000000000e+00,0.00000000000000000e+00,0.00000000000000000e+00,0.00000000000000000e+00,0.00000000000000000e+00],"parents":[2147483647,0,0,1,1,2,2,3,3,4,4,5,5,6,6,7,7,8,8,9,9,10,10,11,11,12,12,13,13,14,14],"right_children":[2,4,6,8,10,12,14,16,18,20,22,24,26,28,30,-1,-1,-1,-1,-1,-1,-1,-1,-1,-1,-1,-1,-1,-1,-1,-1],"split_conditions":[1.77850000000000000e+03,3.66550000000000000e+03,7.05000000000000000e+01,1.39050000000000000e+03,8.55000000000000000e+01,9.35000000000000000e+01,2.21900000000000000e+03,3.35000000000000000e+01,4.20000000000000000e+01,4.50000000000000000e+00,2.15000000000000000e+01,7.95000000000000000e+01,3.21825800000000000e+06,7.65935897827148438e-01,1.55000000000000000e+01,-1.32028803229331970e-01,1.64855048060417175e-01,9.89091619849205017e-02,-2.71829634904861450e-01,-4.50637638568878174e-01,-2.01605081558227539e-01,-1.46620392799377441e-01,2.00906589627265930e-01,5.62432929873466492e-02,-2.60831952095031738e-01,-3.05755704641342163e-01,1.58881083130836487e-01,-3.10821272432804108e-02,5.64876757562160492e-02,2.62309182435274124e-02,-3.38845133781433105e-01],"split_indices":[42,3,146,45,48,69,0,164,60,70,146,144,16,93,50,0,0,0,0,0,0,0,0,0,0,0,0,0,0,0,0],"sum_hessian":[6.04727734375000000e+03,1.17507165527343750e+03,4.87220605468750000e+03,8.46739746093750000e+02,3.28331909179687500e+02,4.74347412109375000e+03,1.28731567382812500e+02,5.44175048828125000e+02,3.02564697265625000e+02,2.91316680908203125e+02,3.70152282714843750e+01,4.49245556640625000e+03,2.51018844604492188e+02,4.01093482971191406e+00,1.24720634460449219e+02,1.76691253662109375e+02,3.67483764648437500e+02,5.92979240417480469e+01,2.43266769409179688e+02,1.46479156494140625e+02,1.44837524414062500e+02,1.04456071853637695e+01,2.65696220397949219e+01,4.37487792968750000e+03,1.17577651977539063e+02,1.90647125244140625e+02,6.03717117309570313e+01,1.00298845767974854e+00,3.00794625282287598e+00,4.03043127059936523e+00,1.20690200805664063e+02],"tree_param":{"num_deleted":"0","num_feature":"168","num_nodes":"31","size_leaf_vector":"0"}},{"base_weights":[-8.97927023470401764e-03,-6.37267112731933594e-01,3.02516203373670578e-02,-9.62286829948425293e-01,-7.50034376978874207e-02,8.41295942664146423e-02,-3.88492524623870850e-01,-1.32320765405893326e-02,-1.04655075073242188e+00,-8.36734950542449951e-01,3.91722679138183594e-01,1.60792008042335510e-01,-2.25689902901649475e-01,-5.73992311954498291e-01,4.50818359851837158e-01,-4.02040868997573853e-01,3.47615122795104980e-01,-1.16323339939117432e+00,-2.27814778685569763e-01,-9.02826666831970215e-01,1.14628434181213379e-01,-3.87134969234466553e-01,5.47671258449554443e-01,-9.54375267028808594e-01,1.89451411366462708e-01,3.48946243524551392e-01,-5.10364770889282227e-01,-8.27104449272155762e-01,-2.06125766038894653e-01,6.99206888675689697e-01,-1.44947335124015808e-01],"default_left":[true,true,true,true,true,true,true,true,true,true,true,true,true,true,true,false,false,false,false,false,false,false,false,false,false,false,false,false,false,false,false],"id":13,"leaf_child_counts":[0,0,0,0,0,0,0,0,0,0,0,0,0,0,0,0,0,0,0,0,0,0,0,0,0,0,0,0,0,0,0],"left_children":[1,3,5,7,9,11,13,15,17,19,21,23,25,27,29,-1,-1,-1,-1,-1,-1,-1,-1,-1,-1,-1,-1,-1,-1,-1,-1],"loss_changes":[1.44949737548828125e+02,6.20760192871093750e+01,1.25442153930664063e+02,1.72052154541015625e+01,5.57085990905761719e+01,1.17386245727539063e+02,1.02595581054687500e+02,6.71897363662719727e+00,1.51115722656250000e+01,5.26602172851562500e+00,1.51813249588012695e+01,1.29027954101562500e+02,1.63317932128906250e+02,4.64069519042968750e+01,1.97466850280761719e+01,0.00000000000000000e+00,0.00000000000000000e+00,0.00000000000000000e+00,0.00000000000000000e+00,0.00000000000000000e+00,0.00000000000000000e+00,0.00000000000000000e+00,0.00000000000000000e+00,0.00000000000000000e+00,0.00000000000000000e+00,0.00000000000000000e+00,0.00000000000000000e+00,0.00000000000000000e+00,0.00000000000000000e+00,0.00000000000000000e+00,0.00000000000000000e+00],"parents":[2147483647,0,0,1,1,2,2,3,3,4,4,5,5,6,6,7,7,8,8,9,9,10,10,11,11,12,12,13,13,14,14],"right_children":[2,4,6,8,10,12,14,16,18,20,22,24,26,28,30,-1,-1,-1,-1,-1,-1,-1,-1,-1,-1,-1,-1,-1,-1,-1,-1],"split_conditions":[1.35000000000000000e+01,1.79250000000000000e+03,2.05000000000000000e+01,5.44280977919697762e-03,7.50000000000000000e+00,4.75000000000000000e+01,3.38989350000000000e+06,5.79699035644531250e+02,4.85000000000000000e+01,7.58836150169372559e-01,4.50000000000000000e+00,8.83500000000000000e+02,1.00500000000000000e+02,2.12964990234375000e+03,1.09761571884155273e+00,-1.20612263679504395e-01,1.04284539818763733e-01,-3.48970025777816772e-01,-6.83444365859031677e-02,-2.70848006010055542e-01,3.43885309994220734e-02,-1.16140492260456085e-01,1.64301380515098572e-01,-2.86312580108642578e-01,5.68354241549968719e-02,1.04683876037597656e-01,-1.53109431266784668e-01,-2.48131349682807922e-01,-6.18377327919006348e-02,2.09762081503868103e-01,-4.34842035174369812e-02],"split_indices":[128,41,138,93,69,135,16,5,162,72,71,40,62,82,88,0,0,0,0,0,0,0,0,0,0,0,0,0,0,0,0],"sum_hessian":[5.85398876953125000e+03,3.30607421875000000e+02,5.52338134765625000e+03,2.02740417480468750e+02,1.27867012023925781e+02,4.90434716796875000e+03,6.19034423828125000e+02,1.79481334686279297e+01,1.84792282104492188e+02,4.40623626708984375e+01,8.38046493530273438e+01,3.93730664062500000e+03,9.67040527343750000e+02,5.10867156982421875e+02,1.08167282104492188e+02,7.81508874893188477e+00,1.01330442428588867e+01,1.56217376708984375e+02,2.85749111175537109e+01,4.19157218933105469e+01,2.14663743972778320e+00,1.02710266113281250e+01,7.35336227416992188e+01,8.65123367309570313e+01,3.85079418945312500e+03,3.19241882324218750e+02,6.47798645019531250e+02,2.91543640136718750e+02,2.19323516845703125e+02,7.45014801025390625e+01,3.36657981872558594e+01],"tree_param":{"num_deleted":"0","num_feature":"168","num_nodes":"31","size_leaf_vector":"0"}},{"base_weights":[-9.87093057483434677e-03,-3.11645209789276123e-01,6.56896382570266724e-02,2.96113550662994385e-01,-4.86734926700592041e-01,1.41141906380653381e-01,-3.29365551471710205e-01,6.48716807365417480e-01,-5.13564646244049072e-01,-7.68540859222412109e-01,-1.09903998672962189e-01,8.14762264490127563e-02,6.44768655300140381e-01,-7.06094324588775635e-01,1.06160677969455719e-01,-5.79718947410583496e-01,8.03035140037536621e-01,-9.29293334484100342e-01,3.30078154802322388e-01,-1.05475974082946777e+00,-4.00429308414459229e-01,-4.54849600791931152e-01,1.77902832627296448e-01,-6.42647385597229004e-01,1.27493143081665039e-01,-7.69793033599853516e-01,7.92585492134094238e-01,2.66523152589797974e-01,-8.00263524055480957e-01,-6.73080265522003174e-01,2.99563348293304443e-01],"default_left":[true,true,true,true,true,true,true,true,true,true,true,true,true,true,true,false,false,false,false,false,false,false,false,false,false,false,false,false,false,false,false],"id":14,"leaf_child_counts":[0,0,0,0,0,0,0,0,0,0,0,0,0,0,0,0,0,0,0,0,0,0,0,0,0,0,0,0,0,0,0],"left_children":[1,3,5,7,9,11,13,15,17,19,21,23,25,27,29,-1,-1,-1,-1,-1,-1,-1,-1,-1,-1,-1,-1,-1,-1,-1,-1],"loss_changes":[1.31165115356445313e+02,1.24727615356445313e+02,1.37873596191406250e+02,8.12059173583984375e+01,9.42925567626953125e+01,1.15638603210449219e+02,1.22949783325195313e+02,4.34908370971679688e+01,3.59393844604492188e+01,4.76454162597656250e+01,4.11751937866210938e+01,1.17232490539550781e+02,9.45116882324218750e+01,3.98431701660156250e+01,5.68893623352050781e+01,0.00000000000000000e+00,0.00000000000000000e+00,0.00000000000000000e+00,0.00000000000000000e+00,0.00000000000000000e+00,0.00000000000000000e+00,0.00000000000000000e+00,0.00000000000000000e+00,0.00000000000000000e+00,0.00000000000000000e+00,0.00000000000000000e+00,0.00000000000000000e+00,0.00000000000000000e+00,0.00000000000000000e+00,0.00000000000000000e+00,0.00000000000000000e+00],"parents":[2147483647,0,0,1,1,2,2,3,3,4,4,5,5,6,6,7,7,8,8,9,9,10,10,11,11,12,12,13,13,14,14],"right_children":[2,4,6,8,10,12,14,16,18,20,22,24,26,28,30,-1,-1,-1,-1,-1,-1,-1,-1,-1,-1,-1,-1,-1,-1,-1,-1],"split_conditions":[2.35000000000000000e+01,9.86579060554504395e-03,1.27741122245788574e+00,1.29500000000000000e+02,1.02807998657226563e+00,3.40131850000000000e+06,1.14391772460937500e+03,2.34500000000000000e+02,1.09750062227249146e-01,5.85000000000000000e+01,1.40850162506103516e+00,4.75000000000000000e+01,2.17850000000000000e+03,-2.21669912338256836e+00,1.62900000000000000e+03,-1.73915684223175049e-01,2.40910544991493225e-01,-2.78788000345230103e-01,9.90234538912773132e-02,-3.16427946090698242e-01,-1.20128795504570007e-01,-1.36454880237579346e-01,5.33708520233631134e-02,-1.92794218659400940e-01,3.82479429244995117e-02,-2.30937913060188293e-01,2.37775653600692749e-01,7.99569487571716309e-02,-2.40079060196876526e-01,-2.01924085617065430e-01,8.98690074682235718e-02],"split_indices":[164,95,88,100,93,16,87,163,74,55,95,145,42,77,46,0,0,0,0,0,0,0,0,0,0,0,0,0,0,0,0],"sum_hessian":[5.72382470703125000e+03,1.13679980468750000e+03,4.58702490234375000e+03,2.51934616088867188e+02,8.84865234375000000e+02,3.85952807617187500e+03,7.27497009277343750e+02,1.77582107543945313e+02,7.43525161743164063e+01,4.97343780517578125e+02,3.87521453857421875e+02,3.46629565429687500e+03,3.93232421875000000e+02,3.85082885742187500e+02,3.42414093017578125e+02,1.52038335800170898e+01,1.62378265380859375e+02,4.87879943847656250e+01,2.55645217895507813e+01,2.64053558349609375e+02,2.33290222167968750e+02,1.72303848266601563e+02,2.15217605590820313e+02,1.95495178222656250e+02,3.27080029296875000e+03,3.12323341369628906e+01,3.62000091552734375e+02,3.15692310333251953e+01,3.53513641357421875e+02,6.06888694763183594e+01,2.81725250244140625e+02],"tree_param":{"num_deleted":"0","num_feature":"168","num_nodes":"31","size_leaf_vector":"0"}},{"base_weights":[-9.83142945915460587e-03,-9.01986062526702881e-02,2.69366145133972168e-01,-1.99273422360420227e-01,1.51212707161903381e-01,3.01405161619186401e-01,-7.67374873161315918e-01,8.85265227407217026e-03,-4.66999351978302002e-01,-2.91748851537704468e-01,3.29733580350875854e-01,4.98334497213363647e-01,1.40823736786842346e-01,-8.52832734584808350e-01,1.42633929848670959e-01,-6.55380249023437500e-01,1.11932985484600067e-01,-7.39181816577911377e-01,3.07259820401668549e-02,-6.73882126808166504e-01,3.95166307687759399e-01,-3.22014540433883667e-01,4.83078032732009888e-01,-1.77037969231605530e-01,5.67284703254699707e-01,-2.21676319837570190e-01,2.69663959741592407e-01,-9.28317546844482422e-01,9.80336293578147888e-02],"default_left":[true,true,true,true,true,true,true,true,true,true,true,true,true,true,false,false,false,false,false,false,false,false,false,false,false,false,false,false,false],"id":15,"leaf_child_counts":[0,0,0,0,0,0,0,0,0,0,0,0,0,0,0,0,0,0,0,0,0,0,0,0,0,0,0,0,0],"left_children":[1,3,5,7,9,11,13,15,17,19,21,23,25,27,-1,-1,-1,-1,-1,-1,-1,-1,-1,-1,-1,-1,-1,-1,-1],"loss_changes":[1.25703491210937500e+02,1.14960128784179688e+02,4.50656127929687500e+01,1.67323242187500000e+02,1.09136909484863281e+02,3.77021484375000000e+01,5.07300567626953125e+00,1.17744316101074219e+02,1.78240325927734375e+02,1.08770172119140625e+02,1.00048171997070313e+02,2.68646545410156250e+01,3.34015121459960938e+01,4.26008033752441406e+00,0.00000000000000000e+00,0.00000000000000000e+00,0.00000000000000000e+00,0.00000000000000000e+00,0.00000000000000000e+00,0.00000000000000000e+00,0.00000000000000000e+00,0.00000000000000000e+00,0.00000000000000000e+00,0.00000000000000000e+00,0.00000000000000000e+00,0.00000000000000000e+00,0.00000000000000000e+00,0.00000000000000000e+00,0.00000000000000000e+00],"parents":[2147483647,0,0,1,1,2,2,3,3,4,4,5,5,6,6,7,7,8,8,9,9,10,10,11,11,12,12,13,13],"right_children":[2,4,6,8,10,12,14,16,18,20,22,24,26,28,-1,-1,-1,-1,-1,-1,-1,-1,-1,-1,-1,-1,-1,-1,-1],"split_conditions":[6.11045241355895996e-01,1.37900948524475098e+00,7.35000000000000000e+01,1.50000000000000000e+00,2.58450000000000000e+03,8.50000000000000000e+00,9.27494500000000000e+05,8.65000000000000000e+01,4.35000000000000000e+01,1.40500000000000000e+02,1.44650000000000000e+03,5.00000000000000000e-01,3.50000000000000000e+00,3.40000000000000000e+01,4.27901819348335266e-02,-1.96614086627960205e-01,3.35798971354961395e-02,-2.21754550933837891e-01,9.21779498457908630e-03,-2.02164649963378906e-01,1.18549898266792297e-01,-9.66043695807456970e-02,1.44923418760299683e-01,-5.31113930046558380e-02,1.70185416936874390e-01,-6.65028989315032959e-02,8.08991938829421997e-02,-2.78495281934738159e-01,2.94100902974605560e-02],"split_indices":[72,95,155,157,42,98,17,136,67,127,41,66,71,70,0,0,0,0,0,0,0,0,0,0,0,0,0,0,0],"sum_hessian":[5.57093701171875000e+03,4.33364794921875000e+03,1.23728894042968750e+03,2.98677636718750000e+03,1.34687158203125000e+03,1.21051867675781250e+03,2.67702445983886719e+01,1.68859338378906250e+03,1.29818298339843750e+03,3.84156097412109375e+02,9.62715454101562500e+02,5.29551940917968750e+02,6.80966735839843750e+02,2.53336448669433594e+01,1.43659901618957520e+00,2.16047714233398438e+02,1.47254565429687500e+03,8.34537231445312500e+02,4.63645782470703125e+02,2.47021667480468750e+02,1.37134429931640625e+02,1.80224029541015625e+02,7.82491455078125000e+02,4.68767127990722656e+01,4.82675231933593750e+02,1.75730285644531250e+02,5.05236480712890625e+02,2.37999858856201172e+01,1.53365826606750488e+00],"tree_param":{"num_deleted":"0","num_feature":"168","num_nodes":"29","size_leaf_vector":"0"}},{"base_weights":[-8.34994111210107803e-03,-5.66696643829345703e-01,2.89273448288440704e-02,-1.08346915245056152e+00,-2.11920753121376038e-01,-4.13725636899471283e-02,3.52837145328521729e-01,-1.30706584453582764e+00,1.53315261006355286e-01,-1.03890275955200195e+00,5.89621216058731079e-02,-2.97524690628051758e-01,7.75981172919273376e-02,4.57290560007095337e-01,-5.82980096340179443e-01,-1.42567026615142822e+00,1.82884618639945984e-01,4.26197290420532227e-01,-2.99056977033615112e-01,1.79723054170608521e-01,-1.17644596099853516e+00,7.21399426460266113e-01,-2.38477736711502075e-01,-6.79563283920288086e-01,-4.05376590788364410e-02,-6.04693591594696045e-01,1.45560696721076965e-01,-9.77801322937011719e-01,5.21821618080139160e-01,-9.94059324264526367e-01,4.54791337251663208e-02],"default_left":[true,true,true,true,true,true,true,true,true,true,true,true,true,true,true,false,false,false,false,false,false,false,false,false,false,false,false,false,false,false,false],"id":16,"leaf_child_counts":[0,0,0,0,0,0,0,0,0,0,0,0,0,0,0,0,0,0,0,0,0,0,0,0,0,0,0,0,0,0,0],"left_children":[1,3,5,7,9,11,13,15,17,19,21,23,25,27,29,-1,-1,-1,-1,-1,-1,-1,-1,-1,-1,-1,-1,-1,-1,-1,-1],"loss_changes":[1.12798591613769531e+02,5.87382125854492188e+01,1.15973823547363281e+02,4.01772308349609375e+01,5.01465721130371094e+01,1.28045669555664063e+02,9.27665786743164063e+01,2.43056335449218750e+01,6.10962772369384766e+00,1.23946647644042969e+01,3.79928131103515625e+01,1.30368972778320313e+02,1.34554992675781250e+02,8.40865173339843750e+01,2.59386405944824219e+01,0.00000000000000000e+00,0.00000000000000000e+00,0.00000000000000000e+00,0.00000000000000000e+00,0.00000000000000000e+00,0.00000000000000000e+00,0.00000000000000000e+00,0.00000000000000000e+00,0.00000000000000000e+00,0.00000000000000000e+00,0.00000000000000000e+00,0.00000000000000000e+00,0.00000000000000000e+00,0.00000000000000000e+00,0.00000000000000000e+00,0.00000000000000000e+00],"parents":[2147483647,0,0,1,1,2,2,3,3,4,4,5,5,6,6,7,7,8,8,9,9,10,10,11,11,12,12,13,13,14,14],"right_children":[2,4,6,8,10,12,14,16,18,20,22,24,26,28,30,-1,-1,-1,-1,-1,-1,-1,-1,-1,-1,-1,-1,-1,-1,-1,-1],"split_conditions":[2.05490798950195313e+01,5.00000000000000000e-01,1.22500000000000000e+02,5.54450000000000000e+03,3.65000000000000000e+01,9.50000000000000000e+00,2.03978000000000000e+05,6.50000000000000000e+00,6.50000000000000000e+00,9.61032775878906250e+02,-4.32326972484588623e-01,1.32500000000000000e+02,1.99050000000000000e+03,1.34469747543334961e+01,9.27747845649719238e-01,-4.27701085805892944e-01,5.48653863370418549e-02,1.27859190106391907e-01,-8.97170975804328918e-02,5.39169199764728546e-02,-3.52933794260025024e-01,2.16419830918312073e-01,-7.15433210134506226e-02,-2.03869000077247620e-01,-1.21612986549735069e-02,-1.81408077478408813e-01,4.36682105064392090e-02,-2.93340414762496948e-01,1.56546488404273987e-01,-2.98217803239822388e-01,1.36437406763434410e-02],"split_indices":[85,139,56,42,51,67,18,138,111,7,76,145,42,80,89,0,0,0,0,0,0,0,0,0,0,0,0,0,0,0,0],"sum_hessian":[5.39263867187500000e+03,3.24167022705078125e+02,5.06847167968750000e+03,1.19415321350097656e+02,2.04751693725585938e+02,4.17535546875000000e+03,8.93116088867187500e+02,1.00409942626953125e+02,1.90053787231445313e+01,4.00262603759765625e+01,1.64725433349609375e+02,1.31707946777343750e+03,2.85827587890625000e+03,8.10338439941406250e+02,8.27776107788085938e+01,9.36057891845703125e+01,6.80415248870849609e+00,1.23958330154418945e+01,6.60954666137695313e+00,3.59294629096984863e+00,3.64333152770996094e+01,4.44187202453613281e+01,1.20306709289550781e+02,5.19750183105468750e+02,7.97329284667968750e+02,2.48188980102539063e+02,2.61008691406250000e+03,2.57350997924804688e+01,7.84603393554687500e+02,4.47682800292968750e+01,3.80093269348144531e+01],"tree_param":{"num_deleted":"0","num_feature":"168","num_nodes":"31","size_leaf_vector":"0"}},{"base_weights":[-9.77716129273176193e-03,-2.41579592227935791e-01,6.77335858345031738e-02,6.65584802627563477e-02,-6.00015103816986084e-01,1.15604728460311890e-01,-4.30727392435073853e-01,-9.23632860183715820e-01,1.46965935826301575e-01,-7.98190593719482422e-01,-2.10117101669311523e-01,-2.15933173894882202e-01,1.80298179388046265e-01,2.03124374151229858e-01,-7.55395531654357910e-01,3.30213755369186401e-01,-1.16469955444335938e+00,2.57558345794677734e-01,-6.36050343513488770e-01,-9.06006813049316406e-01,-1.84424266219139099e-01,3.44950765371322632e-01,-6.06868684291839600e-01,-7.52466499805450439e-01,7.68021075055003166e-03,-2.43564844131469727e-01,2.37047851085662842e-01,5.57263314723968506e-01,-6.03784561157226563e-01,-4.64131198823451996e-02,-9.40279483795166016e-01],"default_left":[true,true,true,true,true,true,true,true,true,true,true,true,true,true,true,false,false,false,false,false,false,false,false,false,false,false,false,false,false,false,false],"id":17,"leaf_child_counts":[0,0,0,0,0,0,0,0,0,0,0,0,0,0,0,0,0,0,0,0,0,0,0,0,0,0,0,0,0,0,0],"left_children":[1,3,5,7,9,11,13,15,17,19,21,23,25,27,29,-1,-1,-1,-1,-1,-1,-1,-1,-1,-1,-1,-1,-1,-1,-1,-1],"loss_changes":[9.45392837524414063e+01,1.46214202880859375e+02,9.48750915527343750e+01,5.95565719604492188e+01,4.46921691894531250e+01,7.80314788818359375e+01,7.40858078002929688e+01,2.27919158935546875e+01,6.14401550292968750e+01,2.39442443847656250e+01,5.29653167724609375e+01,7.16382141113281250e+01,7.37379989624023438e+01,4.21878204345703125e+01,2.99979400634765625e+01,0.00000000000000000e+00,0.00000000000000000e+00,0.00000000000000000e+00,0.00000000000000000e+00,0.00000000000000000e+00,0.00000000000000000e+00,0.00000000000000000e+00,0.00000000000000000e+00,0.00000000000000000e+00,0.00000000000000000e+00,0.00000000000000000e+00,0.00000000000000000e+00,0.00000000000000000e+00,0.00000000000000000e+00,0.00000000000000000e+00,0.00000000000000000e+00],"parents":[2147483647,0,0,1,1,2,2,3,3,4,4,5,5,6,6,7,7,8,8,9,9,10,10,11,11,12,12,13,13,14,14],"right_children":[2,4,6,8,10,12,14,16,18,20,22,24,26,28,30,-1,-1,-1,-1,-1,-1,-1,-1,-1,-1,-1,-1,-1,-1,-1,-1],"split_conditions":[2.55000000000000000e+01,1.04500000000000000e+02,6.25000000000000000e+01,2.86901000976562500e+02,4.25000000000000000e+01,9.55000000000000000e+01,8.75000000000000000e+01,8.10000000000000000e+01,3.85000000000000000e+01,1.11051321029663086e+00,1.47150000000000000e+03,1.24067711830139160e+00,1.95000000000000000e+01,1.09500000000000000e+02,1.00500000000000000e+02,9.90641340613365173e-02,-3.49409878253936768e-01,7.72675052285194397e-02,-1.90815106034278870e-01,-2.71802067756652832e-01,-5.53272813558578491e-02,1.03485234081745148e-01,-1.82060614228248596e-01,-2.25739955902099609e-01,2.30406341142952442e-03,-7.30694532394409180e-02,7.11143612861633301e-02,1.67179003357887268e-01,-1.81135371327400208e-01,-1.39239365234971046e-02,-2.82083868980407715e-01],"split_indices":[153,61,153,7,128,56,58,100,162,93,40,95,128,57,62,0,0,0,0,0,0,0,0,0,0,0,0,0,0,0,0],"sum_hessian":[5.23311572265625000e+03,1.30340930175781250e+03,3.92970654296875000e+03,7.07448242187500000e+02,5.95960998535156250e+02,3.59588623046875000e+03,3.33820190429687500e+02,4.13186798095703125e+01,6.66129577636718750e+02,3.84713165283203125e+02,2.11247863769531250e+02,5.81381896972656250e+02,3.01450439453125000e+03,1.14973030090332031e+02,2.18847167968750000e+02,5.76846075057983398e+00,3.55502204895019531e+01,5.92510070800781250e+02,7.36194686889648438e+01,3.21155761718750000e+02,6.35574150085449219e+01,8.88718261718750000e+01,1.22376037597656250e+02,1.60590011596679688e+02,4.20791870117187500e+02,3.50115386962890625e+02,2.66438916015625000e+03,8.31296005249023438e+01,3.18434295654296875e+01,4.91469306945800781e+01,1.69700241088867188e+02],"tree_param":{"num_deleted":"0","num_feature":"168","num_nodes":"31","size_leaf_vector":"0"}},{"base_weights":[-1.14525938406586647e-02,1.44453803077340126e-02,-6.33450448513031006e-01,-8.98753762245178223e-01,3.22062037885189056e-02,-7.65002012252807617e-01,1.64805501699447632e-01,-1.00934791564941406e+00,1.04066587984561920e-01,8.82929265499114990e-02,-2.55190610885620117e-01,2.12899670004844666e-01,-8.04256677627563477e-01,4.48578655719757080e-01,-2.79766231775283813e-01,-1.10532164573669434e+00,-4.53965887427330017e-02,-1.54897168278694153e-01,2.28027760982513428e-01,-2.29557663202285767e-01,1.50139853358268738e-01,-5.93564748764038086e-01,2.00843185186386108e-01,-8.51735770702362061e-01,1.00242212414741516e-01,-1.44617840647697449e-01,5.51101505756378174e-01,-4.79023903608322144e-01,1.18838630616664886e-01],"default_left":[true,true,true,true,true,true,true,true,true,true,true,false,true,true,true,false,false,false,false,false,false,false,false,false,false,false,false,false,false],"id":18,"leaf_child_counts":[0,0,0,0,0,0,0,0,0,0,0,0,0,0,0,0,0,0,0,0,0,0,0,0,0,0,0,0,0],"left_children":[1,3,5,7,9,11,13,15,17,19,21,-1,23,25,27,-1,-1,-1,-1,-1,-1,-1,-1,-1,-1,-1,-1,-1,-1],"loss_changes":[8.25588912963867188e+01,8.03427886962890625e+01,2.34038391113281250e+01,1.20575714111328125e+01,7.84721069335937500e+01,9.42183685302734375e+00,7.09596538543701172e+00,7.25224304199218750e+00,1.26769018173217773e+00,8.04649963378906250e+01,1.24520172119140625e+02,0.00000000000000000e+00,8.78675079345703125e+00,3.07994604110717773e+00,2.86646986007690430e+00,0.00000000000000000e+00,0.00000000000000000e+00,0.00000000000000000e+00,0.00000000000000000e+00,0.00000000000000000e+00,0.00000000000000000e+00,0.00000000000000000e+00,0.00000000000000000e+00,0.00000000000000000e+00,0.00000000000000000e+00,0.00000000000000000e+00,0.00000000000000000e+00,0.00000000000000000e+00,0.00000000000000000e+00],"parents":[2147483647,0,0,1,1,2,2,3,3,4,4,5,5,6,6,7,7,8,8,9,9,10,10,12,12,13,13,14,14],"right_children":[2,4,6,8,10,12,14,16,18,20,22,-1,24,26,28,-1,-1,-1,-1,-1,-1,-1,-1,-1,-1,-1,-1,-1,-1],"split_conditions":[6.25000000000000000e+01,2.64850000000000000e+03,1.45500000000000000e+02,1.18298673629760742e+00,1.25000000000000000e+01,4.15000000000000000e+01,6.17676861584186554e-02,1.15929567813873291e+00,2.65000000000000000e+01,5.05000000000000000e+01,3.09950537109375000e+03,6.38699010014533997e-02,5.71986850000000000e+06,3.45000000000000000e+01,4.50000000000000000e+00,-3.31596493721008301e-01,-1.36189768090844154e-02,-4.64691519737243652e-02,6.84083327651023865e-02,-6.88673034310340881e-02,4.50419560074806213e-02,-1.78069427609443665e-01,6.02529570460319519e-02,-2.55520731210708618e-01,3.00726648420095444e-02,-4.33853529393672943e-02,1.65330454707145691e-01,-1.43707171082496643e-01,3.56515906751155853e-02],"split_indices":[146,17,100,72,133,58,76,92,155,49,82,0,16,55,66,0,0,0,0,0,0,0,0,0,0,0,0,0,0],"sum_hessian":[5.10166015625000000e+03,4.91180029296875000e+03,1.89859786987304688e+02,7.95122528076171875e+01,4.83228808593750000e+03,1.63534408569335938e+02,2.63253803253173828e+01,7.15264587402343750e+01,7.98579692840576172e+00,4.05192846679687500e+03,7.80359497070312500e+02,3.75047230720520020e+00,1.59783935546875000e+02,1.59861307144165039e+01,1.03392505645751953e+01,6.30492401123046875e+01,8.47721958160400391e+00,1.37334656715393066e+00,6.61245012283325195e+00,6.53371826171875000e+02,3.39855664062500000e+03,4.45372344970703125e+02,3.34987152099609375e+02,1.52646224975585938e+02,7.13771629333496094e+00,1.44816911220550537e+00,1.45379610061645508e+01,4.87568616867065430e+00,5.46356439590454102e+00],"tree_param":{"num_deleted":"0","num_feature":"168","num_nodes":"29","size_leaf_vector":"0"}},{"base_weights":[-1.04877641424536705e-02,-7.13858246803283691e-01,1.06089645996689796e-02,-1.79496277123689651e-02,-8.54509770870208740e-01,-4.23567950725555420e-01,4.63047511875629425e-02,2.87063211202621460e-01,-4.46601718664169312e-01,-9.09995377063751221e-01,1.77530735731124878e-01,-2.04964175820350647e-01,-9.12414669990539551e-01,7.09371194243431091e-02,-5.71992456912994385e-01,4.39460843801498413e-01,-1.78095206618309021e-01,-5.64814150333404541e-01,1.13108284771442413e-01,-9.25185918807983398e-01,4.85001057386398315e-02,2.72773861885070801e-01,-8.79888534545898438e-02,-5.25861501693725586e-01,2.55031347274780273e-01,-9.97823119163513184e-01,-6.64536058902740479e-02,-4.34999704360961914e-01,1.03014588356018066e-01,-8.22841942310333252e-01,-4.64150831103324890e-02],"default_left":[true,true,true,true,true,true,true,true,true,true,true,true,true,true,true,false,false,false,false,false,false,false,false,false,false,false,false,false,false,false,false],"id":19,"leaf_child_counts":[0,0,0,0,0,0,0,0,0,0,0,0,0,0,0,0,0,0,0,0,0,0,0,0,0,0,0,0,0,0,0],"left_children":[1,3,5,7,9,11,13,15,17,19,21,23,25,27,29,-1,-1,-1,-1,-1,-1,-1,-1,-1,-1,-1,-1,-1,-1,-1,-1],"loss_changes":[7.47753982543945313e+01,1.41328506469726563e+01,7.62324218750000000e+01,7.15193557739257813e+00,9.39487457275390625e+00,3.71308593750000000e+01,6.97697143554687500e+01,3.47769832611083984e+00,2.44670629501342773e+00,2.39092254638671875e+00,8.34507882595062256e-01,4.29854164123535156e+01,7.03485870361328125e+00,7.17630233764648438e+01,2.25830688476562500e+01,0.00000000000000000e+00,0.00000000000000000e+00,0.00000000000000000e+00,0.00000000000000000e+00,0.00000000000000000e+00,0.00000000000000000e+00,0.00000000000000000e+00,0.00000000000000000e+00,0.00000000000000000e+00,0.00000000000000000e+00,0.00000000000000000e+00,0.00000000000000000e+00,0.00000000000000000e+00,0.00000000000000000e+00,0.00000000000000000e+00,0.00000000000000000e+00],"parents":[2147483647,0,0,1,1,2,2,3,3,4,4,5,5,6,6,7,7,8,8,9,9,10,10,11,11,12,12,13,13,14,14],"right_children":[2,4,6,8,10,12,14,16,18,20,22,24,26,28,30,-1,-1,-1,-1,-1,-1,-1,-1,-1,-1,-1,-1,-1,-1,-1,-1],"split_conditions":[1.45000000000000000e+01,6.05000000000000000e+01,5.00000000000000000e-01,1.15000000000000000e+01,5.65000000000000000e+01,1.56350000000000000e+03,6.95000000000000000e+01,9.50000000000000000e+00,2.25000000000000000e+01,1.08500000000000000e+02,1.09500000000000000e+02,9.28500000000000000e+02,6.05000000000000000e+01,4.10255279541015625e+01,1.42500000000000000e+02,1.31838262081146240e-01,-5.34285642206668854e-02,-1.69444248080253601e-01,3.39324884116649628e-02,-2.77555793523788452e-01,1.45500320941209793e-02,8.18321630358695984e-02,-2.63966564089059830e-02,-1.57758459448814392e-01,7.65094086527824402e-02,-2.99346953630447388e-01,-1.99360828846693039e-02,-1.30499914288520813e-01,3.09043768793344498e-02,-2.46852591633796692e-01,-1.39245251193642616e-02],"split_indices":[55,58,161,131,51,6,117,106,98,162,62,47,117,86,136,0,0,0,0,0,0,0,0,0,0,0,0,0,0,0,0],"sum_hessian":[5.01652050781250000e+03,1.31739227294921875e+02,4.88478125000000000e+03,2.49932384490966797e+01,1.06745994567871094e+02,3.58709991455078125e+02,4.52607128906250000e+03,1.74974117279052734e+01,7.49582672119140625e+00,1.02983154296875000e+02,3.76284170150756836e+00,2.62578613281250000e+02,9.61313858032226563e+01,4.36543554687500000e+03,1.60635726928710938e+02,1.38036565780639648e+01,3.69375443458557129e+00,6.07580852508544922e+00,1.42001831531524658e+00,1.01889656066894531e+02,1.09350204467773438e+00,2.46781110763549805e+00,1.29503059387207031e+00,1.53410293579101563e+02,1.09168319702148438e+02,8.48701553344726563e+01,1.12612266540527344e+01,2.49042266845703125e+02,4.11639355468750000e+03,1.02994293212890625e+02,5.76414299011230469e+01],"tree_param":{"num_deleted":"0","num_feature":"168","num_nodes":"31","size_leaf_vector":"0"}},{"base_weights":[-1.13078914582729340e-02,4.77579459547996521e-02,-2.56194174289703369e-01,-1.58466830849647522e-01,1.32593393325805664e-01,-5.46752452850341797e-01,3.81643958389759064e-02,-7.03875005245208740e-01,-6.68526859953999519e-03,-5.81599175930023193e-01,1.82967051863670349e-01,-8.63219499588012695e-01,-1.03823609650135040e-01,-6.10911965370178223e-01,2.88790971040725708e-01,-7.43694484233856201e-01,3.86115640401840210e-01,3.78444403409957886e-01,-1.59542530775070190e-01,-3.38802337646484375e-02,-1.09519839286804199e+00,1.25991523265838623e-01,6.28327965736389160e-01,-3.97453278303146362e-01,-1.07118535041809082e+00,-6.79096758365631104e-01,4.70145419239997864e-02,-1.19477105140686035e+00,-3.19898352026939392e-02,-4.72692012786865234e-01,4.96363669633865356e-01],"default_left":[true,true,true,true,true,true,true,true,true,true,true,true,true,true,true,false,false,false,false,false,false,false,false,false,false,false,false,false,false,false,false],"id":20,"leaf_child_counts":[0,0,0,0,0,0,0,0,0,0,0,0,0,0,0,0,0,0,0,0,0,0,0,0,0,0,0,0,0,0,0],"left_children":[1,3,5,7,9,11,13,15,17,19,21,23,25,27,29,-1,-1,-1,-1,-1,-1,-1,-1,-1,-1,-1,-1,-1,-1,-1,-1],"loss_changes":[7.20045776367187500e+01,7.05251464843750000e+01,8.30408020019531250e+01,9.73263931274414063e+01,1.04185699462890625e+02,6.70246124267578125e+01,8.30907363891601563e+01,1.54181442260742188e+01,5.59808654785156250e+01,5.33043670654296875e+01,6.66924362182617188e+01,2.09715576171875000e+01,1.95961647033691406e+01,4.76158218383789063e+01,6.15190124511718750e+01,0.00000000000000000e+00,0.00000000000000000e+00,0.00000000000000000e+00,0.00000000000000000e+00,0.00000000000000000e+00,0.00000000000000000e+00,0.00000000000000000e+00,0.00000000000000000e+00,0.00000000000000000e+00,0.00000000000000000e+00,0.00000000000000000e+00,0.00000000000000000e+00,0.00000000000000000e+00,0.00000000000000000e+00,0.00000000000000000e+00,0.00000000000000000e+00],"parents":[2147483647,0,0,1,1,2,2,3,3,4,4,5,5,6,6,7,7,8,8,9,9,10,10,11,11,12,12,13,13,14,14],"right_children":[2,4,6,8,10,12,14,16,18,20,22,24,26,28,30,-1,-1,-1,-1,-1,-1,-1,-1,-1,-1,-1,-1,-1,-1,-1,-1],"split_conditions":[1.35000000000000000e+01,1.99450000000000000e+03,4.15000000000000000e+01,9.55000000000000000e+01,1.53817138671875000e+02,1.30266833305358887e+00,1.95250000000000000e+03,1.50228261947631836e+00,9.75000000000000000e+01,1.55000000000000000e+01,8.65000000000000000e+01,4.35000000000000000e+01,4.05000000000000000e+01,3.35000000000000000e+01,4.42556500000000000e+05,-2.23108351230621338e-01,1.15834698081016541e-01,1.13533325493335724e-01,-4.78627607226371765e-02,-1.01640708744525909e-02,-3.28559517860412598e-01,3.77974584698677063e-02,1.88498392701148987e-01,-1.19235984981060028e-01,-3.21355611085891724e-01,-2.03729033470153809e-01,1.41043635085225105e-02,-3.58431339263916016e-01,-9.59695130586624146e-03,-1.41807615756988525e-01,1.48909106850624084e-01],"split_indices":[115,42,67,136,83,95,41,93,62,66,49,66,49,127,20,0,0,0,0,0,0,0,0,0,0,0,0,0,0,0,0],"sum_hessian":[4.95036181640625000e+03,3.99810546875000000e+03,9.52256286621093750e+02,1.16153491210937500e+03,2.83657055664062500e+03,4.72749084472656250e+02,4.79507202148437500e+02,2.40993469238281250e+02,9.20541381835937500e+02,1.76466110229492188e+02,2.66010449218750000e+03,2.67436065673828125e+02,2.05313034057617188e+02,1.27567626953125000e+02,3.51939575195312500e+02,2.37097427368164063e+02,3.89604759216308594e+00,2.55262023925781250e+02,6.65279357910156250e+02,9.31342315673828125e+01,8.33318786621093750e+01,2.37545336914062500e+03,2.84651000976562500e+02,9.60305175781250000e+01,1.71405532836914063e+02,3.17377758026123047e+01,1.73575256347656250e+02,5.55684852600097656e+01,7.19991455078125000e+01,7.12820358276367188e+01,2.80657531738281250e+02],"tree_param":{"num_deleted":"0","num_feature":"168","num_nodes":"31","size_leaf_vector":"0"}},{"base_weights":[-1.22967734932899475e-02,1.21028786525130272e-02,-5.66469192504882813e-01,-2.68692076206207275e-01,6.79654404520988464e-02,-7.79654204845428467e-01,4.00790393352508545e-01,-7.55334854125976563e-01,-2.80294064432382584e-02,9.05602052807807922e-02,-7.40483641624450684e-01,3.29739272594451904e-01,-8.52289617061614990e-01,-3.17730873823165894e-01,6.14937663078308105e-01,-1.07642658054828644e-01,-1.03552019596099854e+00,-6.67570054531097412e-01,1.90357387065887451e-01,3.80287654697895050e-02,4.03025299310684204e-01,-9.60321962833404541e-01,2.68683671951293945e-01,5.38980960845947266e-01,-1.78585126996040344e-01,-9.79564130306243896e-01,-3.64647097885608673e-02,-4.78323906660079956e-01,1.46632820367813110e-01,-1.22542239725589752e-01,6.89549624919891357e-01],"default_left":[true,true,true,true,true,true,true,true,true,true,true,true,true,true,true,false,false,false,false,false,false,false,false,false,false,false,false,false,false,false,false],"id":21,"leaf_child_counts":[0,0,0,0,0,0,0,0,0,0,0,0,0,0,0,0,0,0,0,0,0,0,0,0,0,0,0,0,0,0,0],"left_children":[1,3,5,7,9,11,13,15,17,19,21,23,25,27,29,-1,-1,-1,-1,-1,-1,-1,-1,-1,-1,-1,-1,-1,-1,-1,-1],"loss_changes":[6.53828735351562500e+01,7.30395965576171875e+01,4.67352828979492188e+01,9.01875457763671875e+01,7.19015197753906250e+01,1.80900115966796875e+01,1.01216106414794922e+01,4.46275787353515625e+01,7.62993392944335938e+01,6.19633483886718750e+01,2.76434249877929688e+01,3.71954917907714844e+00,1.66782150268554688e+01,2.58979892730712891e+00,3.52972507476806641e+00,0.00000000000000000e+00,0.00000000000000000e+00,0.00000000000000000e+00,0.00000000000000000e+00,0.00000000000000000e+00,0.00000000000000000e+00,0.00000000000000000e+00,0.00000000000000000e+00,0.00000000000000000e+00,0.00000000000000000e+00,0.00000000000000000e+00,0.00000000000000000e+00,0.00000000000000000e+00,0.00000000000000000e+00,0.00000000000000000e+00,0.00000000000000000e+00],"parents":[2147483647,0,0,1,1,2,2,3,3,4,4,5,5,6,6,7,7,8,8,9,9,10,10,11,11,12,12,13,13,14,14],"right_children":[2,4,6,8,10,12,14,16,18,20,22,24,26,28,30,-1,-1,-1,-1,-1,-1,-1,-1,-1,-1,-1,-1,-1,-1,-1,-1],"split_conditions":[9.35000000000000000e+01,5.00000000000000000e-01,3.40742600000000000e+06,5.35000000000000000e+01,1.74865000000000000e+04,2.15000000000000000e+01,7.50000000000000000e+00,8.62063094973564148e-03,5.00000000000000000e-01,6.00424267578125000e+03,3.00716040039062500e+03,6.15000000000000000e+01,1.33515000000000000e+04,1.75000000000000000e+01,8.20050000000000000e+03,-3.22927981615066528e-02,-3.10656070709228516e-01,-2.00271025300025940e-01,5.71072176098823547e-02,1.14086298272013664e-02,1.20907597243785858e-01,-2.88096606731414795e-01,8.06051045656204224e-02,1.61694288253784180e-01,-5.35755418241024017e-02,-2.93869256973266602e-01,-1.09394136816263199e-02,-1.43497183918952942e-01,4.39898483455181122e-02,-3.67626734077930450e-02,2.06864893436431885e-01],"split_indices":[69,147,20,50,6,52,65,92,68,82,85,53,40,138,3,0,0,0,0,0,0,0,0,0,0,0,0,0,0,0,0],"sum_hessian":[4.81282861328125000e+03,4.62391455078125000e+03,1.88913879394531250e+02,7.57776855468750000e+02,3.86613769531250000e+03,1.57180480957031250e+02,3.17334060668945313e+01,2.40130905151367188e+02,5.17645996093750000e+02,3.77398120117187500e+03,9.21565704345703125e+01,6.39603948593139648e+00,1.50784439086914063e+02,5.62029123306274414e+00,2.61131153106689453e+01,7.87804107666015625e+01,1.61350494384765625e+02,1.23914085388183594e+02,3.93731872558593750e+02,3.24522192382812500e+03,5.28759155273437500e+02,7.62682266235351563e+01,1.58883476257324219e+01,3.89011454582214355e+00,2.50592517852783203e+00,1.27831275939941406e+02,2.29531574249267578e+01,3.84099531173706055e+00,1.77929592132568359e+00,1.51386272907257080e+00,2.45992527008056641e+01],"tree_param":{"num_deleted":"0","num_feature":"168","num_nodes":"31","size_leaf_vector":"0"}},{"base_weights":[-1.11712645739316940e-02,2.34158579260110855e-02,-3.78958225250244141e-01,5.86793795228004456e-02,-4.14216488599777222e-01,-4.53845053911209106e-01,3.68862390518188477e-01,8.05117487907409668e-02,-6.34536802768707275e-01,-5.72473585605621338e-01,1.89888238906860352e-01,-1.92254334688186646e-02,-6.42693459987640381e-01,-2.59680807590484619e-01,5.39018094539642334e-01,-9.34921085834503174e-01,9.28319022059440613e-02,1.57568097114562988e-01,-8.45659673213958740e-01,2.05405816435813904e-01,-6.74757182598114014e-01,4.37261223793029785e-01,-3.63245636224746704e-01,2.21541315317153931e-01,-6.02532446384429932e-01,2.85482645034790039e-01,-7.05987513065338135e-01,1.81856434792280197e-02,-2.94893652200698853e-01,-8.08382928371429443e-02,6.78394854068756104e-01],"default_left":[true,true,true,true,true,true,true,true,true,true,true,true,true,true,true,false,false,false,false,false,false,false,false,false,false,false,false,false,false,false,false],"id":22,"leaf_child_counts":[0,0,0,0,0,0,0,0,0,0,0,0,0,0,0,0,0,0,0,0,0,0,0,0,0,0,0,0,0,0,0],"left_children":[1,3,5,7,9,11,13,15,17,19,21,23,25,27,29,-1,-1,-1,-1,-1,-1,-1,-1,-1,-1,-1,-1,-1,-1,-1,-1],"loss_changes":[6.08069915771484375e+01,6.78636093139648438e+01,2.55203247070312500e+01,6.22250061035156250e+01,3.29900970458984375e+01,3.10197143554687500e+01,6.98439693450927734e+00,5.07192878723144531e+01,2.30158500671386719e+01,2.30568618774414063e+01,1.32407808303833008e+01,2.03470325469970703e+01,1.85661010742187500e+01,2.74697661399841309e-01,4.34921073913574219e+00,0.00000000000000000e+00,0.00000000000000000e+00,0.00000000000000000e+00,0.00000000000000000e+00,0.00000000000000000e+00,0.00000000000000000e+00,0.00000000000000000e+00,0.00000000000000000e+00,0.00000000000000000e+00,0.00000000000000000e+00,0.00000000000000000e+00,0.00000000000000000e+00,0.00000000000000000e+00,0.00000000000000000e+00,0.00000000000000000e+00,0.00000000000000000e+00],"parents":[2147483647,0,0,1,1,2,2,3,3,4,4,5,5,6,6,7,7,8,8,9,9,10,10,11,11,12,12,13,13,14,14],"right_children":[2,4,6,8,10,12,14,16,18,20,22,24,26,28,30,-1,-1,-1,-1,-1,-1,-1,-1,-1,-1,-1,-1,-1,-1,-1,-1],"split_conditions":[5.75000000000000000e+01,2.75000000000000000e+01,7.19950000000000000e+03,6.95000000000000000e+01,1.13350000000000000e+04,2.15000000000000000e+01,2.49500000000000000e+03,1.34013156890869141e+01,1.75000000000000000e+01,-1.18901181221008301e+00,1.85000000000000000e+01,3.50000000000000000e+00,6.50000000000000000e+00,-5.83523273468017578e-01,8.50000000000000000e+00,-2.80476331710815430e-01,2.78495717793703079e-02,4.72704321146011353e-02,-2.53697901964187622e-01,6.16217479109764099e-02,-2.02427163720130920e-01,1.31178379058837891e-01,-1.08973696827888489e-01,6.64623975753784180e-02,-1.80759742856025696e-01,8.56447964906692505e-02,-2.11796268820762634e-01,5.45569323003292084e-03,-8.84680971503257751e-02,-2.42514889687299728e-02,2.03518465161323547e-01],"split_indices":[108,120,43,162,44,110,42,80,108,76,121,70,50,78,70,0,0,0,0,0,0,0,0,0,0,0,0,0,0,0,0],"sum_hessian":[4.75470019531250000e+03,4.35883496093750000e+03,3.95865051269531250e+02,4.04581982421875000e+03,3.13015136718750000e+02,3.65191375732421875e+02,3.06736545562744141e+01,3.93514306640625000e+03,1.10676788330078125e+02,2.48659347534179688e+02,6.43557891845703125e+01,1.15622489929199219e+02,2.49568893432617188e+02,4.85342073440551758e+00,2.58202342987060547e+01,3.37070770263671875e+01,3.90143603515625000e+03,2.40919589996337891e+01,8.65848312377929688e+01,2.71392230987548828e+01,2.21520126342773438e+02,4.66397705078125000e+01,1.77160167694091797e+01,8.84264221191406250e+01,2.71960659027099609e+01,1.25706195831298828e+01,2.36998275756835938e+02,1.36167025566101074e+00,3.49175047874450684e+00,5.89649915695190430e+00,1.99237346649169922e+01],"tree_param":{"num_deleted":"0","num_feature":"168","num_nodes":"31","size_leaf_vector":"0"}},{"base_weights":[-1.06733804568648338e-02,4.22890437766909599e-03,-7.73876845836639404e-01,-3.96076530218124390e-01,3.44654694199562073e-02,-1.00754499435424805e+00,3.19055579602718353e-02,-1.26364624500274658e+00,-1.19692735373973846e-01,-1.26206353306770325e-01,1.24496035277843475e-01,9.56889614462852478e-02,